//MIT License
//
//Copyright (c) 2016 Drake Levy
//Copyright (c) 2023 szlldm
//
//Permission is hereby granted, free of charge, to any person obtaining a copy
//of this software and associated documentation files (the "Software"), to deal
//in the Software without restriction, including without limitation the rights
//to use, copy, modify, merge, publish, distribute, sublicense, and/or sell
//copies of the Software, and to permit persons to whom the Software is
//furnished to do so, subject to the following conditions:
//
//The above copyright notice and this permission notice shall be included in all
//copies or substantial portions of the Software.
//
//THE SOFTWARE IS PROVIDED "AS IS", WITHOUT WARRANTY OF ANY KIND, EXPRESS OR
//IMPLIED, INCLUDING BUT NOT LIMITED TO THE WARRANTIES OF MERCHANTABILITY,
//FITNESS FOR A PARTICULAR PURPOSE AND NONINFRINGEMENT. IN NO EVENT SHALL THE
//AUTHORS OR COPYRIGHT HOLDERS BE LIABLE FOR ANY CLAIM, DAMAGES OR OTHER
//LIABILITY, WHETHER IN AN ACTION OF CONTRACT, TORT OR OTHERWISE, ARISING FROM,
//OUT OF OR IN CONNECTION WITH THE SOFTWARE OR THE USE OR OTHER DEALINGS IN THE
//SOFTWARE.


static const int16_t ffx2d_paramFeatureBias[8] = {
    254, 93, -921, -342, -124, -1059, -913, 265, 
};

static const int16_t ffx2d_paramFeatureWeights[200] = {
    172, 341, -186, 215, -161, 417, -539, -314, -181, 212, -302, -492, -363, 77, -157, 429, 
    -626, -51, 121, -424, -142, 540, -116, 119, -357, 128, -396, -396, -471, 418, -607, -325, 
    101, 178, -401, -152, -159, 530, -343, 262, -614, -395, -1161, 38, 71, 457, -59, 159, 
    512, -2834, -184, -1235, 357, 65, 1033, 686, -745, -256, 1979, -534, 4832, 344, 1902, 2242, 
    -2244, -366, -37, -542, 723, 956, 818, 3115, -28, -158, -243, -407, 100, 44, -424, -445, 
    95, -785, 523, -178, -77, -391, 454, -999, 2548, 2293, 745, -1108, -654, 1590, 1362, 2323, 
    2628, 1946, 719, 3082, 2765, 3768, 3258, -7960, -2034, -1010, 2285, 2881, -108, 1947, -726, -921, 
    280, 716, 564, 136, -22, -296, -100, -39, -200, -842, 507, 29, -156, -702, 192, -345, 
    493, 354, 85, -1087, -1765, 452, 404, 1125, 331, 200, 1413, 550, -4792, 1076, 1441, 173, 
    -445, 562, 1435, 1097, -770, -179, -558, 1240, -182, 306, 316, -818, -415, -165, -245, 151, 
    1, -400, -118, -101, 301, 377, -345, -114, 276, 30, 242, 288, 294, -586, 35, -10, 
    161, -662, 181, -287, 340, 223, -111, -418, -160, -373, -165, -9, 270, -61, -205, -20, 
    260, 65, -100, -171, 184, 152, -185, -319, 
};

static const int16_t ffx2d_paramModel1Bias[8] = {
    396, 757, -500, -816, -347, -1018, -274, -346, 
};

static const int16_t ffx2d_paramModel1Weights[576] = {
    -380, 3567, 2833, -545, -422, 1829, -2033, -1711, -1682, 333, -238, 1321, 2164, 2049, 331, -376, 
    -2369, 2062, -406, -780, -514, 3216, 1259, -405, -1818, -1243, 2246, 179, -3698, 1588, 1770, 931, 
    -1612, 3202, -1084, -1545, -637, 1396, -1522, 274, 552, 1895, 437, 2175, 2961, -1890, 2455, 142, 
    -1285, 4199, 880, 2749, 1027, 2653, -1127, -530, -670, 3776, -1707, 2238, -3227, -268, -1000, 180, 
    2093, -3800, 413, 152, 1438, -288, -940, 828, -403, 1260, -875, 9, -424, 2497, 3753, -1883, 
    2447, -2180, -4069, -3581, 6177, -999, 1677, 2025, 37, -120, -405, 4613, 212, 2062, 2005, 5474, 
    -1311, 4644, -220, -768, 1658, -1562, 2465, -800, 1891, -1581, 1161, -466, 2621, -2067, -1909, 1375, 
    3659, 541, -308, -1205, 634, -4362, 716, -668, -872, -924, 379, 1681, 1062, 2853, -505, 2122, 
    -850, 850, -609, -1828, 1911, 2450, -138, 921, -588, 77, -1393, -731, 229, -3089, -352, 355, 
    -1514, 355, -1568, 261, -956, 924, -1987, -698, 745, 484, 247, -830, -2125, 1573, -351, 316, 
    44, -4164, -995, 209, -1306, 554, -215, -1247, 1762, -1147, -1577, 1268, -2037, 1991, 998, -2435, 
    427, 807, 1143, -680, -745, 18, 141, -2749, 915, -465, 545, -426, -2291, 1258, 398, -3097, 
    -2041, -1801, -2121, 5704, -895, 204, 2747, 2597, 733, -1057, 1194, -75, 398, -1146, -2176, -1685, 
    417, 4496, -1292, 2021, -1400, -2378, -3460, 1549, 1221, -1667, -2530, 961, -697, 3234, 4418, -507, 
    -1600, -2283, 1416, 4618, 691, -5011, 3095, 2043, -288, -2192, 1661, 3446, 2323, 4340, 2652, -3710, 
    1077, -5053, -3326, 1440, 734, -3845, -267, -720, 3009, -2780, -2819, -222, -3642, -4061, 960, 349, 
    2553, -11994, -4589, 4231, -15, -5122, -1447, 2464, 1991, 937, 288, -1056, 4090, 601, 2760, -4779, 
    470, 6760, 669, -3510, -5426, 3345, 5249, 626, 814, -34, 1897, 373, 1658, 6088, 4114, 715, 
    2507, -1441, 7906, -7455, 6165, -1708, -289, -1553, 2779, -5932, 964, 223, -4847, 401, -412, 5708, 
    -7943, -1418, 3213, -5014, 962, 3555, 2994, 4013, -2417, 2336, 3882, -1112, 5820, -7669, -9401, 3430, 
    -2082, -35, 171, 1004, 664, 3468, 236, -3824, -4387, -1244, -598, -915, 1558, -413, -494, -2623, 
    1901, 3143, 2094, 2203, 50, 7097, 1955, 868, 2069, 1218, 487, 980, 2111, 2072, 1726, -909, 
    2623, 1684, 811, 1588, 2146, 843, 1834, -628, -3710, -920, 2567, -740, -596, 1486, -1458, 191, 
    -6021, -825, -1748, -1212, 2026, 2637, -1246, 1555, 3029, -835, 992, -2097, -1803, 838, 2916, -542, 
    -704, 2006, -177, -84, -1303, 1986, 2154, -341, -673, 369, -1727, -116, 911, 1455, 750, -777, 
    -2782, 3806, 829, -63, 3217, -1004, -2270, 725, -455, -92, -358, -1054, -593, 1295, 2386, -1765, 
    445, -986, -734, 904, 1176, 522, -1088, 64, -267, -196, 245, 861, 379, -3394, 49, -1528, 
    1341, 2492, -2273, -310, -2771, -884, -1430, 1202, -1105, 1315, 224, -494, -119, 2658, 198, -1297, 
    -1408, -2809, -4169, 2277, 311, 1608, -3031, -3008, -441, -1102, 176, -2944, 157, 2806, -2114, -335, 
    -5206, -1025, -1813, -1247, -6708, 1637, 3930, -1143, 1639, -1152, 2571, -1082, -1349, 1772, 334, 162, 
    -1060, 1250, 2050, -3408, -4582, 291, -1137, -1009, 492, -2138, -479, -63, 4146, -1649, 38, 1650, 
    -4025, 901, 1005, 369, -1011, 1927, -1541, -46, -945, 1263, -888, -758, 6135, 4339, -959, 435, 
    -7827, 2917, -421, -1164, -791, 128, 1060, 302, -672, 618, -724, 256, 576, -630, -730, 165, 
    -947, -1061, -62, 706, -1854, -2268, -3395, -2337, -3137, 77, -32, -1411, -1551, 232, -2354, -141, 
    3798, 955, -2269, 1352, -2658, 65, -835, 2406, -1381, -563, 250, 472, -5280, 1607, -807, -1714, 
    -299, -1454, -835, 1034, -3508, -2092, -474, 884, -1711, -361, 923, -892, -4424, -1634, 2949, 1963, 
};

static const int16_t ffx2d_paramModel1Alpha[8] = {
    -980, 1600, 6555, -3439, 450, 1463, 5785, 1035, 
};

static const int16_t ffx2d_paramModel2Bias[8] = {
    -8, -339, -1026, -1811, -1002, 118, -662, -1085, 
};

static const int16_t ffx2d_paramModel2Weights[576] = {
    -1690, -1086, 2089, -12522, -2305, 1375, 434, -1822, -136, 185, -1506, 2501, -1777, 903, -131, -1806, 
    -3659, 1827, -2028, -2272, 691, -516, -803, 1281, -98, -1881, 1191, -478, -1483, -222, -888, -621, 
    2990, -1579, 36, 2575, -1662, 438, -1793, 1294, 68, -2252, 485, 1818, 3600, -4, -306, 2987, 
    5045, -1654, 2109, 2936, -2693, -965, -17, 884, 1069, 1240, 1713, -1097, 1473, 331, -462, -496, 
    -2815, -344, -915, -762, 2724, 703, 10, -1086, 570, -3640, -222, -1302, -3755, -1042, 425, -4199, 
    2339, 844, 599, 1431, -3462, 827, 548, 181, -10, 1184, 1622, 338, -66, 901, -1265, 197, 
    4244, -84, -2141, 3011, -104, 954, -3019, 1822, -2109, 863, -78, -1936, -1641, 1634, 1057, 124, 
    -3763, 213, -2106, -367, 2301, 409, 2826, -2056, 2649, 1284, 2059, 480, -565, 130, -761, -23, 
    -613, 99, 73, 373, 2068, 567, -1412, 48, -327, -956, -1007, -416, -4017, -659, 1194, 970, 
    -419, 700, -1074, -359, 556, -1781, 953, -2218, -285, 108, 499, 1147, -872, 874, 368, -534, 
    1129, -1716, -99, 1185, -830, -994, -1231, -763, 2625, -1842, -494, 757, -795, -299, 535, -827, 
    556, 1304, 572, 2950, -2115, 1656, -2457, 923, -2161, -275, 80, 1201, -1564, -590, 648, -673, 
    167, -2885, 1420, -381, -4263, 111, 478, -1655, -1258, 198, 1222, 4490, -401, -1208, 595, -3981, 
    -618, -924, -1428, 412, 392, -687, 2727, -841, 2527, -614, 2249, -861, 714, 242, 305, 671, 
    3865, -294, -976, -772, -1022, -1210, -623, 1122, -2948, 3083, -546, 3049, -1235, 1533, 1467, 2245, 
    867, -1324, -1212, -1301, 1820, -1995, -630, 1485, 595, -1737, -2270, -779, -3455, -133, -5050, -3291, 
    -2067, -1203, 5667, 2653, 4893, -6499, -1476, -2110, -3048, 954, 1142, 1952, -4930, -4755, -143, -5706, 
    -633, -945, -1434, -2732, -4915, 3706, -1932, 4039, 724, 6504, 3241, -3774, 106, -504, -150, -1541, 
    1243, 4047, -5506, -2136, -982, -1396, 6157, -1247, -2993, 2547, 6727, -1340, -1684, 1390, -2455, -1314, 
    -343, -1957, 1983, 2013, -2155, 356, -11378, -2807, -1754, 291, -6827, -3448, -1235, -1141, 945, 8070, 
    706, 49, -220, -117, 2520, -4159, 2684, -1688, 765, -2110, 384, -1543, -4422, -5021, 1020, -195, 
    -422, 100, 1524, 1283, -969, 1933, -1401, -130, -815, -406, -647, 3786, -1398, -146, -179, 1555, 
    21, -666, -438, -1282, 1078, -3183, -517, 1511, 1415, -805, 713, -1692, -279, -1403, -376, 844, 
    125, 1288, -425, -894, -369, 310, 2296, -558, -4728, -1320, -2466, -2687, 2548, 472, 1246, 498, 
    1490, -1117, 447, 2576, -707, 1028, -8, -28, 403, 237, -955, -1336, 156, -449, 339, 1131, 
    495, -544, 594, -874, 780, -1240, -250, -2445, -177, 521, -341, 1004, -407, -458, 37, -1428, 
    -333, 527, 381, -3616, 591, -102, -951, -2366, 547, -875, 828, 272, -378, -767, 1258, -2041, 
    957, 835, 496, -133, 301, 1938, 1383, -2000, -923, 1024, 500, 872, -347, -542, 427, -3516, 
    34, -256, 74, 1327, -2283, -619, 720, -1652, -2518, 2143, -764, -209, 169, -1526, 528, -236, 
    -1047, -798, -69, 546, -1081, 2145, 1465, -462, -1547, -833, -849, -291, -90, 738, -925, -1248, 
    -130, 140, 417, -560, 976, 2161, -3943, -1499, -1167, 433, 981, -479, 47, 640, -3167, -2707, 
    1091, -367, -588, 959, 575, 505, 2734, -429, -3206, -129, 1111, 623, -805, 3678, 1240, -337, 
    109, 625, 275, -9, -1329, -143, -1118, -1648, -325, 324, 232, 333, 149, -1243, 1159, 560, 
    -333, -939, -865, -1494, -304, -1143, 353, 608, 2613, 676, 68, -950, 120, -868, -748, 1394, 
    1147, -365, -754, 1914, 294, -2106, 1722, 1032, 657, -3076, 375, -696, 561, -1385, 503, 240, 
    -1137, 646, 367, 659, 2372, -590, -2694, 702, 322, -449, 1023, 642, -650, -242, -723, 1529, 
};

static const int16_t ffx2d_paramModel2Alpha[8] = {
    1090, 2372, 6100, 499, -1871, 9991, -1266, 658, 
};

static const int16_t ffx2d_paramModel3Bias[8] = {
    347, 559, -1199, -940, -104, -591, -35, 374, 
};

static const int16_t ffx2d_paramModel3Weights[576] = {
    -8, -59, 897, -582, -1443, 751, -335, -274, -240, -503, 1325, -953, 1526, -290, 1437, -117, 
    240, 357, -1865, -944, 241, 1609, -20, -505, -12, -583, 1815, -162, 71, -385, 1181, -364, 
    -2133, 127, 554, 512, -96, 213, 732, -410, 1286, 318, -1854, -218, 1380, 621, -1887, -882, 
    -750, -753, -2553, 648, 276, 247, 403, -51, -176, 303, -1286, 1211, 867, 1216, 2640, -512, 
    -757, 450, -79, -796, 1145, 2307, 645, 118, 2415, -900, -1744, -1100, 1238, 332, 775, -1426, 
    1099, -307, -2257, -621, -456, -291, -807, 2299, 1424, 636, 900, -992, -553, 1053, 908, -586, 
    1018, -1375, 1125, 47, -1821, -340, 1033, -605, -1182, 813, -128, 968, 3225, -196, -1001, -531, 
    -452, -1251, -3544, 1359, 189, -37, -3049, 575, 133, 568, 77, -894, 1800, 726, 5149, 975, 
    -1254, -244, 591, 219, 956, -469, 342, -115, -611, -421, 1699, 620, 373, -359, 103, -401, 
    1326, 320, -510, -1950, -597, 1611, 3882, -278, 296, -103, -104, -472, -49, 11, 3586, -774, 
    -864, -87, 1419, -479, -239, 444, -128, 638, -781, 292, 305, 388, 250, -888, -703, 141, 
    -623, 585, -1481, 148, -102, -372, -284, -303, -644, -584, -533, 1495, 227, 636, 669, 1934, 
    -336, -647, 850, 383, 415, 1953, -350, 173, 2542, 573, -4164, 1492, 1700, 454, -1840, -737, 
    93, -1087, -1929, -648, -986, 1704, -1930, -1063, 196, -620, -1020, 245, -677, 982, 221, -774, 
    -1627, -798, 606, 626, 1710, 271, -1311, -1587, -3268, 119, 1248, -666, 69, 163, -1007, 589, 
    843, -873, -106, 1798, -150, 1526, 376, -726, -202, 1319, 555, 259, 1326, 1159, 549, -567, 
    439, -2892, -1230, -335, 2136, 1853, -89, 3083, 749, 2245, -1530, -6053, 1261, 1239, -2426, 1010, 
    -337, -900, 2166, 1644, -545, -4679, -2923, 2427, -4505, 5414, 2564, -1769, -732, 330, -2701, -248, 
    -726, -4003, 866, 37, -484, -1198, -3302, 909, -2767, -1320, 3164, 4883, 2284, -2074, -899, -1253, 
    -1016, -829, 171, -1995, -425, -3442, -2123, 1163, 1746, -5304, 636, 107, 3188, 1509, -863, 1310, 
    -4470, -24, 989, 1167, 43, 639, -1117, -312, -810, -2222, 2028, -196, -96, 979, -2470, -832, 
    -2079, -4912, -224, 1478, -19, -199, 637, -1449, 1739, -5263, -1346, -1937, -2664, -3385, -408, 2891, 
    838, 200, 902, -1112, -297, -788, -721, 2138, -1368, 1881, 947, -666, 925, 289, -130, -244, 
    -832, 644, -361, -2721, 1282, -1277, -3531, 1013, 1203, 1110, -102, -646, -1134, 269, 658, 347, 
    157, -160, -254, -353, -222, -1886, 2959, -1275, 304, -797, 1676, -876, 1350, 226, -512, -787, 
    1498, -452, -2370, 1235, 83, 3328, 310, -478, 388, -771, -890, 447, -97, 102, 269, -478, 
    2, -720, 362, 1452, 351, 193, -318, 134, -139, 604, 2631, 1162, 1230, -183, 1733, -171, 
    -204, -1705, -1525, 1357, -208, 1005, -131, -587, -288, -393, -1229, 418, 458, 956, 3311, -1059, 
    41, 1317, -499, -234, -99, -589, 2956, -2099, -120, 327, 2835, -1768, -437, 1224, -2027, 1820, 
    176, 2707, -1093, 1452, -1329, -2331, -683, -247, 277, 1497, 61, -1187, 642, 395, 185, -406, 
    -5, 528, 2637, -2702, -975, 295, 1393, 764, -869, 796, 947, -4634, 1386, -2063, -2820, -1120, 
    -1210, 1290, -2579, -3104, -105, -68, -485, -619, -1373, 424, 1959, -4304, 2517, -2148, 3884, -185, 
    -2646, 665, 784, 1651, -312, 1345, 2707, 380, -185, -578, -878, 739, 275, 1757, -939, -931, 
    -1921, -310, -667, 2188, -1949, 803, 677, -765, 476, 52, -864, 217, -1380, -1059, 977, 1277, 
    -1074, -337, 1091, -272, 262, 512, 1280, 751, -954, 136, 2823, -1951, -577, -142, -328, -45, 
    -1108, -1709, -1803, -576, -445, -791, 229, -134, 573, -1797, 408, -3980, 864, 1181, 1885, 65, 
};

static const int16_t ffx2d_paramModel3Alpha[8] = {
    1614, 5713, -1046, 3641, 1482, 2532, 2021, -959, 
};

static const int16_t ffx2d_paramModel4Bias[8] = {
    676, 509, -147, 223, 81, 387, -24, 275, 
};

static const int16_t ffx2d_paramModel4Weights[576] = {
    253, -179, 3, 201, 267, -1060, -56, 1660, -707, -560, -55, 2078, -351, -245, -833, 570, 
    -581, 407, -400, -744, -746, -671, -407, -336, 414, -1170, 330, 571, -971, 939, -119, 538, 
    491, -444, -256, 640, -515, -152, -1772, 2048, -92, 632, -113, -566, -669, -151, 394, -291, 
    -1129, -41, -1015, 102, 473, 334, -807, 512, 438, 87, 146, 367, -1016, -2013, 918, -333, 
    102, -336, 125, 3024, -993, -397, 202, 492, 16, 163, -1612, -23, 4, -1105, -1152, -1380, 
    -1330, -373, 387, 1104, -2155, -1495, 615, -245, -519, 1167, -41, 3252, -1796, -847, -417, 725, 
    -158, 163, 776, -387, -631, -2621, -1966, 385, -607, -519, 66, -372, 26, -382, 1258, -83, 
    1340, 67, 705, 193, -3517, 174, -1317, -768, 1975, 50, 459, -784, -118, -1736, 953, -653, 
    -219, -934, -25, 877, 1172, 613, -731, -1064, -394, -221, -940, -1021, -243, 1054, -284, 2371, 
    -1256, -278, -663, -2069, -2150, 1517, -628, 787, 599, 332, 700, 637, -1449, 1367, 439, 1053, 
    624, 310, -348, -1264, -830, 182, -925, 1919, -760, 409, 236, -865, -167, -48, 820, -1180, 
    -109, 46, -262, 603, 249, -69, 167, 892, 1041, -333, 748, 46, 692, -294, 451, -603, 
    173, -284, 113, 584, -130, 978, -11, 1306, 141, 1027, 820, 707, -527, -524, -453, 167, 
    246, 1000, -617, -241, 1765, -2602, 1854, 3583, 1848, 996, 1248, 921, 849, 1694, -1178, -968, 
    2361, -1825, -406, 1921, 2823, 1612, 951, 3345, 128, 327, 507, -16, -974, 10, 619, -1056, 
    1171, 1352, -2618, -2637, -234, 1254, -3749, -605, 1620, -957, -24, -231, -2329, -3016, 1129, -747, 
    -1002, 2748, 108, -1208, -1408, -943, 727, -3264, 1702, 819, -573, 2601, 1134, -5972, -242, 3235, 
    -3512, -2318, 1578, 957, 1038, 278, 1287, -4425, 2525, 279, -2420, -1953, -1086, -3968, -1408, -2857, 
    -2097, -4441, 4262, 817, -2683, 1987, -4824, -6077, 1, 869, 1000, -416, -2043, -610, -1023, -2169, 
    -3602, -2365, 2235, -3714, 3039, 809, -1368, 1215, 1571, -330, 3725, 4410, -2119, -1824, 465, -1554, 
    184, -158, 1015, -5432, -4, 722, 1418, 347, -227, 49, 2167, 1030, 389, -380, 2434, 3907, 
    -4944, 1661, -263, -2312, 2237, 573, -1300, -695, 938, -1452, 1768, 217, 92, 682, 1489, 2123, 
    -524, -207, -81, 2355, 123, -181, 159, -8, 1830, -1554, 331, 808, -483, -877, 408, -169, 
    136, 994, -609, 281, -302, -34, 570, 182, 2072, -472, -1200, 184, -1910, 366, 75, -1132, 
    546, -852, -130, -1068, -1246, 356, -38, -367, 236, 1186, 697, -515, 979, -160, 272, 1959, 
    -64, 539, -789, -771, 293, -1734, -184, -1355, 688, 1006, 407, -5, 801, -138, -293, 1149, 
    141, 2368, 256, -202, 1581, 80, 133, 1853, 273, -546, -574, -191, -607, -1998, -316, -48, 
    516, 609, -641, 438, -880, 1425, -150, 1697, -600, -123, -924, -900, -994, -1264, -41, -1019, 
    542, -384, 1706, 778, -875, -129, 581, -1231, 969, -224, 216, 1030, -1308, 1100, -1011, 126, 
    1816, -180, 1225, 1564, 1092, 777, 1219, -285, -28, -1081, -819, 101, 1308, 304, -20, 341, 
    875, 2645, 536, -1658, 701, 63, -980, 1378, -1446, 1863, 1823, 694, 413, -507, 2154, 1057, 
    1198, -157, 141, 111, -1485, -359, -2023, 133, 662, -495, 2050, -671, -2053, -1617, 1345, 69, 
    -720, -324, 340, -1607, 371, -740, -183, 398, 122, 2041, 957, -558, 880, 1936, 310, 816, 
    1565, -85, 1010, 1157, -746, 226, -613, -21, 325, 702, 1471, 1338, 1973, 89, 771, 1413, 
    -6, 319, -153, -550, -501, 732, -562, -203, 1453, 279, -1205, 2011, -324, -27, 44, -943, 
    581, -116, -90, -471, 828, -221, 22, -61, 626, 145, -1500, 335, -634, 993, 44, 114, 
};

static const int16_t ffx2d_paramModel4Alpha[8] = {
    4686, 1263, 14508, 1432, -624, -3007, -4129, 4228, 
};

static const int16_t ffx2d_paramResidualBias[8] = {
    -133, -485, -66, 1, -97, -620, -410, -1052, 
};

static const int16_t ffx2d_paramResidualWeights[64] = {
    -3643, -2129, 1690, 4150, -537, -1247, 65, -535, 2593, 1246, 251, -2353, 347, -2264, 1575, -1506, 
    1115, -6646, 7667, -1162, -2263, 325, 691, 899, 171, 1609, -3666, -760, -752, -544, -1991, 248, 
    2991, -270, -5706, 4426, -1504, 5893, -31, 1775, -2649, -2874, -344, 834, 4513, 1880, 4551, 1220, 
    3589, 2593, 808, 6069, -323, -3317, 5627, -1137, -51, -151, 1054, -2180, 3223, -3438, 967, -2957, 
};

static const int16_t ffx2d_paramResidualAlpha[8] = {
    5670, 2222, 7869, 5441, 3278, 8242, 8055, -145, 
};

static const int16_t ffx2d_paramSubConvolutionBias[4] = {
    1315, 1288, 1289, 1265, 
};

static const int16_t ffx2d_paramSubConvolutionWeights[288] = {
    -77, -2, 23, -24, -272, -21, -13, -29, -191, -119, -132, -38, 9, -148, -129, 20, 
    -12, 145, 67, 15, -201, -77, -122, -65, -78, 2, -43, -72, 1, -11, -50, 36, 
    632, 80, 111, 125, 311, -294, 54, 10, -129, 20, 164, 84, -300, 450, 100, -40, 
    -682, -645, -194, -84, 283, 209, 185, 168, 445, 100, 51, 93, -24, 7, -149, -123, 
    -82, 6, -29, -79, -150, 104, 5, 102, -6, -73, -54, 8, 1, -83, 19, 161, 
    44, -91, -10, -12, -50, -50, -63, -87, -40, -87, -33, -165, 21, 32, -4, -58, 
    -353, 54, -166, 96, -179, -8, -445, -0, 147, 179, 159, 118, -230, 57, 343, -98, 
    603, 28, -243, 135, 277, 114, 262, 125, 333, 102, 190, 142, -307, 72, 152, 18, 
    968, -1695, 1901, -579, 1000, 179, 820, -365, 1787, 2044, 1340, 1899, -1137, 863, -275, 2400, 
    2062, 2285, -1679, -1549, 2722, 2925, 2786, 2845, 2356, 1512, 2465, 1277, -630, -820, 623, 535, 
    34, 481, 0, 508, -429, -266, -381, -69, 32, 297, 136, 160, -45, -251, 87, -167, 
    -81, 443, -96, -418, 187, 304, 263, 493, 46, 83, 16, 247, -66, -223, -65, 181, 
    43, -25, -28, 40, -6, 44, -0, 78, -8, -31, -26, -1, -84, -27, -289, -18, 
    -5, 141, -32, -2, -23, -24, -72, -42, 13, -38, 45, -40, 229, 48, 53, 136, 
    -318, -191, 14, -596, -55, -55, 295, 109, 153, 217, 480, 438, -171, -236, -34, 43, 
    131, 43, 211, 263, 80, 185, 153, 347, 21, 155, -85, 39, 516, 564, -47, -160, 
    -7, -175, -6, 52, 50, -56, -93, -189, -92, -121, -132, 16, -26, 53, -108, 94, 
    -43, -94, -103, -127, -79, -168, -128, -308, -18, -160, -45, -385, 1, 152, 54, 69, 
};

