//MIT License
//
//Copyright (c) 2016 Drake Levy
//Copyright (c) 2023 szlldm
//
//Permission is hereby granted, free of charge, to any person obtaining a copy
//of this software and associated documentation files (the "Software"), to deal
//in the Software without restriction, including without limitation the rights
//to use, copy, modify, merge, publish, distribute, sublicense, and/or sell
//copies of the Software, and to permit persons to whom the Software is
//furnished to do so, subject to the following conditions:
//
//The above copyright notice and this permission notice shall be included in all
//copies or substantial portions of the Software.
//
//THE SOFTWARE IS PROVIDED "AS IS", WITHOUT WARRANTY OF ANY KIND, EXPRESS OR
//IMPLIED, INCLUDING BUT NOT LIMITED TO THE WARRANTIES OF MERCHANTABILITY,
//FITNESS FOR A PARTICULAR PURPOSE AND NONINFRINGEMENT. IN NO EVENT SHALL THE
//AUTHORS OR COPYRIGHT HOLDERS BE LIABLE FOR ANY CLAIM, DAMAGES OR OTHER
//LIABILITY, WHETHER IN AN ACTION OF CONTRACT, TORT OR OTHERWISE, ARISING FROM,
//OUT OF OR IN CONNECTION WITH THE SOFTWARE OR THE USE OR OTHER DEALINGS IN THE
//SOFTWARE.


static const int16_t ffx2_paramFeatureBias[8] = {
    -699, -1370, -244, 1394, -62, -1324, -37, -2192, 
};

static const int16_t ffx2_paramFeatureWeights[200] = {
    -292, -913, -239, 436, -200, -380, 98, 1119, -154, 237, 480, -1171, 332, 227, 105, -823, 
    -449, -1015, 722, -1318, 1369, -123, 1230, 60, -1202, 1356, -441, 827, 368, 767, -828, -739, 
    -1294, -583, -188, -1002, 147, -85, 363, 626, -244, -1158, 138, 1051, -516, -569, 732, 1476, 
    -249, -866, -547, -2228, -530, -397, 563, 120, 1630, 533, -2771, 268, -6028, 3599, -5021, -741, 
    1152, -706, 609, 1168, -816, -2375, 1412, 2007, 1227, 1189, 369, -627, -322, 1183, -495, -2319, 
    3222, -2207, 1110, 996, 410, -226, 158, 687, 1690, 2220, -5022, -2555, -399, -1601, -1109, -1053, 
    2480, 2343, 2194, -2151, 7600, 10442, 4884, 7073, -1859, -512, 4768, 776, -105, 172, -5161, 2135, 
    -571, 1364, -1429, 2210, -24, -564, 326, 1046, -824, 2488, 313, -455, 297, 1054, -439, -2118, 
    1613, -1038, 341, 1033, -987, -386, 880, 637, -760, 4835, 798, -1425, 523, -3841, 1849, -608, 
    -1201, 746, -781, 1298, -1413, -1845, -72, 2328, -1463, -441, -435, -1003, 563, 346, 186, 34, 
    -1129, -831, -390, -714, -116, -438, 329, 1039, 565, 122, -1, 54, 246, 236, -397, -475, 
    1152, -977, -161, 1976, -676, 246, 139, 863, -2760, -2297, 144, -1861, 194, 62, 895, 1351, 
    893, 304, 499, -56, -126, 193, -163, -668, 
};

static const int16_t ffx2_paramModel1Bias[8] = {
    475, 290, -7199, -726, 1670, 306, 635, -1447, 
};

static const int16_t ffx2_paramModel1Weights[576] = {
    -723, -95, 643, 840, 1550, 1075, -2377, 494, -850, -496, -92, -301, 216, -292, -253, 1120, 
    -2172, 1248, 534, 246, 1393, 639, 83, -1168, -3609, 233, -44, 3254, 1479, -1009, -1139, -760, 
    -2622, -2587, -3496, -622, -122, -213, 389, 253, 1537, 508, -2038, 1019, 295, -52, -843, -316, 
    -2089, -510, -2656, 2581, -1420, -1232, -609, 2494, 532, 816, 1316, 398, -635, 554, -548, 406, 
    -626, 996, 442, -659, 2869, -504, 2642, -484, -2053, -962, 2188, 2338, 691, 293, 948, 166, 
    1400, -906, -162, 436, -236, 3015, 586, -6136, 3652, -2311, -346, 46, -594, 221, 2195, -609, 
    -3883, -3340, 6821, 1596, -2390, -173, 212, 3143, 655, -1630, -2210, 817, 602, 435, 1609, -427, 
    1192, -1125, 3012, -49, 698, -6768, 2543, 2726, 4490, 631, 3720, -5379, 913, -117, -602, -3197, 
    -2578, -501, 348, -629, 588, 722, -1356, -88, -1603, 583, 678, 187, -537, 299, -17, 11, 
    111, -274, -306, 294, 308, 1222, 254, 1880, 1829, 187, -1300, -187, -99, 481, -405, -1759, 
    326, 1358, 3848, -1081, -1241, -462, 44, -961, 319, 256, 4937, -599, -732, -294, -298, 11, 
    -3220, 1610, -2597, -449, -827, -790, 220, 1983, 1020, 766, 232, -665, -255, 1579, -96, -545, 
    -960, 1502, -122, -655, 2658, -2892, -1366, -2170, 2459, 3658, 4973, -132, 2503, 516, -1212, -1795, 
    981, -553, 365, 1645, 64, 893, -1477, -2005, -2070, 493, 912, -3187, 695, 469, -392, -2495, 
    -758, 1366, -3073, 65, 1530, 2697, 420, 1562, 6499, -2994, -3269, -3454, -693, -248, 255, -790, 
    -4465, 1574, 1867, 2014, 2048, -20, -49, 2676, 2514, 1252, -7289, 10852, 514, 381, 677, -977, 
    -3366, 1276, 967, -583, -565, 181, 851, -5089, 7078, -7837, 8086, 6628, -862, 1073, -1451, 5177, 
    -1060, 187, 4520, -808, 108, 3305, 452, -855, -4145, 3473, -5217, -2631, -7061, 2222, -1520, -2015, 
    -10279, 4184, 780, 2193, -6083, 5109, 5817, 10937, -9724, -2758, -8160, -1613, 358, 1362, 4674, -833, 
    -12566, 13546, 4473, -10565, -2652, -1764, 3978, -13142, -11568, 8947, 16499, -11814, -2272, 1367, -1410, -5133, 
    30, -1341, 1392, 22, 2396, -1235, 2293, -1232, -5226, -2152, -3106, -2633, 3451, 743, -2713, -1517, 
    -826, -570, 3414, -1817, -114, 520, -1752, -889, 1017, -267, -5189, 5794, 682, -1429, -4020, 2685, 
    -4732, 1515, -1438, 3214, 2574, 328, 4169, -959, 4079, -2228, 521, -7265, 914, 126, -1914, 430, 
    -1997, 174, -2178, -1871, 840, -1416, -3879, 1163, 50, 2828, -5485, 775, 209, -759, -1196, -1185, 
    231, 105, 296, 501, -985, -989, 344, 690, 169, -959, 59, -3008, -481, 646, -1038, 1695, 
    -693, -189, -873, 1245, -195, -141, 777, -2691, 1149, -228, -2290, 1672, -991, 79, 1632, 674, 
    -3010, -1345, -2273, 3589, -314, -878, 1252, 1495, 2239, -3435, -1001, -2054, -520, 141, 95, 541, 
    -2919, -1044, 3373, 209, 196, -1149, -110, 4807, 838, 145, 501, -1018, -347, -389, 532, 701, 
    30, -1389, -927, -1532, -458, -1750, 1061, 1134, -2821, -2490, 1432, 1320, -2493, -1202, -26, 1016, 
    467, 507, 333, 976, -2845, 2056, -1228, 1233, 192, -212, 3384, 1419, 942, -869, -1037, -1280, 
    3620, -5746, -2100, -651, -686, -12, -1142, 300, -5143, -1233, 3166, 1968, 2033, -1347, -291, -993, 
    1703, -3651, -1902, 5663, 1015, -780, 899, -3762, -2434, -2141, 2511, 7347, 196, 756, -2805, -829, 
    -1618, 933, -1188, 563, -391, 310, 1754, 523, -690, 1774, 4367, -287, -2072, -479, 922, -1221, 
    1394, 606, 653, -1289, -722, -1574, 1352, 404, 85, 513, 455, -576, -1085, 1431, 1105, 424, 
    -1270, 1688, -1646, 3168, -1027, 492, -687, 394, 820, 3411, -1684, -83, -1145, 204, -843, 0, 
    -1489, -860, 1538, 1696, -2529, -529, 15, 903, -2542, 934, -491, -1760, 764, -46, 2246, -451, 
};

static const int16_t ffx2_paramModel1Alpha[8] = {
    5490, -2430, 847, 12275, 6705, -6504, -6542, 192, 
};

static const int16_t ffx2_paramModel2Bias[8] = {
    88, 413, -100, 2871, -1585, 593, 1328, -825, 
};

static const int16_t ffx2_paramModel2Weights[576] = {
    -959, -2397, -2290, 1638, -37, 231, -198, -628, 123, 422, -93, 549, -755, -801, 1493, -1966, 
    -1653, -1252, -318, 1203, 869, -37, -147, -1678, -367, 994, 287, 892, 372, -1744, -56, -1687, 
    -700, 161, -1256, -591, 1610, 892, 766, 70, 123, 177, 1386, -1307, 46, -271, -642, -1595, 
    270, 2802, -265, 325, -167, 336, 454, -151, 540, 429, -566, 115, -21, -593, -838, -330, 
    -1064, -262, 407, -743, 1982, -506, 813, -542, 97, -470, 7, -2594, -2070, -354, -316, -1009, 
    98, -535, 623, 712, 2529, -7021, 350, 4100, -767, -527, -761, 880, 2892, -1613, 304, 1027, 
    -2351, 18, 797, -2668, 205, -301, 185, -1095, -1741, 4, -174, -2846, 1538, -1952, -1386, -2136, 
    -2371, -1936, -1301, -1846, -209, 580, 32, -624, -581, 547, -1060, 210, -618, -2696, -300, 353, 
    -2863, 538, 299, -193, 796, -1545, -1040, -961, -846, 144, 899, -734, -984, -1164, -313, -2518, 
    589, 640, 30, 716, 858, 2324, -2701, -1056, -147, -367, 1100, -1245, -747, 1530, 456, 1123, 
    -928, 660, -231, 170, -45, 227, 672, 710, -2429, -102, 1000, 64, 5626, -467, 102, -263, 
    271, -1824, 1920, -1272, -513, -49, 263, 502, -96, -800, 58, -241, -606, -459, 1413, 1455, 
    -1368, 2343, -1977, 2332, -1656, -1311, 2869, 126, 950, -389, -2172, 1217, -1686, 2768, -772, -1937, 
    -1511, 1398, -1550, 147, -1282, -1983, -410, -900, -5, -3410, -724, -654, -776, 702, 1291, 1297, 
    40, 657, 508, 668, 611, -1137, -1163, -2689, 1092, -845, -8626, -3435, -656, -624, 3121, 811, 
    1140, -2886, 1431, -1956, -571, 574, 1017, -784, -782, 2907, -3452, 2819, 1069, -1390, -3221, -881, 
    5912, -596, 2776, -5783, -35, 2428, -2955, 650, 1219, -808, -997, 6456, 4835, 6696, 3596, 3191, 
    6213, 633, 534, -7985, -234, 1369, -1456, 1914, -59, -312, 2436, -4454, -5424, 4136, -2860, 1919, 
    6331, -867, 4949, -725, 1080, 1686, -1067, -7599, -2018, -599, -1471, -4423, -542, 3040, 6644, 4595, 
    8864, -3270, -3376, 4431, -1340, 4192, -1412, -2294, -682, -1139, -11221, 3677, 161, -4469, 8702, -2878, 
    -3723, -2647, -1248, 2146, -361, 2300, -1617, 2208, 1938, -468, 137, -2103, -503, -2314, -127, -1584, 
    -3823, 520, -2214, 1827, -1356, 2255, 3782, -2665, -290, 165, -963, 1093, 463, -1716, -407, -3192, 
    3915, -648, -524, -826, -1115, 1027, 129, -3300, -2370, 347, 399, -958, -181, -218, -2147, 684, 
    -906, -319, -731, 1655, -727, -130, 1729, 2071, -199, -432, 318, -3198, -1046, -171, -4621, 1442, 
    49, -467, -2904, 472, -91, -173, 151, 26, 300, 2551, -3353, 725, 114, -4943, -5238, -106, 
    233, -39, 1518, -2553, 58, -1500, 993, -181, -161, 559, -2331, 915, 725, 1294, 109, 1041, 
    -1558, -789, 940, -1747, 812, -1145, -4361, 330, 1058, -112, -2894, 384, -1206, 782, 1330, -1140, 
    787, -358, -597, -112, 1620, 1062, 1206, 332, -43, -1248, -1881, 865, -754, 682, -1974, 95, 
    -1250, 4974, 2528, -942, 499, -1225, 3123, 936, -2124, 1074, -2336, 484, -613, 3699, -2813, 753, 
    -614, -420, 2751, 1855, 779, -923, -386, -424, 123, 3178, 5861, -2619, -46, -459, -746, -402, 
    -3083, 3411, -4866, -1120, -89, -3993, -8506, -496, -402, -1139, -495, 375, -900, 1110, 2231, -1585, 
    -2980, 2963, 996, 1029, 713, -2098, -4331, 1939, -1035, -869, -5771, -746, -272, 2272, -876, -650, 
    -614, -568, 3485, 638, 1031, -29, 744, 1650, 1378, -683, 35, -1052, -1400, 341, 2231, -402, 
    -532, -350, -3396, 2759, 911, -362, 1727, -370, 291, -659, -1068, 1674, 915, -1353, 652, -675, 
    797, -766, -1421, -1349, 395, -871, 1933, -437, -704, 227, 349, 825, -370, 454, -1696, 561, 
    863, 1130, 325, -1280, 430, -1719, -2200, -1124, -256, 74, -620, -1468, -433, 158, -728, 1683, 
};

static const int16_t ffx2_paramModel2Alpha[8] = {
    2341, -3643, -445, 2155, 8033, -2961, 2177, -2283, 
};

static const int16_t ffx2_paramModel3Bias[8] = {
    -1835, 613, -729, -2213, 39, -1470, -147, 163, 
};

static const int16_t ffx2_paramModel3Weights[576] = {
    -857, -120, 585, -1175, 1060, -2926, -516, 548, 430, -176, -521, -189, 929, 1013, 629, 87, 
    361, -1048, 344, 669, 2880, -597, -141, -184, -1437, 359, -254, 284, -1926, 18, 235, -1261, 
    477, 1025, -244, 1418, 64, 2323, 203, 479, 503, 386, 913, -1173, -270, 2391, -1969, 748, 
    308, 2017, -315, -229, -653, 1180, -568, 45, -665, 1778, -287, -212, -2530, 1117, -559, -384, 
    324, -223, 157, -1101, 2830, -3494, -1500, 217, -2502, 1250, -1857, -522, 731, 1511, 1293, 2165, 
    -688, 398, -547, 1015, 1943, 1650, 763, -523, 1342, -4602, 1167, 1441, 1199, 548, -1076, -773, 
    -270, -305, 1678, 2059, 307, 1341, 3186, 2329, 881, 641, 718, 2172, -1197, 303, 1450, 570, 
    -2018, -1239, 701, -1315, -2623, 657, -1299, -115, 305, -1496, 553, 362, -804, 2222, 258, -135, 
    -97, -944, 131, 55, 1275, -1581, -1221, -1356, -3992, 214, -890, -1605, 9, 715, -512, 751, 
    268, -285, -192, 763, 1594, -1686, 1120, 1290, 1003, -700, -165, 1794, -164, 73, -408, -776, 
    1314, -344, 1916, 1593, -312, 927, 729, 1148, 780, 406, -1017, 344, -782, 895, 255, -3, 
    468, -808, 228, 149, -1744, -196, -619, -600, -100, -411, 1571, -33, -1056, 192, -235, -122, 
    321, -1148, -146, -834, 1406, -3590, -635, 1897, 1170, 904, 715, -227, -1215, 320, -2388, -143, 
    -3109, -1323, 649, 846, 1562, 623, 223, -536, -2646, 448, -1409, -965, -2190, 218, 3027, 368, 
    1812, -590, 3133, 1635, -739, 1346, 1497, -458, 3508, 1479, -639, -5331, 1720, 293, 2766, 727, 
    -1177, 2234, -2838, -706, -3486, 1474, -2232, 996, -5841, -2289, -1682, -5130, -1596, 903, -3062, -1273, 
    4048, -1209, 2349, -68, 1860, -5083, -862, -12, -3514, 1221, 2006, 1456, -2319, 1230, -7248, 6963, 
    1912, -2325, -761, -863, 2743, 36, 854, -5434, 126, -3871, 1661, 5278, -1411, -1140, -2858, -1024, 
    -3007, 4306, 2902, -5818, -1038, 2372, -2358, -223, -4252, -417, -61, 1669, 1516, -916, -1545, 1061, 
    319, -5189, 5757, 1330, -3016, 915, -3669, 2262, 723, -1334, -3337, 5717, -1263, 3828, 798, -4398, 
    -598, -328, -400, -726, 3256, -2567, -725, 380, -3994, -205, 948, -858, -2023, -507, -1495, 8, 
    1137, 530, 455, -458, 1548, -994, 848, -2599, 997, -2397, 360, 3481, 2184, 1842, -1107, 969, 
    -2946, 769, 428, 880, -2426, 2687, 2197, -3216, -1124, -209, 1531, 409, 440, 1245, -31, -906, 
    509, 2211, 156, 520, -2488, -160, -1299, 960, -1535, -482, 756, 2068, -835, -598, -366, -919, 
    -435, -73, 155, -1548, -51, -1314, -302, 842, 54, -811, 76, -611, -844, 877, 1115, -1912, 
    1548, -2211, -959, 2316, 1557, -820, 216, -326, -231, 121, -449, 61, 511, 206, 1082, 2997, 
    144, 124, -688, 1503, -956, 1147, 459, -1113, 1504, -197, 1289, -1672, -275, -52, -305, 248, 
    -272, 185, -177, -1597, -2308, 493, -392, 36, 521, -563, 269, -578, -1305, 1472, -1552, -167, 
    1162, -658, -4234, 3510, 1766, -82, -162, 1799, 565, -759, -1269, -115, -1026, -2205, -192, -1294, 
    1066, -164, -3906, -4996, 1223, -433, -846, -972, -399, -762, -938, 276, -2387, 1263, -1025, -593, 
    1495, 43, -3152, -1107, -547, 1845, 1073, 397, 1140, -298, 2105, 1844, -942, 1253, 1621, -173, 
    -595, -713, -97, -1839, -1549, 1006, -60, 13, 293, -307, 1400, 1946, -271, 707, 154, -1621, 
    -332, 196, 321, 714, 1631, -289, 167, 741, 564, -217, -393, 680, 128, 153, 94, 165, 
    855, -180, -496, 1205, 1476, -1224, 85, 250, 204, 484, -450, -756, 1997, 1781, 98, 2141, 
    -1283, 174, -1448, -43, -345, 719, -525, 226, 41, -332, 810, 182, -604, 1042, 827, -617, 
    -493, 1962, -220, -1382, -2101, 993, -845, -2172, 548, -209, 1274, 1212, -1266, -284, -102, 336, 
};

static const int16_t ffx2_paramModel3Alpha[8] = {
    555, -812, 1319, 3483, -1976, 16, 4644, 874, 
};

static const int16_t ffx2_paramModel4Bias[8] = {
    -9194, -1066, -1422, -48, -1062, -234, -788, -755, 
};

static const int16_t ffx2_paramModel4Weights[576] = {
    -1083, 1356, 205, 1128, 195, 862, 355, -510, 238, -169, 229, 339, 455, -1315, 468, -563, 
    -1814, -684, 47, -252, 1305, -477, -613, 1420, 60, 11, -303, -332, 1028, 183, 363, 2525, 
    -189, -587, -478, 490, 789, 182, -105, 1578, 854, -1091, 148, -35, -1583, 104, -310, -1036, 
    82, -625, -95, -107, -196, 1138, 121, -2148, -570, 971, 502, 629, -710, 234, 451, -955, 
    -1388, -672, -1500, 1795, 202, 429, -956, -1436, -987, 220, 666, -2399, 225, 769, 654, 324, 
    -3282, 1148, 359, -767, -925, 1105, -151, -571, 1147, -290, -940, 2049, 2975, -1570, 230, 3529, 
    -589, -1608, 207, 973, -1669, 1992, -669, -1473, 2877, 2391, 659, 2793, 173, -959, -1111, -1, 
    296, -195, 35, 93, -1094, 515, -135, -1793, -255, -298, -1239, -3124, -418, 319, 58, -5416, 
    -395, 352, -194, -910, 999, 1259, -1181, 630, -176, -222, 527, -257, 1069, 640, -212, 513, 
    -953, -996, 133, -6, -465, -1198, 449, -2034, 1205, 431, 395, -167, 885, 1528, 426, 806, 
    -1982, -962, 542, -673, -763, -85, -102, 60, 403, 960, -131, 393, -810, 1134, -622, 425, 
    1028, -465, -220, 1071, 1186, 1166, -253, 455, 229, -40, 311, -1452, -211, -1818, 310, -2154, 
    -2722, 2677, -593, -139, 976, -76, -541, 19, -107, -586, 391, 70, 1635, -1058, -418, 472, 
    -600, 423, 720, 866, 154, 1569, -116, -1070, -1203, -718, 24, 452, 192, 666, -205, -538, 
    -640, 1099, -97, 396, 407, -156, 537, -339, 2554, -2151, -535, 1056, -1717, 1420, -424, -1553, 
    -156, -1282, -204, -764, -52, 2518, 324, 272, 2059, 2758, 146, 1715, 330, -152, -280, -1129, 
    7019, -1234, 112, -426, 1966, 1607, -1302, -3062, -396, -128, -5594, -2857, -3775, -1443, -2510, 1906, 
    506, 3021, -1485, 3015, 2462, -2708, -1102, -3012, -2931, 435, 2901, 863, -4783, -3157, -892, -6188, 
    586, -3365, -638, -1402, -8395, 1291, 1022, 558, -1077, 5239, -3226, 1156, 3532, -2998, -2398, -3198, 
    -225, 114, 636, -3391, -443, 4046, -6296, 1643, 3008, -2314, 897, 2881, -1190, 1096, -2115, -6464, 
    -3214, 357, 186, 523, -532, -1797, 493, -1147, 235, 46, 394, -686, 3706, 1071, -308, -521, 
    -1121, -2166, -86, 489, 2567, 1626, 715, 815, 348, -1468, -207, -905, 105, 2328, 507, -435, 
    -2260, 839, -992, 1350, -2209, 835, -91, 1753, 5586, -1403, -837, 407, 747, 1289, -172, 1448, 
    -1634, -1782, 151, -2687, -2247, -805, 1408, -1279, 1395, 977, 1657, 773, -1201, -2084, 1212, -3076, 
    -305, 788, 354, -373, -1138, 465, 641, -1078, 640, 5, 161, -1644, -203, -1090, 87, 875, 
    1044, 798, -138, 395, -230, 1260, -85, 2519, 1405, 28, 261, 1243, -852, -673, 148, -768, 
    -1363, 255, 32, -786, -215, 1368, -326, -925, 842, -245, 832, 1140, -544, -310, 122, 672, 
    -1104, -478, -58, -55, 47, 423, 389, 293, -1155, 912, 473, -821, -638, -406, -27, -523, 
    -3158, -1017, 7, 485, -4351, -179, 494, -2438, 931, 1071, 65, -760, 132, -162, 641, 220, 
    995, 65, 237, -961, -2547, -1359, 442, 822, 879, -742, -669, 1875, 292, -288, 465, 905, 
    81, -395, 381, -261, -696, 536, -848, 189, -2572, 1848, 1694, -15, -1505, 134, 1411, -359, 
    -501, 334, -57, -940, -304, 787, -304, -1486, -3735, -774, 584, 673, 307, -198, 1123, 2492, 
    -57, -175, -324, 173, 1642, 527, -277, 637, 4436, -497, -904, -946, 1416, 1328, 31, 312, 
    317, -721, 166, 160, -2175, 920, -508, -2178, 516, -300, -288, 1143, -128, 927, -14, 440, 
    -1163, -988, 1474, 1080, -3170, -81, 379, -336, -293, -474, 1330, 946, -1136, -554, 942, 837, 
    -9, -1794, 780, 1974, 196, -353, 13, -184, -462, 171, -205, 1151, -395, 534, -187, 1080, 
};

static const int16_t ffx2_paramModel4Alpha[8] = {
    1123, 487, 2267, 696, 1373, 634, 3606, -1836, 
};

static const int16_t ffx2_paramResidualBias[8] = {
    138, -277, -8, -894, 302, 895, 268, -531, 
};

static const int16_t ffx2_paramResidualWeights[64] = {
    -524, -5131, 1662, 6327, -122, 1014, -867, 574, 1373, 1326, 235, 2586, 1254, 6604, -1078, -1098, 
    2996, 1402, 1615, 2918, 384, 1251, 613, -1921, -3674, 1316, 61, -1132, 108, 1904, -2589, -5228, 
    3438, 195, 57, 1124, 940, -251, 1574, -586, -1975, 120, 965, 1120, -1222, 396, -1, -909, 
    -2354, -197, -517, -501, -232, -93, -28, -408, -29, 306, 1339, -582, -1102, 683, 227, -645, 
};

static const int16_t ffx2_paramResidualAlpha[8] = {
    8259, 7830, 5530, 2728, 4316, 8125, 8106, 8250, 
};

static const int16_t ffx2_paramSubConvolutionBias[4] = {
    1366, 1580, 1583, 1779, 
};

static const int16_t ffx2_paramSubConvolutionWeights[288] = {
    17, -18, -14, 32, 53, 15, 47, -65, -25, -60, 164, -33, 446, 10, -431, -10, 
    14, -81, -310, -57, 7, -30, -61, 21, 126, -144, 7, 50, 25, 6, -28, -68, 
    -142, -51, 88, 21, 76, 194, 18, 183, 55, 310, -185, -221, -658, -196, 677, 10, 
    -168, -70, -392, -636, -51, -216, 64, -131, 111, 74, 22, 124, -46, 52, 17, 102, 
    92, -47, -35, -15, -8, -80, 19, -30, 36, -48, 32, -53, 85, -110, -188, 114, 
    141, -33, -59, -72, -5, 72, -45, -45, -33, 162, -2, -44, -14, -50, -7, -5, 
    40, -162, 79, -132, -258, 147, -85, 126, 346, -604, -4, -441, -221, 296, 1087, 26, 
    -597, 103, 1204, -303, 577, -54, 449, -81, 439, -52, 754, -315, -250, -4, -44, 91, 
    1434, 820, 1314, 867, 1192, 647, 2723, 2283, -2783, 2129, -830, 2653, -1651, -2151, -3889, -1928, 
    -445, -1747, 2228, 3065, 3766, 3804, 1516, 1629, 995, -365, 2718, 946, 2765, 2967, 2970, 3207, 
    -5, 87, 95, -52, -120, 97, -189, 134, 466, -118, 251, -4, -484, 294, 46, -147, 
    -31, 34, -33, -12, -83, 160, 153, 65, 101, -263, 29, 578, 54, -56, -25, 12, 
    24, 31, -35, -67, 60, 19, 45, 66, -30, -34, 275, -260, 146, -21, -608, 478, 
    421, -88, -328, 79, -58, -76, -118, 34, -228, -47, -88, 38, 57, 61, -64, 25, 
    -49, 57, -83, -9, -83, 24, 110, -52, 104, -166, -742, 695, -612, -309, 912, -614, 
    534, 994, -5, -629, -130, -92, 167, 51, -289, -189, 171, 420, 26, -47, 23, -22, 
    36, -10, -3, -28, 28, 36, -76, 62, -5, 99, 215, 141, 11, -133, -58, 36, 
    69, 101, -224, 75, -19, -46, -34, 46, -22, -105, 190, -160, -30, 8, 27, -105, 
};

