//MIT License
//
//Copyright (c) 2016 Drake Levy
//
//Permission is hereby granted, free of charge, to any person obtaining a copy
//of this software and associated documentation files (the "Software"), to deal
//in the Software without restriction, including without limitation the rights
//to use, copy, modify, merge, publish, distribute, sublicense, and/or sell
//copies of the Software, and to permit persons to whom the Software is
//furnished to do so, subject to the following conditions:
//
//The above copyright notice and this permission notice shall be included in all
//copies or substantial portions of the Software.
//
//THE SOFTWARE IS PROVIDED "AS IS", WITHOUT WARRANTY OF ANY KIND, EXPRESS OR
//IMPLIED, INCLUDING BUT NOT LIMITED TO THE WARRANTIES OF MERCHANTABILITY,
//FITNESS FOR A PARTICULAR PURPOSE AND NONINFRINGEMENT. IN NO EVENT SHALL THE
//AUTHORS OR COPYRIGHT HOLDERS BE LIABLE FOR ANY CLAIM, DAMAGES OR OTHER
//LIABILITY, WHETHER IN AN ACTION OF CONTRACT, TORT OR OTHERWISE, ARISING FROM,
//OUT OF OR IN CONNECTION WITH THE SOFTWARE OR THE USE OR OTHER DEALINGS IN THE
//SOFTWARE.

#define CONST_SCALING   1    
    
static const float fx2_paramFeatureBias[16] = {
    -0.0178327262401581,0.0563362054526806,0.0183700416237116,0.0314295440912247, -0.0012446132022887,-0.1458517462015152,0.0076289321295917,-0.2273032665252686, 0.0068915509618819,-0.0199369359761477,-0.0101056452840567,0.0050450465641916, 0.0197969153523445,0.0306251458823681,-0.0274491105228662,0.0207582674920559
};

static const float fx2_paramFeatureWeights[25*4*4] = {
    0.0063922377303243,-0.0064192828722298,0.0035956720821559,-0.0069969575852156, -0.0123533932492137,0.0098075866699219,0.0052334810607135,0.0015229162527248, 0.0137040643021464,0.0239405799657106,0.0070972973480821,-0.0033405364956707, 0.0005473259370774,-0.0033243247307837,0.0116522880271077,0.0104022324085236,
    -0.0401598475873470,0.0808068513870239,-0.0499851852655411,-0.2551441490650177, 0.0458055697381496,-0.0255138594657183,0.1281197518110275,0.0114385345950723, -0.0536334142088890,-0.0400541722774506,-0.0302120782434940,0.0638190805912018, 0.0029616209212691,0.0133849186822772,-0.0228037238121033,-0.0012068101204932,
    0.0722645819187164,0.0219261441379786,0.0554879046976566,0.1495828330516815, -0.0217930953949690,0.0438783206045628,0.1193283274769783,-0.0013796373968944, 0.0639273300766945,0.0418921671807766,-0.0428139194846153,0.0477178283035755, -0.0302385352551937,0.1226817518472672,0.0096065690740943,-0.0648811757564545,
    0.0828002765774727,-0.0685611590743065,0.0249944906681776,0.0711231753230095, 0.0078984145075083,0.0211074817925692,-0.0154545204713941,-0.0109830778092146, -0.0769276246428490,0.0892987027764320,0.0569545924663544,0.0039147078059614, -0.0111784087494016,0.0107483146712184,-0.0091312695294619,0.0570896528661251,
    -0.0082732941955328,0.0262888409197330,0.0099635822698474,0.0091056451201439, -0.0171647723764181,-0.0168276838958263,0.0525353252887726,0.0133333886042237, -0.0005688295932487,0.0111224204301834,0.0058022197335958,-0.0296457801014185, 0.0093344636261463,-0.0079585751518607,-0.0007651133346371,0.0052992012351751,
    -0.0011959455441684,-0.0335075445473194,-0.0130797699093819,0.1457449644804001, -0.0134122809395194,-0.0326733812689781,-0.1044820174574852,0.0180073603987694, 0.0621651746332645,0.1451938152313232,-0.1147159412503242,-0.0323004499077797, 0.0226141344755888,0.0047722263261676,-0.0394798219203949,0.0173028130084276,
    0.0685802847146988,-0.0296214371919632,0.1500326395034790,0.0459736846387386, 0.0429243519902229,0.0152168069034815,0.1294382959604263,0.0214703641831875, -0.1810458302497864,-0.0719093754887581,0.1236630529165268,-0.3934646844863892, 0.0480585768818855,-0.1358742862939835,-0.1664343625307083,0.0602078884840012,
    0.3546050190925598,-0.0147297764196992,-0.3263203799724579,-0.2912881374359131, -0.2134678214788437,-0.1154532507061958,-0.5860332846641541,0.1399288773536682, -0.1098902300000191,0.1456142067909241,0.2693974375724792,0.3699508011341095, 0.5875520110130310,-0.4476412534713745,0.1507024317979813,0.0492965206503868,
    -0.2879675626754761,-0.1462051719427109,-0.0336798802018166,-0.0749340131878853, 0.0441716499626637,-0.0283281877636909,0.2280894219875336,0.0040339245460927, 0.2205481082201004,-0.1209744811058044,-0.2228792160749435,0.0173923894762993, -0.0057588121853769,-0.0987109020352364,-0.0758107453584671,-0.2027270495891571,
    0.0153621248900890,-0.0440692864358425,-0.0045444932766259,0.0910224467515945, -0.0390831977128983,-0.0162618886679411,0.0112505434080958,0.0070519219152629, 0.0356253013014793,0.0993965119123459,-0.0023569902405143,0.0407169573009014, 0.0050680069252849,0.0199854616075754,0.0065430551767349,-0.0308884717524052,
    -0.0820206031203270,-0.1778015196323395,-0.1127265170216560,-0.0141631625592709, 0.0314148440957069,0.1079831868410110,0.1842119097709656,-0.0303820222616196, -0.2651331424713135,0.0008725450024940,0.0456181950867176,0.1216925904154778, -0.0662273615598679,0.0178330335766077,0.0197122972458601,-0.0453098267316818,
    0.1648872047662735,-0.0901831239461899,0.3815571665763855,-0.0283246971666813, 0.3938820362091064,-0.2627415060997009,0.2704190015792847,0.2324808239936829, 0.4384590983390808,-0.5704043507575989,0.3217584192752838,0.5731896758079529, 0.3298291265964508,0.0069244229234755,-0.1255046278238297,0.1317346692085266,
    -0.7476031780242920,0.3996780514717102,0.3181331753730774,-0.0095490561798215, 0.0586159899830818,1.1109459400177002,0.0094341151416302,0.6460006237030029, 0.1326565146446228,0.4147396683692932,-0.5173035860061646,-0.2705402374267578, -0.4449238181114197,0.3150637745857239,0.8599168062210083,-0.1618326157331467,
    0.1947133690118790,0.1220305785536766,-0.5966536998748779,0.2138274610042572, -0.3040759265422821,-0.0791268125176430,-0.0817943364381790,0.0847736746072769, -0.1789677590131760,-0.0204435400664806,0.1309419423341751,-0.3093122541904449, -0.1638026684522629,-0.2241360843181610,-0.0896224305033684,0.3774655163288116,
    -0.0171112902462482,0.2771510779857635,0.1411932855844498,-0.0870486348867416, 0.0270226802676916,0.0110462158918381,-0.0418042428791523,0.0231064110994339, -0.0772143676877022,-0.1506932973861694,-0.0835857987403870,0.0071122711524367, 0.0058811409398913,-0.0119457719847560,-0.0225101038813591,-0.1098954528570175,
    0.0465364940464497,0.0268767047673464,-0.0149093475192785,-0.0707380771636963, 0.0051989681087434,-0.0115034319460392,-0.1542067378759384,0.0143274292349815, 0.1446347832679749,0.1940866112709045,0.0130468439310789,-0.0676439106464386, 0.0439193211495876,0.0009906111517921,-0.0316081494092941,0.0153789315372705,
    -0.0703858435153961,0.2457661926746368,-0.0822165384888649,0.2309446483850479, 0.0744247362017632,-0.0054658944718540,-0.2899980545043945,0.0375184267759323, -0.1986774802207947,0.0067085037007928,-0.2168872654438019,-0.3377411067485809, 0.0189642813056707,0.0382042042911053,-0.2194295376539230,-0.2105458974838257,
    0.4465892910957336,-0.5896344184875488,0.1503173261880875,-0.0896300375461578, 0.0238705854862928,-0.3228342533111572,0.0118718892335892,0.1887983828783035, -0.0142443645745516,-0.3059818744659424,-0.0433266721665859,-0.0057545257732272, -0.3648804724216461,0.3440042734146118,-0.0718238204717636,0.0452146418392658,
    -0.0229069218039513,0.0565803833305836,-0.0789916217327118,-0.0211569443345070, -0.1061609908938408,-0.0807005912065506,0.1695151180028915,0.0773410126566887, 0.0500036142766476,0.2321217060089111,0.2648619115352631,0.2215498685836792, 0.0462057590484619,0.1648879647254944,-0.1733739823102951,-0.0720549672842026,
    -0.0410222932696342,-0.0587919168174267,0.0157143063843250,-0.0383554548025131, -0.0131687177345157,0.0139065338298678,-0.0678880810737610,-0.0203007012605667, 0.0771474018692970,-0.1229728013277054,0.0091755138710141,-0.0982624441385269, 0.0155355306342244,0.0232442282140255,0.0487545877695084,0.0049587814137340,
    -0.0093138217926025,-0.0711926147341728,0.0193529743701220,-0.0592880584299564, -0.0061343009583652,-0.0065226177684963,0.0337901376187801,0.0081407157704234, -0.0238507054746151,-0.0519678629934788,0.0337676629424095,0.0037361420691013, 0.0002765563549474,0.0184725075960159,0.0004787928482983,0.0180307701230049,
    -0.0122991977259517,-0.0146901803091168,0.0067634377628565,-0.0844566598534584, -0.0125833619385958,-0.0035636220127344,-0.1397569477558136,-0.0132596660405397, 0.1072149425745010,0.0364018008112907,-0.0333995223045349,0.0911387875676155, -0.0300208348780870,-0.0659510865807533,0.0162133164703846,0.0906068235635757,
    -0.1090225577354431,0.0564679019153118,0.0088126277551055,0.1207621768116951, 0.0298769716173410,0.0550585463643074,0.1155052259564400,-0.0022508285474032, -0.1291520595550537,-0.0063049821183085,0.1119780242443085,0.0128238536417484, 0.0052754771895707,-0.0797578766942024,0.0396078564226627,0.0111946687102318,
    0.0011657360009849,-0.0920806080102921,0.0122961457818747,-0.0009478408028372, -0.0225091110914946,-0.0187676846981049,-0.0864693969488144,-0.0069099310785532, 0.0228943023830652,0.1065895855426788,-0.0395067110657692,-0.0147731238976121, -0.0310831516981125,-0.0678686276078224,-0.0004476857720874,-0.0394626744091511,
    0.0067165270447731,-0.0062878597527742,0.0000555029910174,0.0016904573421925, -0.0013608727604151,-0.0111907059326768,0.0504913777112961,0.0125532075762749, -0.0692633017897606,-0.0172682721167803,-0.0266366843134165,0.0103346109390259, -0.0056453538127244,0.0130731621757150,-0.0077527617104352,0.0045637567527592
};


static const float fx2_paramModel1Bias[16] = {
    0.2292596101760864,-0.1899403780698776,-0.1825374960899353,-0.0643131807446480, -0.1264077574014664,-0.0021083257161081,0.0972177758812904,-0.0605767406523228, -0.2154295891523361,-1.0041205883026123,-0.0476665794849396,-0.1501960158348083, 0.0861043855547905,-0.9787945151329041,-0.0304563865065575,0.1510356068611145
};


static const float fx2_paramModel1Weights[36*16*4] = {
    -0.2456733435392380,-0.0971811413764954,0.2079126685857773,0.1468583643436432,0.0710293203592300,-0.2317832410335541,-0.1484910100698471,-0.2895910739898682,-0.0736803561449051,0.2868424952030182,-0.1683948934078217,0.0410847403109074,-0.0264832042157650,-0.2200942337512970,-0.0345791243016720,0.1316637247800827, -0.1764114052057266,0.0173965059220791,-0.1577095389366150,0.0554230809211731,-0.2574721574783325,-0.0429755970835686,-0.0141636570915580,-0.0152374999597669,0.2349350452423096,0.1170463934540749,-0.1538043171167374,0.2383814156055450,-0.1409310251474380,-0.1421752721071243,0.0699495673179626,0.0230109319090843, 0.6402146220207214,-0.5248686075210571,0.2202323228120804,-0.1559049487113953,-0.0317820385098457,-0.0286412127315998,-0.1509186178445816,-0.1697982698678970,-0.1881394237279892,-0.0234615318477154,0.0306878779083490,0.0159187540411949,0.2359697669744492,0.1943180710077286,-0.1855053156614304,0.2370986640453339, 0.2629614174365997,-0.0538476221263409,-0.0586354844272137,0.1876689493656158,-0.3895384967327118,0.4490210115909576,0.3737869858741760,-0.2662867605686188,0.4174204170703888,0.0887467563152313,0.0110008893534541,-0.4349150359630585,-0.1971317678689957,0.0335899069905281,-0.5282965898513794,0.4637844264507294,
    0.1158507019281387,-0.3085572719573975,0.1686824560165405,-0.0412447378039360,-0.1769650131464005,-0.1225812360644341,-0.0047607813030481,-0.1408843398094177,-0.1348959952592850,-0.0944929197430611,0.0047651384957135,-0.0856413915753365,0.0678389146924019,0.1990132480859756,-0.1081569716334343,0.0967157632112503, -0.1540406793355942,-0.0227600820362568,-0.3021644949913025,-0.1017198190093040,0.1213392019271851,-0.0288453120738268,-0.2502751946449280,-0.0408997610211372,-0.1249174997210503,-0.1580478549003601,0.0577490776777267,-0.1365581154823303,-0.1055921465158463,-0.0567482523620129,0.0611127763986588,0.0276586078107357, -0.1679228544235229,0.0521337203681469,0.0278078466653824,-0.1766484528779984,0.0096345338970423,-0.0116736814379692,0.2004510164260864,0.3079831004142761,0.2514715790748596,-0.1139795631170273,-0.2420021593570709,0.0240754075348377,0.0488866120576859,-0.1019582301378250,-0.1177613437175751,0.1497303545475006, -0.0824399739503860,-0.0484121553599834,0.2881804704666138,0.4385024309158325,-0.0502167753875256,0.0367533378303051,0.2583184540271759,0.3065535426139832,-0.0345132201910019,0.0053067225962877,-0.0993267372250557,-0.1759883016347885,0.0137796737253666,-0.0848194658756256,0.0102748973295093,-0.1294326186180115,
    -0.1182703375816345,-0.3964622020721436,0.3777262270450592,-0.0848788544535637,0.1228989213705063,0.2571164369583130,0.1274595409631729,-0.3685978949069977,0.2602009475231171,-0.1550477445125580,0.1918220967054367,-0.3412353992462158,0.1229436695575714,0.0849034413695335,-0.2367905527353287,-0.1545976251363754, -0.0039525367319584,0.0385213196277618,-0.1550872623920441,0.1259958595037460,-0.1386964768171310,-0.0440744049847126,0.0927100479602814,0.1846046596765518,-0.0774385854601860,0.2573254704475403,0.1093371957540512,0.0591532588005066,0.0955946892499924,-0.0631019175052643,-0.0599626190960407,-0.1377974748611450, 0.0714888721704483,0.2395663112401962,-0.1193108037114143,0.3520640730857849,-0.1381127089262009,-0.2330249696969986,0.1023793444037437,0.0698333680629730,-0.2521838843822479,0.3427497446537018,0.2008379995822906,-0.2090353667736053,0.0624674148857594,0.1046361997723579,0.0795498192310333,0.2059065103530884, -0.0758990794420242,-0.0126367090269923,0.0376125462353230,0.6273322701454163,-0.2270200103521347,0.0595207661390305,0.2528263330459595,-0.2581385672092438,-0.3344142436981201,0.1133615523576736,0.2815742790699005,-0.3091650307178497,-0.2050441652536392,0.2282899767160416,0.1711192876100540,-0.6153756380081177,
    0.0994749218225479,-0.3996253907680511,0.0494918078184128,-0.1112159192562103,-0.0518975183367729,0.2290141582489014,0.3377735614776611,-0.2868162393569946,0.0844202935695648,0.2361495047807693,0.0648467019200325,0.1448643356561661,0.0188311897218227,0.6360551118850708,0.6082376241683960,0.2050610780715942, 0.0683721974492073,-0.0441612601280212,0.1807471811771393,0.1823412626981735,0.0121512738987803,0.0412861630320549,0.1787883192300797,0.1431449949741364,0.2062454074621201,-0.2571956515312195,-0.0271905604749918,-0.3888589739799500,-0.0767908394336700,-0.1174919903278351,0.0105494074523449,-0.1073971316218376, 0.2245620936155319,0.4200265705585480,0.1305738538503647,-0.2251701354980469,0.1852117329835892,-0.1589670777320862,0.1014424264431000,-0.6792714595794678,-0.3117655813694000,-0.3287822306156158,-0.1172480732202530,0.1228197887539864,-0.0757520645856857,-0.4061579108238220,-0.4559155106544495,0.1837515234947205, 0.1565771549940109,0.1262877583503723,-0.2415717542171478,0.1466761827468872,0.0873485058546066,0.0942185148596764,-0.1054551452398300,-0.4131016731262207,0.1907818913459778,-0.2750890254974365,-0.0278973355889320,0.2797300815582275,0.0083956532180309,-0.2112171202898026,0.3057200312614441,0.6652084589004517,
    0.3174272179603577,-0.2179458290338516,-0.1675122380256653,-0.3583083450794220,-0.0706965401768684,0.1215353608131409,0.0850943103432655,-0.0133019369095564,-0.0136020286008716,-0.1372892111539841,-0.0894767269492149,0.3660945594310760,0.0007942306110635,0.0952658206224442,-0.1199937984347343,-0.3090254664421082, 0.3272283971309662,0.2824915647506714,0.4312808513641357,0.3436875641345978,0.1848250180482864,0.3296350240707397,-0.1826698184013367,0.1265423148870468,0.1811640709638596,-0.0682365968823433,-0.4296984374523163,0.1796617060899734,-0.0331839509308338,0.1911168247461319,-0.0669705644249916,-0.0950084105134010, 0.5933163762092590,-0.1020160838961601,0.2408043146133423,0.1063700839877129,-0.2622694075107574,-0.1965732574462891,0.2251302003860474,-0.5543785095214844,0.7543220520019531,-0.2378380149602890,0.1837850213050842,-0.4713206291198730,0.2771942317485809,0.2083511799573898,-0.3178570270538330,0.0747144967317581, -0.1321020424365997,0.0581619665026665,-0.7303193211555481,-0.6750928759574890,0.0029261617455631,-0.3771520256996155,0.2946649491786957,0.0877268463373184,0.1818944960832596,0.1191614717245102,-0.6396847367286682,0.5484052896499634,-0.0223677363246679,-0.1057637110352516,-0.2339025586843491,-1.0551691055297852,
    0.0675635039806366,0.2362325340509415,0.1678997576236725,-0.2430117130279541,-0.0906278938055038,-0.2451278269290924,0.2385258674621582,-0.1898570805788040,0.0347502343356609,-0.0897242054343224,-0.2614488899707794,0.1986870914697647,-0.0171812791377306,-0.0366934798657894,-0.1209304705262184,-0.1739640682935715, -0.1103327125310898,0.0805848836898804,0.3239299952983856,-0.3830452561378479,-0.1875509768724442,0.1820927262306213,0.0631904453039169,-0.1021185368299484,0.0356290973722935,0.4966337680816650,0.0371255688369274,-0.0390113517642021,0.0915253013372421,0.0512656457722187,-0.0190317947417498,-0.1572193652391434, 0.5793245434761047,0.3653525710105896,-0.3365572988986969,-0.6903663277626038,-0.0411000475287437,-0.1793719083070755,0.1910787820816040,-0.1732462793588638,0.0770513340830803,-0.4918514490127563,0.2518722414970398,0.5088776946067810,-0.0852550640702248,0.1652323454618454,-0.2343019694089890,-0.2878558337688446, -0.0554873123764992,-0.2274644821882248,0.1958463042974472,0.8626275062561035,-0.0271090064197779,0.3926341533660889,-0.0747488290071487,0.6526423692703247,0.2678235173225403,0.1832628697156906,-0.4705397486686707,-0.3373795449733734,-0.0064888508059084,0.1695150732994080,0.0839217305183411,-0.2786497771739960,
    0.2459967285394669,-0.3321310579776764,0.4862705171108246,0.3210979104042053,-0.2518520653247833,-0.0961489900946617,-0.0501404851675034,-0.3585935235023499,-0.1364257931709290,0.2442226409912109,-0.4108249843120575,0.3000027239322662,-0.0596034638583660,-0.0298649165779352,-0.2941861450672150,0.4647770822048187, 0.1998504996299744,0.2031396180391312,0.1580750048160553,0.1453611254692078,0.0100056342780590,-0.1206539869308472,-0.1402098387479782,-0.4428674280643463,-0.1927630156278610,-0.1516387760639191,-0.1467676460742950,-0.5120888352394104,0.0716607570648193,0.1662018001079559,0.0737377256155014,-0.1699414998292923, -0.0087811425328255,0.3570032119750977,0.1340828686952591,0.1428419947624207,-0.3894266784191132,-0.1697907894849777,-0.1327112466096878,0.1587304472923279,-0.6415148377418518,-0.2582990825176239,-0.5889591574668884,0.4863170087337494,-0.3707801699638367,0.0153992865234613,0.6423759460449219,-0.4232465624809265, 0.2526242733001709,0.4383882582187653,-0.2425222545862198,-0.2353556752204895,-0.0877292007207870,0.2661857008934021,0.0548015162348747,0.3617542982101440,0.3450832962989807,-0.0363930128514767,0.0371757596731186,-0.1483187377452850,0.0215469431132078,-0.5250199437141418,-0.1934378147125244,0.0869542658329010,
    0.0100488774478436,-0.0736053958535194,0.5148222446441650,0.1692197471857071,0.0533998049795628,-0.3184446692466736,0.2707929611206055,-0.4210146963596344,0.1458886712789536,-0.2399849444627762,0.0536430180072784,0.4399553835391998,-0.1362670511007309,-0.0595382712781429,0.1833303272724152,-0.1501979678869247, -0.2340120375156403,0.4015293121337891,-0.0359451398253441,-0.1460078805685043,-0.1514532566070557,-0.3680620193481445,0.2364757210016251,-0.5075381398200989,0.1393008530139923,0.6331142783164978,-0.1751800328493118,-0.2785244286060333,-0.5888667702674866,0.2393088638782501,-0.0651239305734634,-0.1024807393550873, 0.2582019567489624,-0.5235541462898254,0.2433203905820847,0.1468607932329178,-0.5246924161911011,0.1789904683828354,0.1630802899599075,-0.4395862817764282,0.4475666284561157,-0.2921342849731445,-0.1447371244430542,0.4749337434768677,0.9070777297019958,0.2181794345378876,-0.5861155390739441,-0.0260095968842506, -0.2397361844778061,0.0052610025741160,-0.2775465846061707,-0.4301477670669556,-0.5772497653961182,0.4525184631347656,-0.5849264860153198,-0.0177313797175884,0.4422959685325623,0.1963351666927338,-0.4662714600563049,0.7061408162117004,0.3792794942855835,-0.0230250321328640,-0.1384680271148682,-0.1664923280477524,
    -0.2156468331813812,0.1464527547359467,0.0687440708279610,-0.2523406744003296,0.0333448648452759,0.1206611990928650,0.0512608624994755,0.1343369781970978,-0.0559281595051289,0.4739785194396973,0.0453169792890549,-0.1267339289188385,-0.0024572217371315,-0.0259402096271515,0.1234527453780174,0.4281990826129913, -0.0717418715357780,-0.2642134726047516,-0.2279509752988815,0.0905541926622391,0.6318423151969910,-0.0527208708226681,-0.1062798872590065,0.1909910589456558,-0.0686111599206924,-0.3467862606048584,-0.0009637915063649,0.2929160296916962,0.1638700962066650,-0.0798977911472321,0.0837135910987854,-0.0601561889052391, 0.9930830001831055,-0.2618194222450256,-0.6952973008155823,0.4920825958251953,0.0123935872688890,0.0206180326640606,-0.3409795165061951,0.3055005967617035,0.3502033650875092,-0.0360340587794781,-0.2531430721282959,-0.1160705611109734,-0.1994794160127640,0.0337688103318214,-0.2391019314527512,0.4991790354251862, -0.0179824829101562,-0.2660410106182098,0.7486902475357056,0.0320936702191830,0.0761465877294540,-0.0322615243494511,0.3306754231452942,-0.0737745240330696,-0.1769958436489105,-0.4758706688880920,0.4438351690769196,0.0231241304427385,0.0212697610259056,-0.0438881143927574,0.1802114546298981,0.7835376858711243,
    0.0510071888566017,-0.1609619408845901,-0.0836179628968239,0.1220373958349228,0.1293283104896545,-0.2072140723466873,0.0184238869696856,-0.0895729139447212,0.0200239997357130,0.0856690704822540,-0.0760730654001236,0.0922346487641335,-0.0412559732794762,0.1616261899471283,-0.1707096397876740,0.0373911112546921, 0.4162193536758423,0.1185648292303085,0.0134601946920156,0.1851155161857605,0.1244233027100563,-0.0884935185313225,0.0083182714879513,-0.0544963590800762,0.1142983362078667,-0.1876578181982040,-0.1045346856117249,0.3575910031795502,0.0751147642731667,-0.0503701902925968,0.0266131609678268,0.0288894511759281, -0.5619352459907532,0.0407723039388657,0.2856715321540833,-0.2655522227287292,1.0918130874633789,-0.2977440655231476,0.2810298204421997,0.0394192300736904,0.8378280997276306,0.1818732172250748,-0.0761889815330505,0.0229422617703676,-0.9648125767707825,0.0033683956135064,-0.0620030462741852,-0.2421830743551254, 0.1355249285697937,0.0358324460685253,-0.5437334179878235,-0.5506603717803955,-0.1038757413625717,0.1529970169067383,-0.1564278006553650,0.2493850439786911,-0.0400710143148899,0.1699994802474976,0.2554717063903809,-0.0614278540015221,0.0064576230943203,-0.1670799851417542,-0.0511320792138577,-0.1891938298940659,
    0.0024688022676855,0.1539694070816040,0.1359543651342392,0.3546493947505951,0.0231272894889116,-0.1739725321531296,-0.1022136807441711,0.4136491119861603,0.2504386603832245,-0.1116953343153000,-0.2572226524353027,0.0340944118797779,-0.0763598382472992,0.2723619043827057,-0.1048179864883423,-0.1304632127285004, 0.0679785609245300,-0.1723078489303589,-0.1920426338911057,-0.1040674522519112,0.7187235951423645,0.1343892514705658,0.0286057516932487,0.3357507586479187,0.2651496827602386,-0.1085141897201538,0.2757453024387360,-0.2955435216426849,0.0364779382944107,-0.0693653598427773,-0.1517534404993057,0.0488619543612003, -0.1966138333082199,-0.0524419136345387,0.1003667786717415,0.1803272217512131,-0.4266463518142700,0.3020284771919250,0.2161941379308701,-0.5751886367797852,-0.1937020421028137,-0.1712339371442795,0.0097059989348054,-0.1160574555397034,-0.3647778928279877,-0.4596693217754364,-0.4448626339435577,-0.1516759693622589, -0.0275625921785831,-0.6037821769714355,0.3989136815071106,-0.0019105353858322,0.0619840547442436,0.3065661191940308,-0.0863407403230667,-0.3210330307483673,-0.1370114833116531,-0.2125584483146667,-0.1869821995496750,-0.1151741445064545,0.0875615030527115,0.2354907095432281,0.0724371522665024,0.1021718829870224,
    -0.0489886924624443,-0.2357917577028275,-0.0909745246171951,-0.0967042520642281,-0.1282292455434799,-0.3213852345943451,0.4031372964382172,-0.1915070712566376,-0.0315062776207924,-0.0875524953007698,0.4448996484279633,0.5270673632621765,-0.0511322915554047,-0.1863144934177399,0.0410359650850296,-0.0207215342670679, -0.3108384311199188,0.2069184035062790,0.0595691315829754,0.0202286932617426,-0.2676238417625427,0.4924818277359009,-0.0103241801261902,-0.1838356554508209,-0.0773200467228889,0.1470801681280136,-0.3777077496051788,0.1952550411224365,0.3607020080089569,-0.2388020455837250,0.0022988431155682,0.2823426425457001, -0.2554883956909180,-0.0277970414608717,0.1196106448769569,-0.0344387814402580,-1.2829228639602661,-0.1116568744182587,0.2021093219518661,0.0834404155611992,0.4097259342670441,-0.0357101969420910,-0.2962634861469269,-0.1889460086822510,-0.5562672019004822,0.2775219380855560,-0.0059178266674280,-0.0410033836960793, -0.0109413554891944,-0.1688880622386932,0.2001610845327377,0.2148429602384567,0.1196607053279877,0.0151596097275615,0.2351892590522766,-0.0671065002679825,-0.1747777312994003,-0.2241628468036652,0.1369809359312057,0.3097825348377228,-0.0768937990069389,0.2582632005214691,-0.4006421566009521,-0.8326554298400879,
    -0.2694336771965027,0.2204840332269669,0.0145676760002971,0.3773453533649445,0.1023799329996109,-0.1789271831512451,-0.0207473747432232,0.0595365092158318,0.0571077652275562,0.0334561765193939,0.1577357500791550,0.3019077479839325,0.0020919020753354,-0.0354702956974506,0.5389999747276306,-0.1002410501241684, -0.6981841921806335,-0.3844689428806305,0.5907940268516541,-0.2074333727359772,-0.1397215723991394,-0.2157574743032455,-0.2199179232120514,-0.7128167152404785,0.9137957692146301,-0.4120636284351349,0.0151053462177515,-0.1315590292215347,-0.3759486377239227,0.1474108844995499,-0.2151894271373749,0.1410297006368637, -0.4626536965370178,-0.0621439479291439,-0.1503116339445114,0.6226222515106201,-0.8189753293991089,-0.5193362832069397,-0.3764017820358276,0.5713589191436768,-1.1020847558975220,-0.0741808935999870,-0.0598596930503845,0.8294831514358521,0.1718066185712814,-0.1505023986101151,-0.0096868285909295,-0.0901755094528198, -0.2704883515834808,0.0358423069119453,-0.3242525756359100,-0.1654151231050491,0.0795304328203201,0.0857699885964394,-0.0264570508152246,0.3846996724605560,-0.5331718921661377,-0.3048141300678253,-0.0288410373032093,0.0937981083989143,0.3349206149578094,0.1091023087501526,-0.2574603557586670,0.5133809447288513,
    0.2002199739217758,0.0154311908408999,0.7493390440940857,-0.2790843546390533,0.1800349056720734,-0.3128799796104431,0.0407849550247192,0.0588391423225403,-0.4367620944976807,0.3857905566692352,0.3307039141654968,0.2027249187231064,-0.2059411257505417,0.1208023130893707,0.1158360987901688,0.0083355754613876, 0.0182617474347353,-0.1378968507051468,0.5713827013969421,0.3763156831264496,-0.1278164237737656,-0.0695321857929230,0.2132773697376251,-0.1940822005271912,0.0336753688752651,0.2422718554735184,-0.2234979867935181,0.0175993964076042,-0.0060111773200333,0.0239059142768383,-0.0432680696249008,-0.0919003114104271, 0.0008453063783236,-0.5578435063362122,-0.2206689864397049,-0.2396602779626846,-0.6329978704452515,0.2690023779869080,-0.4296374917030334,-0.3215108215808868,-0.0976878330111504,0.1295423209667206,-0.0196426976472139,0.1310401558876038,0.2400484085083008,0.2086992263793945,0.0205188021063805,-0.2462624609470367, -0.8182512521743774,-0.0251436252146959,-0.0654325634241104,0.1150094643235207,0.0851641595363617,0.2999064326286316,-0.1611764878034592,0.1732039749622345,0.1684899479150772,-0.1168430745601654,0.2363897114992142,0.1168268322944641,-0.0036373925395310,0.0732837542891502,0.0540660098195076,-0.0666429698467255,
    -0.4427320361137390,0.1966391950845718,-0.1916711032390594,0.5930452942848206,-0.2783798277378082,-0.0318662934005260,0.4676041305065155,0.3613972961902618,-0.3534798622131348,0.3596439361572266,-0.5166282057762146,0.1637945175170898,0.1349952667951584,-0.2066932469606400,-0.0504338890314102,-0.0419091656804085, -0.1713663637638092,0.3416531980037689,-0.3383084237575531,-0.7649639844894409,0.1016861647367477,-0.0737837255001068,-0.3196624815464020,-0.2455997020006180,-0.5867444872856140,-0.0591351687908173,-0.7104654908180237,-0.1092872470617294,-0.0561766102910042,0.0632192566990852,-0.3439609706401825,0.1473209410905838, 0.4295211136341095,-0.1581528335809708,-0.0775289386510849,0.0830982998013496,-0.3034118711948395,0.2884031236171722,-0.0242127850651741,-0.2029390931129456,0.2589043080806732,-0.0620444566011429,-0.2340426743030548,-0.3513736724853516,0.0267902351915836,-0.3307079672813416,-0.1577733606100082,0.1210940778255463, 0.6115171909332275,0.4154230356216431,-0.2592345178127289,-0.6253607869148254,-0.1778795570135117,-0.5825960040092468,0.0349864400923252,0.2710987031459808,0.0909602642059326,-0.3801758289337158,0.4386226236820221,-0.2117860019207001,0.2929389476776123,-0.1016309112310410,-0.3461448252201080,0.0797104313969612,
    0.1124804839491844,-0.1833767443895340,0.5036156177520752,-0.5332890152931213,-0.4022088944911957,0.2640429437160492,-0.1018773093819618,0.0860940739512444,0.0791092365980148,-0.1377887278795242,0.0351542159914970,-0.3118409812450409,0.1072304993867874,0.0873700678348541,0.4179479777812958,-0.3750913441181183, -0.0357940346002579,0.2103710472583771,0.1404532790184021,0.4146741330623627,-0.6750878095626831,0.1649542003870010,-0.4496495723724365,-0.2316563725471497,-0.0209106523543596,0.2516309618949890,0.4667033851146698,-0.0594991296529770,-0.1377858668565750,0.0467918552458286,0.4299004077911377,-0.3278995752334595, -0.1320371180772781,-0.4781760871410370,-0.0357212871313095,-0.3265702724456787,-0.2224475294351578,0.0640344470739365,-0.2205531746149063,0.5134009718894958,-0.2530675828456879,0.3713321387767792,0.5052924752235413,-0.5175920128822327,0.5557863116264343,0.2989334464073181,-0.0398879311978817,-0.0778357684612274, -0.2271580547094345,-0.1089428961277008,-0.0385691374540329,0.4008425474166870,-0.3198751211166382,-0.4318437278270721,0.4817243218421936,0.4681068658828735,-0.6132737994194031,0.2610763907432556,0.3542020618915558,-0.1201612800359726,-0.3450168371200562,0.3570635914802551,0.4003156721591949,-0.0240382310003042,
    -0.0890586972236633,-0.0153698706999421,0.2030581682920456,-0.2969026565551758,0.6674816012382507,-0.3652474880218506,0.1293855607509613,0.6657962799072266,0.4591405391693115,-1.1414269208908081,-0.1208094432950020,0.1897863447666168,0.1491586118936539,0.4291711151599884,0.0709124207496643,0.4580512940883636, -0.4207429289817810,0.4833797812461853,-1.1518627405166626,-0.6800489425659180,0.9636791944503784,-0.4702177941799164,1.0709803104400635,0.8426635861396790,-1.1541699171066284,-0.2130525857210159,-0.4056031703948975,1.5263035297393799,0.3617376089096069,0.0397966355085373,0.2514317631721497,-0.0665407180786133, -1.3346475362777710,0.1033523827791214,-0.0816780626773834,0.1498495042324066,0.0768113359808922,0.3536834120750427,0.1735282838344574,0.0444992706179619,1.4755237102508545,1.2100802659988403,-0.9181354641914368,-0.6244340538978577,-0.0415327399969101,-0.1025809571146965,0.5623093247413635,-0.2227041721343994, -0.1238777190446854,-0.1159746423363686,0.5482517480850220,0.6141683459281921,0.0220566038042307,0.4660684466362000,-0.7579674124717712,-0.0518227927386761,-0.7224181294441223,-0.5442684888839722,1.5151859521865845,-0.0668992325663567,-0.0324151143431664,-0.0606503859162331,1.3089879751205444,-0.5638028979301453,
    -0.1175134554505348,-0.3233608305454254,0.5112784504890442,-0.3359570801258087,1.0570213794708252,-1.0798602104187012,-0.7062640190124512,0.8207157850265503,0.7324292063713074,-0.2402853369712830,0.3216451406478882,-0.4011487662792206,-0.0891028717160225,-0.5564844012260437,-0.7042275667190552,0.0080841761082411, -1.4472190141677856,-0.6626265048980713,0.1922796815633774,0.4389091134071350,-0.7960341572761536,-0.2723106741905212,0.8932713866233826,0.2193797230720520,0.3955515325069427,-0.5744234323501587,0.1486397832632065,-0.5539309978485107,0.3862355351448059,-0.0324738509953022,-0.2011064291000366,0.2306950390338898, 0.6353199481964111,0.9539201259613037,-0.9224483370780945,-1.0454608201980591,-0.5638115406036377,0.7282138466835022,-1.2730269432067871,-0.1525851190090179,-0.2080059945583344,0.4428615868091583,-0.6911133527755737,0.4862824082374573,0.0670493990182877,0.5089606642723083,0.5727796554565430,-0.4372925460338593, -1.4952251911163330,-0.0472103767096996,0.6320180296897888,0.3948633372783661,0.3605978488922119,0.8953728079795837,-0.0767349228262901,0.4156054556369781,-0.0520226210355759,-0.1045792996883392,0.4485097527503967,1.2180448770523071,-0.1650093197822571,0.5092223882675171,-0.0791270211338997,0.0663575679063797,
    0.2915546000003815,-0.1482535898685455,-0.1120903044939041,-1.3035845756530762,0.6623596549034119,-0.2924059331417084,-0.0301742646843195,0.6484736800193787,0.1924785226583481,-0.0410698652267456,0.4995317757129669,-0.4574109017848969,0.0241426210850477,-0.2942463755607605,0.3573672175407410,-0.6126037836074829, -0.0864895284175873,-0.6223814487457275,0.1844408363103867,0.0781769379973412,0.3607862889766693,0.1497784703969955,0.1406350284814835,-0.7087922096252441,1.6577877998352051,0.0476462170481682,-0.0424622781574726,0.5158134698867798,0.4472838640213013,0.3132665753364563,0.3420727252960205,0.7081799507141113, 0.3074558973312378,-0.2174217253923416,-0.4521882832050323,-0.4137821197509766,0.7872465848922729,-0.4610630869865417,-0.1917994767427444,0.4067643284797668,0.2120439112186432,-0.4732986390590668,-0.1609838902950287,-1.0952765941619873,0.6013923883438110,0.1450645476579666,-0.1791162937879562,-0.7390237450599670, -0.6091324090957642,0.3294101655483246,-0.1230609863996506,0.4404877126216888,0.8030773997306824,0.1524041295051575,-0.4544443488121033,-1.0754530429840088,-0.5545282959938049,-0.0421064384281635,-0.6440325379371643,-0.3620916306972504,-0.5809087157249451,0.1669232994318008,0.4244585633277893,-1.5045127868652344,
    -0.0832303985953331,-0.0760238245129585,1.3928754329681396,-1.1941349506378174,-0.7125761508941650,0.1439331322908401,-0.5528941750526428,0.9667347073554993,1.5572916269302368,-1.2516238689422607,-1.1723774671554565,1.3839627504348755,0.4840516746044159,0.1003132760524750,-0.4255980849266052,0.4306980371475220, -0.5010411739349365,1.7071869373321533,0.7648028135299683,0.4542869329452515,0.9729323983192444,-0.9416677951812744,-0.9736172556877136,-0.4308336973190308,-0.9282354116439819,-0.1133932769298553,0.5049364566802979,0.8439406156539917,0.1158928051590919,-0.1861646175384521,0.6333060264587402,-0.8483741879463196, 0.6272572278976440,-0.7882571816444397,1.0528804063796997,-0.3724374771118164,0.9654525518417358,0.4306009709835052,-1.1789757013320923,-0.2241985946893692,0.8549196124076843,0.9608777165412903,-1.3289880752563477,0.3367885053157806,-1.1894651651382446,-0.0006981831393205,0.7947410941123962,0.7810128927230835, -0.9713453054428101,0.4710222482681274,-0.4745935201644897,-1.3660247325897217,0.4714728891849518,-0.5216792821884155,0.2777799367904663,0.3914928138256073,1.3867294788360596,0.8480969667434692,-0.5132580399513245,-0.3386361598968506,-0.2060665637254715,0.2990649342536926,-0.5901135206222534,0.6883531808853149,
    0.0972121506929398,-0.0850065350532532,-0.0545877031981945,-0.0593685805797577,0.0086370455101132,0.2879739403724670,-0.0257905740290880,-0.0842970460653305,0.0825200751423836,-0.0541595183312893,-0.1566459387540817,-0.0611163079738617,-0.0059154960326850,-0.3571669161319733,0.2241638153791428,-0.5589028596878052, 1.2621204853057861,0.2834316790103912,0.1929710656404495,-0.7264261841773987,-1.2187203168869019,0.1398660689592361,-0.1078835874795914,-0.5956637263298035,0.1086576879024506,0.0627806559205055,0.4312775135040283,-0.0544734299182892,-0.4845045208930969,-0.1199466958642006,0.1827711611986160,0.4224950373172760, -0.1567178368568420,0.0615695156157017,-0.0853963717818260,0.1733252257108688,-0.9292263984680176,-0.0028763867449015,0.4019742310047150,0.3474249541759491,-0.1624777615070343,0.1504637748003006,0.5434047579765320,0.0377098433673382,-0.1382150799036026,0.2086913138628006,0.0716995671391487,-0.3051378130912781, 0.2740125358104706,-0.0422146618366241,0.0009112426196225,-0.5723402500152588,0.0873872414231300,0.0145511263981462,-0.2965517640113831,0.3802966773509979,-0.0304976049810648,0.0554013885557652,-0.5966839194297791,-0.5190740227699280,-0.0626375153660774,0.4175822138786316,0.0619880966842175,0.0503715872764587,
    -0.3848230838775635,-0.1925882995128632,-0.2585643827915192,0.3095345497131348,0.0083446875214577,-0.1951317042112350,-0.2094656527042389,0.1958500295877457,0.0205153394490480,-0.0915234237909317,0.5028078556060791,0.0707064047455788,-0.0579102262854576,-0.1308663785457611,-0.1639579534530640,-0.0421263985335827, 0.2598066926002502,0.0649486333131790,-0.4856901168823242,0.0197923686355352,-0.6370013356208801,0.0404896475374699,0.1816184520721436,0.5817140936851501,-0.4682358801364899,0.1654438376426697,0.3407835960388184,-0.0165801141411066,0.0053121992386878,0.0325207151472569,-0.0928602516651154,-0.0763542279601097, -0.6402885913848877,0.1969032734632492,-0.0823357403278351,-0.1066571772098541,0.1378819942474365,0.1094604507088661,-0.0645254999399185,-0.1402240842580795,-0.4448942542076111,-0.1796194314956665,0.3817997574806213,0.0884236171841621,-1.4356511831283569,0.1838100701570511,0.0315942615270615,0.2263726145029068, 0.0133327450603247,0.3791058361530304,-0.0651106089353561,-0.2051154375076294,0.0089387167245150,-0.0359392538666725,0.0730853974819183,0.0746735930442810,0.0530452989041805,-0.0504173152148724,-0.1499984860420227,-0.2670703530311584,-0.0102058313786983,0.0891692563891411,0.0501652397215366,0.1233702450990677,
    -0.1356993168592453,-0.0496662557125092,0.0421058684587479,-0.3590447604656219,-0.1657710224390030,-0.0630042329430580,0.2545949518680573,-0.0654043704271317,0.2073754519224167,-0.2883292138576508,-0.1753358542919159,0.2491815537214279,0.0207747109234333,0.1082945987582207,-0.0716683045029640,0.0140488632023335, -0.2196915596723557,0.1999128013849258,0.0487974248826504,0.5860254168510437,-0.6432154178619385,-0.0742438882589340,0.0750787854194641,0.3130913972854614,-0.7029052972793579,-0.0386995002627373,0.2833849489688873,0.6625223159790039,-0.5792536735534668,-0.3031523227691650,-0.0631466433405876,0.0256646126508713, -0.5738721489906311,-0.0209698881953955,-0.1356369554996490,-0.1799379289150238,0.8371757268905640,-0.1656867265701294,-0.3749944269657135,0.0660340115427971,-0.2656089067459106,-0.1988964825868607,0.2170315682888031,0.2469587773084641,-0.8237489461898804,0.2559834718704224,-0.2471372485160828,0.5391929149627686, -0.0414052642881870,-0.2649847865104675,0.0701913610100746,-0.0854235813021660,-0.2494213879108429,-0.0112946247681975,0.5013101696968079,0.2216868102550507,0.0631614327430725,0.4213589131832123,-0.2024155259132385,-0.1695618629455566,0.1106107831001282,-0.0744094029068947,0.0690536722540855,0.6826934814453125,
    -0.0398694090545177,-0.0576523765921593,0.1562356203794479,-0.4870463311672211,-0.0950974598526955,-0.1093074157834053,0.3838354349136353,-0.0384243354201317,0.1364704221487045,-0.4337494373321533,0.1972289532423019,-0.0528967566788197,-0.2455881983041763,-0.1593880355358124,-0.2556273043155670,0.1830899417400360, -0.6739263534545898,-0.1830537915229797,0.2037484198808670,-0.1075229495763779,0.3522817194461823,-0.1676993519067764,-0.1746798157691956,0.3624203205108643,-0.3745477199554443,-0.1951475441455841,0.2848418653011322,0.1028335541486740,0.2674456536769867,0.1746059805154800,-0.6234161257743835,0.1618665158748627, -0.2768308520317078,0.0842859745025635,-0.3377727270126343,0.4423059225082397,-0.8338192105293274,0.1237186193466187,-0.3692366778850555,0.0072062509134412,-0.3844021856784821,-0.0453988015651703,0.1613013744354248,-0.0071242726407945,0.1081133782863617,-0.2697623372077942,-0.3870626389980316,-0.3046920001506805, 0.0873960107564926,0.1903515309095383,0.5363019704818726,0.7041299939155579,-0.1628597378730774,-0.0824397131800652,0.0719868764281273,0.0484629459679127,-0.2232514619827271,-0.0940609350800514,0.2712540626525879,0.0407794490456581,0.0576805286109447,-0.1246888116002083,-0.0215592272579670,-0.1459757387638092,
    0.0034520702902228,0.1214498728513718,-0.6025510430335999,0.0249612256884575,0.1232420429587364,-0.1901192069053650,-0.1817940175533295,-0.1940523982048035,0.1718396693468094,0.1412460952997208,-0.2130886912345886,-0.2420209050178528,0.0077420026063919,-0.1744088232517242,0.1076818853616714,0.1154113784432411, -0.0075510283932090,-0.0661478713154793,-0.1083743497729301,0.0074717770330608,0.0801889225840569,0.1536306142807007,0.0551308207213879,0.2144537121057510,-0.1942308843135834,0.1920518279075623,-0.1062656491994858,-0.0989746600389481,-0.0535733103752136,-0.0642086267471313,0.2473550289869308,0.1248305737972260, 0.1140482649207115,0.2089952379465103,-0.3565639555454254,-0.1579840034246445,0.1202097907662392,0.0169167928397655,-0.4233676791191101,0.3662293851375580,-0.2972396016120911,0.0354420132935047,-0.4005582332611084,0.2518917918205261,-0.1062631383538246,0.1871206164360046,0.2669748961925507,-0.1177521198987961, 0.2221408486366272,0.0412144437432289,0.1997270584106445,-0.4483871459960938,0.0705515965819359,-0.0170732140541077,-0.4375585317611694,0.0064713321626186,0.3927375078201294,0.2158379405736923,-0.2366429865360260,0.5506569743156433,-0.1484967023134232,-0.0818439647555351,0.2799007594585419,-0.2190681844949722,
    0.0022402571048588,0.4337005913257599,-0.0790079236030579,-0.1524776816368103,0.2247717976570129,-0.1817172914743423,0.0965774357318878,-0.4388888180255890,-0.0310886260122061,-0.1776206046342850,-0.3551769852638245,-0.1832752972841263,0.0132591882720590,-0.0256914738565683,-0.0179185662418604,0.0017274197889492, -0.4014305174350739,0.0188735537230968,-0.0700419023633003,0.1459059268236160,0.2258822619915009,0.1110329180955887,0.1071200594305992,0.2467153072357178,0.3558194339275360,-0.0266103167086840,-0.0882912203669548,-0.0932704657316208,0.0699787139892578,0.0147254336625338,-0.0175550170242786,-0.0126446774229407, 0.0752355456352234,0.0490985810756683,0.0148369716480374,0.0704440474510193,-0.1493195444345474,-0.3858819007873535,-0.1483389735221863,0.1165345385670662,0.0933241769671440,0.0128808710724115,-0.0072410311549902,-0.2471487820148468,-0.0464543849229813,-0.0644562169909477,-0.0048509221524000,0.1342475712299347, 0.0477743782103062,0.0853709951043129,-0.1195516288280487,0.3661219477653503,0.0826970711350441,0.2258924990892410,-0.2470751851797104,0.1057384833693504,-0.1620157957077026,0.1407959163188934,0.2575348317623138,-0.4856635928153992,0.0172616317868233,-0.0184330306947231,-0.0641338750720024,-0.0366800054907799,
    0.0478900149464607,0.1221803948283195,-0.0048696813173592,-0.1733635663986206,0.1603926867246628,0.0463322289288044,-0.1481468081474304,-0.2429421693086624,0.5003752708435059,-0.2402568459510803,0.4313097298145294,0.2304612994194031,-0.1832619011402130,0.2290190458297729,-0.2621566951274872,0.1728198528289795, 0.4487371742725372,0.1143802553415298,-0.0853055417537689,0.2116272747516632,0.3040822446346283,-0.0129019739106297,0.1225590184330940,-0.2289656698703766,-0.2856948673725128,0.1112696081399918,0.6691358089447021,0.0950932502746582,-0.1876986473798752,0.2152831256389618,-0.3382408320903778,-0.1827625632286072, -0.0229657050222158,0.0554301030933857,-0.0060281688347459,-0.1883801817893982,-0.2207112312316895,0.0628378316760063,-0.3086761832237244,0.4363976120948792,0.2337420582771301,-0.0116329137235880,0.0762804374098778,0.4819069802761078,0.0903512462973595,0.0141836376860738,-0.0057226647622883,-0.2253658175468445, -0.3127522468566895,-0.1245789602398872,0.1322666406631470,-0.2597001791000366,0.1229827553033829,0.1994042694568634,-0.2073950469493866,0.1780795007944107,0.0171694103628397,0.1104453951120377,-0.4544686079025269,0.1877100765705109,0.0471196807920933,-0.2133800536394119,0.0180605184286833,-0.1634281128644943,
    0.0121660856530070,0.0338406525552273,0.1998585462570190,0.0206439271569252,0.2194698154926300,-0.4688451886177063,0.2220364809036255,-0.0333837568759918,0.3011645972728729,0.1250388175249100,0.1883435845375061,-0.0403984747827053,0.1071426346898079,-0.0012359856627882,0.1785391420125961,-0.1210051476955414, 0.3893382549285889,-0.2299608141183853,-0.0232115108519793,0.1784692555665970,0.7759434580802917,0.0300374105572701,0.4910123944282532,0.2475669682025909,0.1687314361333847,-0.1351434588432312,0.0387402437627316,-0.1991893202066422,-0.0611180663108826,-0.1835078001022339,0.5278366804122925,0.2597263753414154, 0.1779217571020126,0.0438032224774361,0.3085613548755646,0.0643453747034073,0.0628416091203690,0.1801225095987320,0.1613201946020126,-0.6907746195793152,0.2272591143846512,-0.2060653269290924,0.1032404303550720,0.0895658582448959,-0.0190933439880610,-0.1984361112117767,-0.2484008967876434,0.0595002397894859, 0.1395405381917953,-0.0015770850004628,0.3071405589580536,-0.2197080105543137,0.1220948696136475,0.3518286943435669,-0.0604648925364017,-0.3732348680496216,-0.0132479593157768,-0.3815101683139801,-0.0735637024044991,-0.2880368530750275,0.1413240879774094,-0.1434072852134705,-0.5178935527801514,-0.5853052735328674,
    -0.2173842489719391,-0.1343985050916672,-0.1258147209882736,0.3268784582614899,-0.5404939055442810,0.1963337510824203,-0.0173213370144367,0.1291486769914627,-0.3867418766021729,0.5370112657546997,0.9682083725929260,0.0894222334027290,-0.0696233138442039,0.4607441425323486,-0.4015547335147858,0.0813936889171600, 0.2516577839851379,0.0626449808478355,0.2339404225349426,0.5485092401504517,-0.4907196462154388,0.1549491286277771,-0.3612695932388306,0.6272498965263367,-0.4577031731605530,0.3492555320262909,0.4665550589561462,0.0680909156799316,0.1918868422508240,0.0347994826734066,-0.6505160927772522,-0.3675012588500977, 0.4927993416786194,-0.2094607651233673,0.0383717417716980,-0.4139766693115234,0.7456200718879700,0.0503613427281380,0.6011041998863220,0.1549554467201233,0.4988185167312622,0.2004828900098801,0.1046793535351753,0.2993284165859222,-0.3229162395000458,0.0931230261921883,-0.3194315731525421,0.3869629800319672, -0.1231227517127991,0.2755478024482727,0.0820990353822708,-0.5827355980873108,0.1346660107374191,-0.2845894396305084,0.5222445130348206,-0.0177266094833612,-0.1781621426343918,-0.0398740619421005,-0.0067016961984336,-0.5467145442962646,0.0893782153725624,-0.2001122236251831,-0.0419458299875259,0.4687587022781372,
    -0.1079701259732246,-0.0770131796598434,0.5527497529983521,-0.1012376248836517,-0.0869776010513306,0.0046745790168643,-0.5834813117980957,-0.1761657297611237,-0.3294477462768555,0.0912394300103188,-0.2286168187856674,-0.0099040884524584,-0.1719641983509064,0.0251878947019577,-0.0115307029336691,0.1320827901363373, -0.7315868735313416,-0.2788631916046143,-0.1605380773544312,-0.1249447539448738,-0.2189702987670898,0.1986428946256638,-0.0003406299510971,0.1814558953046799,-0.3545885086059570,0.2317046970129013,0.0186081845313311,0.1031460762023926,-0.1050769165158272,-0.0547594241797924,-0.1439780443906784,-0.0015276181511581, 0.8075971007347107,0.5923010110855103,-0.3564180731773376,0.0927564352750778,-0.1974862366914749,0.0882446020841599,0.2315756231546402,-0.2921054661273956,-0.3593383431434631,-0.0150156039744616,0.2925438284873962,-0.6560510396957397,-0.0273298732936382,0.1961365044116974,0.0711201727390289,-0.2354427576065063, 0.0202330499887466,0.0071496171876788,0.1150285154581070,0.0670097693800926,0.0403408147394657,0.3181409537792206,-0.0145089570432901,-0.0595509633421898,-0.1671710908412933,0.1226561218500137,0.0314511246979237,0.2398762255907059,-0.0976812690496445,-0.0451656058430672,0.1257121264934540,-0.0235376693308353,
    0.0170222241431475,0.2941016554832458,-0.2822473347187042,0.5267715454101562,0.0158350951969624,0.1914280802011490,-0.0912858098745346,-0.3527641594409943,-0.2116389125585556,-0.4198934137821198,0.0678702369332314,-0.1214637309312820,-0.1495652496814728,-0.0745307579636574,-0.2371837943792343,0.4825415909290314, 0.1096088588237762,0.0260805375874043,0.1196915358304977,-0.1285513788461685,-0.2986830472946167,0.1736114919185638,0.2910596132278442,0.1187920123338699,-0.1111901551485062,-0.1749697476625443,-0.3605601489543915,-0.4105346202850342,0.0419439673423767,-0.2299970388412476,-0.1186771988868713,-0.5852093100547791, -0.8837147355079651,0.1586005985736847,0.1997752040624619,0.0947132930159569,0.4552782177925110,0.0062656374648213,-0.1242324933409691,-0.0328236036002636,-0.0619783923029900,0.5795547962188721,-0.3555582761764526,-0.3005228638648987,0.3615056574344635,0.0753384754061699,-0.0072018192149699,0.6126458048820496, 0.1630387902259827,-0.0498664528131485,-0.0362361483275890,-0.0905214622616768,-0.1984865218400955,-0.3594142198562622,0.1514188945293427,-0.4479296803474426,0.0914528891444206,-0.1318567097187042,0.5950789451599121,0.0901839584112167,0.2454681247472763,-0.0857500880956650,-0.0281057860702276,0.2730254828929901,
    0.5080826282501221,-1.0791436433792114,-0.5373314619064331,0.3695951104164124,-0.0660633593797684,0.2676966488361359,0.4832068681716919,0.2474077641963959,-0.0355244278907776,-0.3877410590648651,-0.5845246911048889,0.1750975102186203,-0.4133243262767792,0.5754123926162720,-0.1292177438735962,-0.2539238333702087, 0.3645048439502716,-0.0304954051971436,0.3530144989490509,-0.1268512755632401,-1.0442894697189331,0.0674017593264580,0.1153740733861923,0.3319592475891113,-0.7085301876068115,-0.1189584434032440,-0.2265496850013733,0.0620918124914169,-0.3608553111553192,0.2213819324970245,-0.9128474593162537,0.6526770591735840, 0.0874095633625984,-0.0701107457280159,-0.2305460870265961,-0.2703810930252075,0.6188399791717529,-0.0470854341983795,-0.3939666450023651,0.3055638074874878,0.4122009277343750,-0.0737748742103577,0.3985662460327148,0.2130517959594727,0.4562237560749054,0.1142437234520912,0.3297971189022064,-0.6419264078140259, -0.0251580718904734,0.3710212409496307,-0.1811575740575790,-0.5609846115112305,0.2647675275802612,0.0271848756819963,-0.2518736720085144,-0.4102331995964050,0.2915404736995697,0.3853640556335449,0.2347645759582520,-0.0331997685134411,-0.0412288270890713,-0.0004071262083016,0.6865383386611938,-0.0212397668510675,
    -0.0208104643970728,0.2583507299423218,-0.0829066336154938,0.3270826339721680,-0.0625716224312782,-0.0612787418067455,-0.1392781734466553,-0.0707841068506241,-0.1314291656017303,0.2493008822202682,0.0208990164101124,-0.1052192822098732,0.2062851190567017,-0.2439357191324234,0.0075676394626498,0.0833797231316566, 0.3936099708080292,-0.0886060446500778,-0.3031807541847229,0.1593988984823227,-0.1519491374492645,0.0155814783647656,-0.0506126992404461,-0.0805348679423332,-0.3615941405296326,-0.0245720427483320,-0.1819649636745453,0.1003885120153427,0.4155265092849731,-0.0040002237074077,0.1323628574609756,-0.0276638753712177, -0.3187590241432190,-0.1776360124349594,0.0372513644397259,-0.4550727903842926,0.6604937911033630,-0.3123716711997986,-0.0481405034661293,-0.1276697069406509,-0.1985872387886047,0.0103244883939624,0.2415471673011780,0.2644212543964386,-0.3862172365188599,-0.5491676926612854,-0.2247164994478226,-0.3454288840293884, -0.1113531515002251,-0.1021449267864227,-0.3833614885807037,0.0422074310481548,-0.0541939474642277,-0.1874103993177414,-0.0721583738923073,0.0914184749126434,0.0288480184972286,-0.0864669233560562,-0.2233799695968628,0.5575196146965027,0.0290978308767080,-0.0592205002903938,-0.7617524266242981,-0.4421078264713287,
    -0.0272296257317066,-0.3423164784908295,0.3780812323093414,0.2311383038759232,0.0946437418460846,0.3962259590625763,0.4172174632549286,-0.0666809529066086,0.1220895424485207,0.0296582542359829,-0.2555941939353943,-0.2756657898426056,0.0321549586951733,-0.0400723256170750,0.1687114536762238,0.0530211366713047, 0.4991476833820343,0.1135966256260872,-0.1368486881256104,0.0582812353968620,0.0878106579184532,-0.0287338979542255,0.2222390919923782,-0.1318944394588470,0.2832463979721069,-0.1173801943659782,-0.1628147959709167,-0.0408127568662167,-0.3039277493953705,0.0222861953079700,0.0603588074445724,0.0730625540018082, 0.0686271041631699,-0.2441133558750153,0.3279296159744263,-0.2602042853832245,1.1678510904312134,-0.0987590774893761,-0.1054968982934952,-0.0547422990202904,-0.1071978807449341,0.1385745555162430,-0.2169624716043472,-0.1563454270362854,-0.4817904829978943,-0.1331194490194321,-0.0108031658455729,0.0211102291941643, 0.0663512721657753,0.0791924372315407,0.1110778450965881,-0.1699322611093521,0.0643689408898354,-0.0762707293033600,0.0776671692728996,0.0654660612344742,-0.0471847318112850,0.0987818017601967,-0.4295151233673096,-0.0325732864439487,0.0399018600583076,0.0286733824759722,-0.0440013036131859,0.0122752608731389,
    0.0428973883390427,0.1824752092361450,0.3446313440799713,0.2917833328247070,-0.0910487845540047,-0.1633835285902023,-0.3731141686439514,0.1758762747049332,-0.4219076335430145,0.3388867974281311,0.2193818390369415,-0.1158462166786194,0.1343721002340317,0.1437866985797882,0.6774377822875977,-0.0759768038988113, -0.1513663381338120,-0.0812966674566269,0.0998792871832848,-0.3573767840862274,-0.1714535355567932,-0.0269483961164951,-0.0798958539962769,-0.1018846184015274,0.6232410669326782,0.3113081753253937,-0.4071988165378571,-0.1101551651954651,0.1959707587957382,0.0168154165148735,0.5500678420066833,0.3554032742977142, 0.0809335336089134,-0.0558547861874104,-0.1050425022840500,0.1909091770648956,-0.2376584857702255,0.1986614763736725,0.3279692232608795,0.1819950342178345,0.8638128638267517,-0.2425557374954224,0.0004781904863194,-0.0888057053089142,0.3594104647636414,-0.6499280929565430,-0.2272546887397766,-0.1359341740608215, -0.0246864594519138,-0.1651904881000519,-0.0532933287322521,-0.0087032588198781,0.0690993741154671,-0.0455705747008324,-0.2218168377876282,0.4335884451866150,0.0559249967336655,-0.1039379984140396,0.0963468477129936,-0.5713219642639160,-0.0663828849792480,0.0913163051009178,-0.1113455072045326,0.1046789810061455,
    -0.0793171450495720,-0.4622108936309814,-0.1605570465326309,0.1942564845085144,0.2586008608341217,-0.4649147987365723,0.0961205437779427,0.1169776320457458,0.2467022687196732,-0.0027341307140887,0.6702591776847839,0.1851673126220703,0.2892418801784515,-0.2431351542472839,-0.0934286341071129,0.0259443968534470, 0.2113802284002304,-0.0207883417606354,-0.1644987910985947,0.3795422017574310,-0.4856972992420197,-0.0573465675115585,0.4456582367420197,0.0101812789216638,-0.2015991508960724,0.0098114637658000,-0.0532930903136730,0.1983409970998764,-0.0253963805735111,0.0397654399275780,0.1253428310155869,-0.4270081818103790, -1.2057155370712280,0.0064089219085872,0.1345422267913818,-0.3797216713428497,-0.4531888067722321,0.2053795754909515,0.1400050222873688,0.0304507724940777,0.0810758396983147,-0.2510974407196045,-0.0185189880430698,-0.0340800210833549,-0.7963032722473145,-0.0014430597657338,0.0176819767802954,-0.1388195902109146, -0.0243234224617481,-0.3255253732204437,-0.0659352242946625,-0.5681097507476807,-0.1148402318358421,-0.1678987741470337,0.0296719726175070,-0.0197858866304159,-0.0712336748838425,-0.1655534654855728,-0.1530001163482666,-0.1515002697706223,0.0903401598334312,-0.0474962145090103,0.2193463444709778,0.2741314172744751
};


static const float fx2_paramModel1Alpha[16] = {
    0.4650297760963440,0.0314932838082314,0.0630642697215080,0.8963778614997864, -0.0434347651898861,-0.9637697339057922,-0.3385292291641235,0.8798593282699585, 0.0136764897033572,0.0450640805065632,0.8445205688476562,0.0461032614111900, -0.7950218915939331,0.0656608343124390,-0.8065953254699707,0.6749433279037476
};


static const float fx2_paramModel2Bias[16] = {
    0.1805750429630280,0.2795724868774414,0.0021826266311109,-0.1479747891426086, -0.1312648952007294,-0.3061289191246033,0.2144756615161896,0.2319428473711014, -0.0178628638386726,0.1315544694662094,0.3000803291797638,0.2477157115936279, 0.2507734000682831,-0.0615852884948254,0.2191054522991180,0.1743907034397125
};


static const float fx2_paramModel2Weights[36*16*4] = {
    0.1661206930875778,0.2539396584033966,0.3521524667739868,-0.1198760494589806,-0.1950773745775223,-0.0575860589742661,-0.2312085330486298,-0.0979050323367119,0.6897841691970825,-0.0030086096376181,-0.1528984904289246,0.0608934275805950,0.1339519321918488,0.0296267140656710,-0.0567990839481354,0.0927725955843925, -0.0102535365149379,-0.3464491367340088,0.0711680427193642,0.1609942018985748,-0.7959659695625305,-0.0489833652973175,-0.0102708330377936,-0.0850299894809723,0.1040040031075478,-0.1802280843257904,0.0685695335268974,0.0063705244101584,-0.0712359026074409,0.1208433210849762,0.2148670703172684,-0.1315984874963760, 0.0294717662036419,-0.0320065096020699,-0.1593205928802490,0.0721297338604927,0.0809822306036949,0.0485432781279087,0.1323156803846359,-0.1811898499727249,-0.0867173150181770,-0.1489686369895935,-0.1556251347064972,-0.0711597204208374,-0.0598712824285030,0.0202959962189198,-0.0614071860909462,-0.0569256097078323, 0.3213421106338501,-0.2065239548683167,-0.2639257013797760,-0.2108931690454483,-0.1886977106332779,-0.0193372350186110,0.0598653256893158,0.1934458017349243,0.1962700337171555,-0.1845525354146957,-0.0952967703342438,-0.2099878787994385,-0.1251400709152222,-0.1002869978547096,-0.0635825321078300,-0.0321689583361149,
    -1.3342500925064087,0.3914617598056793,0.0971340164542198,0.1688798964023590,0.0335114672780037,0.0001879682531580,0.0137501182034612,-0.0430995449423790,0.0531027913093567,0.0338089652359486,-0.2424275875091553,0.1935659795999527,-0.2964608967304230,0.0789718404412270,-0.1407328844070435,-0.0951647982001305, 0.4221698045730591,0.5640352964401245,-0.8719034790992737,0.1308218836784363,0.0914971753954887,0.0773029848933220,0.0282529834657907,0.1905656009912491,-0.1826371699571609,-0.0830058231949806,-0.2003842443227768,-0.3514795303344727,-0.1910483390092850,0.0427996665239334,-0.0729124620556831,-0.0466168001294136, -0.1918584406375885,-0.0471379123628139,-0.3722494840621948,0.3820471167564392,0.1085107624530792,0.0164076462388039,0.2441969513893127,-0.8081123232841492,-0.0123632242903113,-0.0358392149209976,0.1893102228641510,0.2390504181385040,0.2386784851551056,-0.2112599164247513,-0.0932413637638092,0.0886372178792953, 0.0835696086287498,-0.1574266254901886,0.5408701300621033,-0.1987776309251785,-0.1377850770950317,0.0196171533316374,0.2218322306871414,0.0602673254907131,-0.0030592780094594,0.6388682723045349,0.1984078288078308,0.2406286001205444,-0.4246063530445099,0.0823326706886292,0.1333285421133041,0.2241983264684677,
    0.2311207056045532,-0.1020512804389000,0.2244574576616287,0.4501359164714813,-0.0170708019286394,0.0087345596402884,-0.0109940124675632,0.0199001133441925,0.4252302348613739,0.0893350839614868,-0.1169490665197372,0.1850401610136032,-0.1705039888620377,0.0924914851784706,0.0733252167701721,-0.1556134521961212, -0.1569062620401382,-0.3664848804473877,0.1731035709381104,0.4214316010475159,0.1473564505577087,-0.1589605659246445,0.0527323819696903,0.0006808699108660,-0.0182187967002392,0.0463798828423023,-0.1540908962488174,-0.3269056081771851,-0.1358798295259476,0.0179708693176508,-0.1832022517919540,0.0637809038162231, -0.0644397810101509,-0.2152514904737473,-0.1275002956390381,0.0018674738239497,-0.0983535647392273,-0.0446361415088177,-0.0753065049648285,0.0667359530925751,-0.0876957103610039,-0.0043218922801316,0.0775429308414459,-0.0187942944467068,-0.0109625626355410,-0.0550210252404213,0.0009631965076551,-0.2316604107618332, 0.3206741213798523,0.8671523928642273,0.4598177671432495,-0.8651587963104248,-0.1109962984919548,0.2988242208957672,-0.0231253486126661,-0.0081155793741345,-0.1471910923719406,-0.0056964121758938,-0.2456618398427963,-0.1430440098047256,0.1688983142375946,-0.0361821018159389,-0.0979564189910889,0.0396538153290749,
    -0.7674464583396912,-0.0678870156407356,0.1081724315881729,-0.0500079095363617,-0.1151763051748276,-0.0774211585521698,0.0162734854966402,0.1006990224123001,0.1656713038682938,-0.1034482344985008,-0.1760058552026749,0.0906222090125084,-0.3821021914482117,0.0062502408400178,0.0011821686057374,0.0315398909151554, 0.0405234619975090,0.0529145710170269,0.0944686308503151,0.2269928008317947,0.2671870291233063,0.2021891176700592,0.0931108519434929,0.1057982519268990,0.0757901445031166,0.0500136986374855,0.1853134185075760,-0.4918917417526245,-0.1382202208042145,0.2684070467948914,0.2334367334842682,-0.0246704220771790, 0.0324303582310677,-0.0446882173418999,0.1739452481269836,0.1043204665184021,0.0603103823959827,-0.0810272693634033,0.4647786915302277,0.0419019684195518,-0.0114945685490966,0.0345563925802708,0.1700824052095413,-0.1759980022907257,-0.0131241837516427,0.0420007817447186,0.3657634556293488,-0.0245270226150751, -0.0352608487010002,0.1498354673385620,0.0885379761457443,0.0088825309649110,-0.0341538824141026,-0.2235313802957535,0.2968798577785492,0.2800972163677216,0.0891529172658920,-0.0504472367465496,0.0427382290363312,0.0593060813844204,0.0198372788727283,-0.2240354567766190,0.2665747702121735,-0.3308444023132324,
    0.0884447917342186,-0.2104807943105698,-0.1851117312908173,0.0717623829841614,0.0929836705327034,-0.2281896620988846,0.0441389717161655,-0.4250599443912506,0.0946181267499924,0.2476515173912048,0.1236458867788315,0.4549450874328613,0.8430939912796021,0.3610703647136688,-0.4802346825599670,-0.0617935135960579, 0.3755912482738495,0.1900621503591537,-0.0228639040142298,-0.2655254602432251,-1.7053810358047485,-0.4192842543125153,0.0468070246279240,0.0509378425776958,0.1618193835020065,0.0063289962708950,-0.1718272119760513,-0.0365666225552559,-0.1924296617507935,-0.2898299396038055,-0.2635889947414398,0.0052166082896292, 0.5374388098716736,-0.1662917435169220,-0.2258101701736450,-0.2614331841468811,0.1605160981416702,-0.4378336071968079,-0.3088737428188324,-0.4467385113239288,0.1310409903526306,0.2858052849769592,0.2488411962985992,0.2292057573795319,0.2251404672861099,0.0348680950701237,-0.1895465999841690,0.0514032877981663, -1.3301721811294556,-0.1526447981595993,0.4136439263820648,-0.5212112665176392,0.0030209454707801,-0.0000643470048090,-0.0760965570807457,0.0684881135821342,0.4043604135513306,-0.2387718856334686,-0.1926868855953217,-0.1053934544324875,-0.0392876751720905,0.4482671022415161,-0.0514429248869419,0.3756412267684937,
    -0.2826908230781555,0.0313419401645660,-0.2510106563568115,-0.1393792182207108,0.2066936939954758,-0.0201544035226107,-0.0140611762180924,-0.0551115721464157,0.4377339184284210,-0.1746415197849274,0.1366627663373947,0.0143217593431473,-0.3669055700302124,0.0241400841623545,0.8413484096527100,-0.3030701875686646, 0.1685861796140671,0.4833596944808960,-0.4088591635227203,0.2117090821266174,0.0740415006875992,0.0264191906899214,0.0220036562532187,0.0343089736998081,-0.3930380344390869,-0.0540809221565723,0.0461558364331722,0.2388935834169388,0.0527823418378830,-0.3174342513084412,-0.0744223073124886,0.0115232216194272, -0.5410346388816833,-0.3172326385974884,-1.0226844549179077,0.1803045272827148,-0.1328313946723938,-0.0615308918058872,0.2108994573354721,-1.3778569698333740,0.0140407150611281,-0.1630040109157562,-0.0592576675117016,-0.2804712951183319,-0.1451576352119446,-0.1511558592319489,0.3393737375736237,-0.1661752760410309, 0.1952913552522659,-1.2671769857406616,0.0203222502022982,-0.5360286831855774,-0.6775072813034058,0.0016993582248688,0.0820941776037216,-0.0125203467905521,-1.0782876014709473,0.9801630973815918,0.2870590686798096,0.4919223487377167,0.1035996973514557,-0.1108284592628479,0.1185551434755325,-0.2360919266939163,
    -0.0463721379637718,-0.1133531555533409,0.2926900982856750,-0.3679350912570953,-0.2953691184520721,-0.1091168448328972,0.0095686819404364,0.0649484544992447,0.1752629429101944,-0.2444121986627579,0.3033325970172882,-0.1155660152435303,0.2166411131620407,-0.0511818267405033,0.0577773675322533,0.0034348391927779, 0.0402748733758926,0.4664892256259918,0.2377634942531586,-0.3263773322105408,-0.1400808542966843,-0.2154593914747238,0.1979681998491287,-0.0067676063627005,0.1542071253061295,-0.1691532731056213,0.0247893128544092,0.1508096009492874,0.2351799756288528,0.1418468207120895,0.2423935234546661,-0.0551977679133415, 0.2612529993057251,0.2811546623706818,-0.7618907690048218,-0.3170534670352936,-0.0759419798851013,0.0323018357157707,0.0698385983705521,-0.2349075973033905,-0.0875798612833023,-0.2661857604980469,-0.2267082184553146,0.1520380377769470,0.0655228495597839,-0.1294156908988953,0.0380671136081219,0.1567385047674179, -0.0286638550460339,-0.4721408486366272,0.2362948805093765,-0.2087130248546600,0.3438947796821594,-0.1858959347009659,-0.2615471482276917,0.0367647446691990,0.0964389890432358,0.3147120177745819,0.0039424099959433,0.3468427658081055,0.0493441112339497,0.0495878159999847,0.1110768318176270,0.2314437776803970,
    -1.3949000835418701,-0.0863041877746582,0.0307945758104324,-0.0227373782545328,0.0608414448797703,0.0497590415179729,0.1695805042982101,0.0367924608290195,0.5825260281562805,-0.1102810874581337,-0.2170960605144501,0.1096738576889038,-0.2245557755231857,0.1140398234128952,0.1414528787136078,0.0515930466353893, 0.1544854938983917,0.1004295498132706,0.2225121557712555,0.2054339498281479,0.1088712736964226,0.1836213916540146,0.1761313378810883,-0.0897312015295029,0.1556618064641953,-0.0823502838611603,-0.0137728517875075,-0.9398655295372009,0.0096309725195169,0.1301883310079575,0.0269902069121599,-0.1542791575193405, 0.1093724668025970,0.0356268733739853,-1.4216964244842529,-0.4063777625560760,-0.0539574325084686,0.0089834798127413,-0.1530812084674835,-0.9841124415397644,-0.0881216898560524,0.1464636176824570,0.0853933021426201,-0.0341238491237164,-0.0447612926363945,0.2481427937746048,-0.1466548889875412,0.1447313874959946, -0.1834335178136826,0.0686146393418312,0.2966077029705048,0.1292382031679153,-0.8525210022926331,-0.4677044749259949,0.0904273912310600,-0.3962143957614899,-0.1184406429529190,-0.2775812149047852,0.2227038592100143,0.1355157792568207,-0.0222619920969009,0.2082585394382477,0.0063268397934735,0.0807192847132683,
    -0.3339692354202271,0.2662362754344940,-0.2696513235569000,0.0840762257575989,-0.1780422031879425,0.0146903740242124,0.1674147695302963,-0.1930252164602280,-0.1139451935887337,-0.0309524610638618,0.0160076916217804,-0.0264885947108269,-0.2118238061666489,0.0856419652700424,0.2284747958183289,0.0838044062256813, 0.0321924090385437,0.0106878895312548,-0.1594411432743073,0.4172100722789764,-0.4717369675636292,-0.3169454634189606,0.0040952619165182,-0.0427792891860008,-0.1355986744165421,0.1754725277423859,0.1697884202003479,-0.0482460856437683,-0.0045423917472363,0.1735062301158905,-0.0409668087959290,0.0156328398734331, -0.4432616233825684,-0.3230311572551727,0.0549781657755375,-0.2903189063072205,0.0751902759075165,-0.0285000689327717,-0.1018325015902519,0.2262391000986099,-0.0670371353626251,0.0458150282502174,-0.0675915479660034,-0.0216996129602194,-0.1498395502567291,0.0021958763245493,0.1508239954710007,0.0301692914217710, -0.1628321111202240,-0.5722022652626038,-0.4010456502437592,-0.6780820488929749,-0.1066385209560394,0.0395300015807152,-0.2405037581920624,-0.2126809358596802,0.0004743345489260,0.2868753075599670,0.1459555476903915,0.2970808744430542,0.0063366633839905,0.0728316232562065,0.1500250697135925,-0.0342569313943386,
    -0.0195554755628109,-0.0386854633688927,0.1683114916086197,0.1147137880325317,-0.0452439188957214,-0.0982003211975098,-0.0445125140249729,0.0260517075657845,0.0812323912978172,-0.0248660221695900,0.2511833906173706,-0.0976352095603943,-0.1397970765829086,-0.0740980356931686,-0.4827325046062469,0.1068722382187843, 0.2270699292421341,0.2083126753568649,-0.2915171980857849,0.2102241069078445,0.0665609315037727,0.0721031725406647,0.1086032912135124,-0.0488530546426773,-0.1353678703308105,0.1085410341620445,-0.0341877676546574,-0.3268060982227325,-0.0557624697685242,-0.0453481525182724,0.2128475755453110,0.1633282452821732, -0.1155188232660294,-0.2684494853019714,-0.1788388639688492,0.2938134968280792,0.1127786561846733,-0.0991355925798416,-0.1199935153126717,-0.1991763412952423,0.2353890836238861,0.2200908660888672,0.2246940732002258,0.5639482736587524,-0.0616856031119823,0.0164450015872717,-0.3677999675273895,-0.0491411052644253, 0.3342414796352386,-0.4992699325084686,0.3674625754356384,0.1292016059160233,-0.3277280926704407,-0.1397206336259842,0.2730683386325836,-0.0346960537135601,-0.1157993599772453,0.2406506836414337,0.5625084042549133,0.3021732568740845,0.0047355825081468,0.0446303151547909,-0.3107166290283203,0.2913643121719360,
    -0.0144120994955301,-0.1085284575819969,-0.2231322228908539,0.0076536126434803,0.1294712871313095,-0.0332846306264400,0.0182131677865982,-0.1584878414869308,0.0553991980850697,0.0800246298313141,-0.0787338167428970,-0.0509553737938404,-0.1585330367088318,0.0172359216958284,0.1145272031426430,0.1192129254341125, -0.0000050268754421,-0.0622550025582314,0.0396216735243797,0.1077401936054230,-0.0656752884387970,-0.0740057677030563,0.0330043248832226,-0.0410034097731113,0.0152940861880779,-0.1351291984319687,0.0044391457922757,0.3501172065734863,0.3141415715217590,0.2946202456951141,0.2285629957914352,0.2010669261217117, 0.0327025465667248,-0.0052797859534621,-0.1376498788595200,0.2694691717624664,0.0820387378334999,0.0542237274348736,-0.0678921565413475,0.0776343271136284,0.1336907446384430,-0.0147619191557169,0.0463048517704010,-0.0742918029427528,-0.2328557670116425,0.0771148800849915,-0.0650946125388145,-0.2322725504636765, 0.1641698032617569,0.0712048336863518,-0.0475269779562950,0.0470927841961384,0.1188867911696434,0.0331830047070980,-0.0020013523753732,0.0591065771877766,0.1641124337911606,-0.2085881829261780,-0.0482812821865082,-0.0786291658878326,0.1412576436996460,-0.1744481474161148,-0.1678901761770248,0.3526387512683868,
    -0.0053038424812257,-0.0905920639634132,0.0201463345438242,-0.0503067150712013,0.1098788157105446,-0.0251131523400545,-0.0709963217377663,-0.0045187016949058,0.3624717295169830,-0.1785988062620163,-0.1030177474021912,0.0292462632060051,0.2547536492347717,-0.0488558560609818,-0.2834700345993042,-0.1227743402123451, -0.0365175344049931,-0.0579228177666664,-0.0372772328555584,0.0398666895925999,0.3129990696907043,-0.1213847845792770,-0.0980562493205070,-0.0654763355851173,0.2270181328058243,0.0213231816887856,0.0349918864667416,-0.6923196315765381,-0.0981175079941750,0.0025811975356191,-0.0544692873954773,0.1178159713745117, 0.1054423898458481,0.3156740963459015,-1.2676857709884644,-0.0516926869750023,0.0554054640233517,0.1951035410165787,-0.1406469643115997,0.0133747793734074,-0.0744661614298820,0.0272708777338266,0.4419371187686920,-0.0886740610003471,0.0102528110146523,0.0723813027143478,-0.0880975574254990,-0.2176423072814941, -0.0671506375074387,0.0631258562207222,0.3361578583717346,-0.0216870605945587,-0.1009460762143135,0.0558159165084362,0.0313948877155781,-0.0282555501908064,0.1798706948757172,-0.2060583233833313,0.2720351815223694,0.2673255503177643,-0.0584749467670918,-0.1144804507493973,-0.0771547406911850,-0.0982510074973106,
    -0.0904724076390266,0.0188137106597424,0.1278236210346222,0.0151409478858113,-0.1865741610527039,-0.3345365822315216,0.0557703673839569,0.1022345051169395,-0.3373482227325439,0.0572498515248299,0.1866830289363861,-0.1218771860003471,0.0555581934750080,0.1849389970302582,-0.1085200607776642,-0.1196549385786057, 0.2549213469028473,0.1131767705082893,-0.2967929244041443,0.1536011695861816,-0.0854086726903915,-0.4580584466457367,0.1211675703525543,0.0299893766641617,0.5015400648117065,0.2254975587129593,0.2266233861446381,0.1361055076122284,-0.0182950757443905,0.0273657385259867,-0.3028796017169952,0.3657522201538086, 0.0962938740849495,-0.0691410824656487,0.1297015994787216,0.0402759723365307,-0.1781895756721497,-0.1739079356193542,0.0269495900720358,-0.0540807247161865,0.0706846266984940,-0.1484690159559250,-0.4451068639755249,-0.1697806268930435,0.0371125340461731,-0.0360653065145016,-0.0477250777184963,-0.3575671613216400, -0.1747609227895737,-0.1849557012319565,0.2063732147216797,0.0978959873318672,0.2146478295326233,0.0024468917399645,0.2723461985588074,0.3843810856342316,-0.2354086637496948,-0.1994472593069077,-0.1323714405298233,-0.0172153040766716,-0.0005661462782882,-0.2847908437252045,0.1739985048770905,0.0476049855351448,
    -0.3960794210433960,0.4001648426055908,0.0899823158979416,-0.0608889237046242,-0.1106684058904648,0.0647696331143379,0.0071353684179485,-0.0787045806646347,0.0048975809477270,-0.1101136431097984,-0.0376749932765961,-0.0504605248570442,-0.1001730114221573,-0.3269808590412140,0.5535501837730408,0.0610013194382191, -0.2582485377788544,-0.9684443473815918,0.1156485378742218,0.1013147532939911,0.2066272497177124,0.1393511146306992,-0.0038966513238847,0.4248459339141846,-0.2832686007022858,-0.1822433173656464,0.0327277034521103,-0.4404034614562988,0.4114217162132263,-0.2026692330837250,-0.2595527470111847,0.2329003363847733, -0.3216409385204315,-0.0725015550851822,-0.0492115952074528,0.1414826512336731,0.0491580255329609,0.0097396457567811,0.4377224743366241,-1.1322857141494751,-0.1775134205818176,-0.3052509129047394,0.2413441389799118,0.4066552519798279,-0.4649375379085541,-0.1584830284118652,0.2569887936115265,0.0977608263492584, 0.0382638610899448,0.1716410666704178,-0.6860874891281128,-0.5085538625717163,0.0102643230929971,-0.2286281734704971,0.1784052103757858,0.1581596583127975,-0.1096981540322304,-0.1556482911109924,-0.5917922854423523,-0.2195716351270676,0.2443150430917740,-0.1864176988601685,-0.0824557468295097,0.0502112805843353,
    0.2075928151607513,-0.3308838009834290,0.4539312422275543,0.9623838067054749,-0.1766532510519028,-0.0341955237090588,0.0708929002285004,0.1063959151506424,-0.0323845595121384,-0.6677035689353943,0.2076391428709030,-0.2458373904228210,-0.4815395772457123,0.0743078291416168,-0.2508386373519897,-0.2829580307006836, 2.8239831924438477,-0.4087804555892944,0.3495669364929199,-0.4646527767181396,-0.1743386983871460,-0.0418067872524261,-0.3065715134143829,-0.0933924764394760,-0.0354975834488869,-0.0516951084136963,0.1329733580350876,0.3414207696914673,-0.3316557407379150,-0.0023659092839807,0.1568127870559692,-0.0285920761525631, -0.1523974090814590,0.5797430872917175,0.5352730154991150,0.3751409649848938,-0.0979416444897652,0.0160267520695925,0.0792836993932724,0.2507780492305756,0.0619008019566536,0.2606430053710938,-0.4040309488773346,-0.0775633156299591,0.1145205646753311,-0.1214743182063103,-0.3885035514831543,0.5682188868522644, 0.0848095938563347,0.4607757925987244,0.2684062123298645,1.1164921522140503,-0.0280942432582378,0.0862149298191071,0.0848622322082520,-0.4978369474411011,0.0251790769398212,0.2118847966194153,0.0461068414151669,0.2502623498439789,-0.0917501077055931,-0.0029271640814841,0.0222355909645557,0.1227214559912682,
    -1.2366639375686646,-0.1242675632238388,-0.0638966038823128,-0.0840603709220886,-0.6816842555999756,0.0211999975144863,0.3353688120841980,-0.1888145655393600,0.2859028577804565,-0.1380568146705627,-0.1669169068336487,0.3581594526767731,0.5596656799316406,0.0292530041188002,-1.0165082216262817,0.0758614614605904, -0.2248649746179581,-0.1858584433794022,0.1931291669607162,0.1095272302627563,0.0454658605158329,-0.1191688999533653,-0.3401511013507843,0.1075545772910118,0.1270328313112259,0.0486923456192017,-0.1306908428668976,-0.9348922371864319,-0.1710242480039597,0.8143777847290039,-0.0176019873470068,0.1036375388503075, 0.0101770078763366,-0.2435345351696014,0.0175270028412342,0.2517490088939667,0.1766386330127716,-0.0668322667479515,0.5073105096817017,-0.3560247719287872,-0.0439787730574608,-0.0752071067690849,0.5179021954536438,0.2711521983146667,0.0989567413926125,0.1919281929731369,-0.5757446885108948,-0.5929391980171204, 0.0214101746678352,0.0842911601066589,0.1377549916505814,0.0485379621386528,0.0590259321033955,-0.4295029938220978,0.2220686525106430,0.3297069370746613,0.0654097348451614,0.1743419319391251,-0.0589838735759258,0.0274081621319056,-0.4743449389934540,0.0621431544423103,-0.1637414246797562,0.3614489734172821,
    0.2292694747447968,-1.2141432762145996,-0.7918282747268677,0.1155868768692017,-0.0365830175578594,0.1749269217252731,0.1057647764682770,-0.1062883809208870,0.4404381811618805,0.1159664690494537,-0.1324451863765717,-0.1471449583768845,0.5254024863243103,-1.2691997289657593,0.3811318576335907,0.0394803136587143, -0.0098995706066489,0.5245969891548157,0.2830598056316376,0.0482230484485626,0.8716364502906799,-0.5537565350532532,0.0995020791888237,-0.2499773800373077,1.0727146863937378,-0.3236287832260132,-0.4186016321182251,0.0129155376926064,-0.2390485256910324,-0.3645694255828857,1.0084295272827148,-0.7095028162002563, -0.2025705724954605,0.2231450825929642,-0.4335563480854034,0.3534168601036072,-0.2350310981273651,0.3486325144767761,0.3617035150527954,0.1972022950649261,-0.0546748675405979,0.4888859987258911,0.3894684314727783,-0.0222853515297174,0.4857505559921265,0.8894429206848145,-0.4691173732280731,0.2724514305591583, 0.4391224682331085,0.8643361330032349,0.1884130239486694,0.1223344802856445,0.2618192136287689,-0.0845311135053635,-0.2775871753692627,-1.4083321094512939,-0.4326162040233612,0.7569020986557007,0.2690550386905670,-0.8892859220504761,0.1454339027404785,0.5058561563491821,-0.2345112264156342,0.8058900237083435,
    0.0358536280691624,0.2139697670936584,0.2113227248191833,0.4109463393688202,-0.2365285158157349,0.0326856411993504,0.1366535574197769,-0.2538394331932068,0.2016989588737488,-0.2578065991401672,0.3202057182788849,0.0222032647579908,0.0777546465396881,-0.0208665542304516,-1.0851131677627563,-0.6998854279518127, 0.1700478345155716,0.2297196388244629,-0.4833618402481079,0.0996240079402924,-0.1889315694570541,0.1761672496795654,0.1462948620319366,0.2923406958580017,-0.3359238803386688,0.3744778633117676,-0.2049744576215744,-0.1954189389944077,-0.2054587006568909,0.3710941672325134,0.1067191660404205,0.1561787128448486, 0.1317619532346725,-0.2767507135868073,-0.1267188936471939,0.5692939758300781,-0.0459252968430519,-0.2228782773017883,-0.3707351088523865,-2.2637546062469482,0.0350272357463837,-0.3528392016887665,0.5381752252578735,-0.2900553047657013,1.1151590347290039,0.5317983031272888,0.3733488023281097,-0.4507721960544586, 0.1615882664918900,-0.5136689543724060,-0.4054824113845825,-0.8275404572486877,-0.7526857256889343,-1.5252239704132080,-0.7855256795883179,-0.6820545196533203,-0.2112442404031754,-0.8575226664543152,-2.0278198719024658,-1.6017878055572510,-0.2440661340951920,0.0581544563174248,-0.0313427895307541,-0.6162139773368835,
    0.0993663966655731,-0.4512228667736053,-0.4108710885047913,-0.2660559415817261,-0.2610236406326294,0.0654078647494316,0.0064518349245191,-0.2927757799625397,-0.4717208743095398,1.0531253814697266,0.2718173563480377,0.4143532514572144,-1.2993524074554443,-0.1813649386167526,-0.0230551846325397,0.4051765501499176, -0.3985199928283691,0.2030755579471588,-0.7506866455078125,0.2124809920787811,-0.6035780906677246,-0.3453690409660339,0.3384623229503632,-0.0958764553070068,0.6179866194725037,0.4597032368183136,0.2760338187217712,-1.1389297246932983,0.3925720453262329,0.1339164376258850,-0.1918805390596390,-0.1995658427476883, 0.6922302246093750,-0.2642220258712769,-0.4651187658309937,0.1980063170194626,-0.3298844397068024,0.6794483065605164,-0.1014709547162056,0.2460465431213379,-0.4415806829929352,-0.4588660895824432,0.2554926574230194,-0.2911030948162079,-0.1283744871616364,-0.2854122221469879,-0.3412629663944244,0.2262296676635742, 0.1365329921245575,-1.3181893825531006,0.2658943831920624,-0.7427291274070740,-0.0392524972558022,0.4941640198230743,0.0441895388066769,0.2100643813610077,-0.7776486873626709,-0.2597182393074036,0.3594698607921600,-0.2686837613582611,-0.3185628652572632,0.0007724000024609,-0.1595357209444046,-0.6243705749511719,
    -1.8026216030120850,-0.2569892704486847,0.1938270777463913,0.8208276629447937,0.5750977396965027,-0.2408271282911301,-0.2756103873252869,-0.4373533129692078,0.2594617307186127,-0.2658628225326538,-0.1990385651588440,0.2923913896083832,-0.2373039424419403,-0.0619651265442371,0.4760486185550690,-0.1269692629575729, -1.2652721405029297,0.0552254468202591,-0.9273756146430969,0.3712531328201294,-0.6454653739929199,-1.0932034254074097,0.0096948249265552,-0.0109183993190527,0.2760933935642242,-0.0359263569116592,-0.2034292966127396,-1.7372870445251465,-0.2892358005046844,-0.9836663007736206,-0.4276011884212494,0.4303996860980988, 0.7786346673965454,-0.4325326979160309,-2.0057456493377686,-0.4953165948390961,-0.4328232705593109,-0.2069887667894363,-0.4361344277858734,0.1565514355897903,-0.2338913083076477,-0.0836731791496277,-0.1361090391874313,0.0396086871623993,-0.1573173105716705,-1.0083746910095215,0.2894645929336548,0.4407689869403839, 0.1288613677024841,-0.0027535962872207,0.1393249928951263,-0.5855560302734375,0.3020651042461395,0.8804403543472290,0.6692144870758057,0.4226626157760620,0.2244559526443481,-0.1324447095394135,-0.1992880105972290,-0.1149072200059891,0.3964438736438751,0.3753385543823242,-0.0845361202955246,0.3487994074821472,
    -0.2464652359485626,-0.1965214461088181,0.4350911378860474,0.0829971209168434,0.1624555140733719,-0.0116592654958367,0.1597730070352554,0.4441004097461700,-0.2546608150005341,-0.1827246695756912,-0.1552347838878632,-0.1631460338830948,-0.3789758980274200,0.4353601932525635,0.1075954660773277,0.0257203690707684, 0.2199557423591614,0.2741145789623260,0.1079932153224945,-0.1679435670375824,-0.1591506451368332,-0.4591255486011505,-0.2110451757907867,-0.0355983413755894,-0.7269999384880066,0.1553106009960175,0.0086903013288975,0.0611360631883144,0.1663602441549301,-0.1833342015743256,0.0298071503639221,0.1946663707494736, -0.2606327533721924,-0.2114329636096954,-0.1791497021913528,-0.1743431687355042,0.1366561949253082,0.0409625545144081,-0.1700748950242996,-0.1598869860172272,0.3431192636489868,-0.2134628891944885,-0.2380660176277161,-0.2569874227046967,-0.3596051931381226,-0.3415189981460571,0.2934560179710388,-0.1845861524343491, -0.0786571353673935,0.7405440211296082,-0.3848930299282074,0.1125521436333656,-0.0197765957564116,0.4816035330295563,0.2866285741329193,0.9953201413154602,-0.0837446451187134,0.0894583910703659,-0.0648205280303955,-0.6031097173690796,0.0836932659149170,-0.0563884638249874,-0.1517031341791153,-0.6866082549095154,
    0.0601779446005821,-0.0262810587882996,0.0186865460127592,0.0856940373778343,0.2290786802768707,0.1520830839872360,-0.0615947768092155,-0.0521178580820560,0.1146088540554047,0.1425214558839798,-0.0077507528476417,-0.0134541001170874,0.4819958806037903,0.0416702367365360,-0.1453995555639267,0.2506683766841888, 0.1132276579737663,0.2682858705520630,-0.1742587089538574,-0.0748625546693802,0.1678074598312378,0.0297677982598543,0.1695783287286758,0.2162960916757584,-0.0346205011010170,-0.1331076622009277,0.0224542785435915,-0.2117916792631149,-0.0984887704253197,-0.0444783866405487,-0.4710866212844849,-0.0001960813970072, -0.3694700598716736,-0.1838472336530685,0.3496155738830566,0.2067611217498779,-0.0776327922940254,-0.0184367466717958,-0.3329316079616547,-0.4732749164104462,0.2716132104396820,0.2140014171600342,0.5112852454185486,0.2448427230119705,-0.3741653561592102,-0.2023834139108658,-0.3530949354171753,0.0769180208444595, 0.0553428120911121,0.0112427072599530,-0.0847969278693199,0.1109190806746483,-0.0610499083995819,-0.5997430682182312,-0.2264337241649628,-0.1409904360771179,-0.1985125839710236,-0.2221200913190842,-1.0648716688156128,-0.4163964688777924,-0.1052646189928055,0.0039945417083800,0.1051650121808052,0.4032644629478455,
    0.2780408263206482,0.0558258965611458,0.1959806382656097,0.0717019811272621,0.3932218253612518,-0.1129303947091103,-0.0589516721665859,-0.0556182898581028,0.2984576523303986,-0.0670299455523491,-0.2801078855991364,0.1596800535917282,-0.1409342139959335,0.2729198038578033,-0.1201646178960800,0.4528791308403015, -0.1555234193801880,-0.0828706249594688,-0.1912363618612289,0.1620578020811081,-0.3606793582439423,-0.0349354296922684,-0.2044470459222794,0.0334139466285706,0.1724336296319962,0.0894322842359543,0.2083017528057098,-0.0368140451610088,0.4161659479141235,-0.0697307586669922,-0.4491049051284790,0.0993034094572067, -0.1170189902186394,0.0010590845486149,-0.1661501824855804,-0.0522682033479214,0.3412275016307831,0.1279792189598083,0.0284136831760406,0.1697650700807571,0.3357614278793335,0.7338716387748718,-0.3467626571655273,0.0816325172781944,-0.6595379114151001,0.8031151294708252,0.7068416476249695,-0.0186694674193859, -0.0549625642597675,0.2642911374568939,0.1012139692902565,0.5620413422584534,0.0270877070724964,0.7587312459945679,0.2847990393638611,0.0746238976716995,-0.2538229525089264,0.0737080946564674,0.1989853531122208,-0.1854143142700195,0.0905756205320358,-0.0034877688158303,0.2049116939306259,0.1118113026022911,
    -0.6269459724426270,-0.1951960772275925,-0.1237453296780586,-0.3209810256958008,-0.2524183988571167,0.0555423237383366,0.0313428603112698,0.4011616408824921,0.4591157436370850,-0.2171407490968704,-0.0918207690119743,0.1513191312551498,0.1225124374032021,-0.1379261910915375,0.5561662316322327,-0.0582088977098465, -0.4247262179851532,0.0401024036109447,-0.8932880163192749,0.1309082806110382,0.1165322735905647,-0.2024432718753815,-0.2806898355484009,-0.1073460057377815,0.2762084305286407,0.0337851531803608,-0.0332257226109505,-0.9074558019638062,0.1214121431112289,0.2199228107929230,0.0809353813529015,-0.3408839702606201, -0.0371322967112064,-0.0416017994284630,-1.5134570598602295,0.3973069489002228,0.1695444285869598,-0.2548598945140839,-0.3993668854236603,0.0157439801841974,-0.0962588861584663,0.1000370979309082,0.1322117149829865,-0.2238159179687500,0.1224724128842354,0.0515935420989990,0.0394492931663990,-0.1910110414028168, 0.0620775409042835,-1.0544761419296265,-0.1784563362598419,-1.3128039836883545,-0.3024136126041412,0.1603721976280212,0.0472948811948299,0.3136249482631683,0.1110036596655846,0.1182408109307289,0.2459941655397415,0.2659879922866821,-0.0921494588255882,-0.2898168563842773,0.4746473729610443,0.2203644216060638,
    -0.0103614265099168,0.1064206212759018,0.0044324072077870,-0.0498837791383266,-0.1029046848416328,-0.1124952435493469,0.3005095422267914,0.0954117998480797,0.0187173634767532,-0.0357246883213520,-0.0591755211353302,0.0792802423238754,-0.2588298320770264,0.0502512529492378,-0.1138401329517365,0.0681344494223595, 0.1585509479045868,-0.0015930858207867,0.0842438936233521,-0.2107660621404648,0.1856487989425659,-0.0642506703734398,0.2907436192035675,-0.3032717108726501,0.0917628034949303,0.0506893806159496,0.1031387597322464,0.0565165989100933,0.0997904986143112,0.0577652193605900,-0.0747265517711639,-0.0649152845144272, 0.0356437638401985,0.0797662883996964,-0.1659288853406906,-0.0520581677556038,-0.0494276285171509,-0.0518301613628864,0.1711712628602982,0.0965226963162422,-0.0005425000563264,0.1045485958456993,-0.0365297719836235,-0.1590082645416260,-0.0859663709998131,-0.1352438032627106,0.0784342736005783,0.1703027486801147, 0.0851607173681259,-0.0877667739987373,-0.0851293578743935,-0.0500702820718288,0.1058257296681404,0.0316769406199455,0.2213420420885086,-0.0809775814414024,-0.0448888428509235,-0.0990452021360397,0.1604142785072327,0.0220809634774923,0.0951853767037392,0.0644463598728180,-0.1541848480701447,-0.1624840945005417,
    -0.0151157425716519,-0.0190397184342146,-0.0372078493237495,-0.2319339364767075,-0.1283889710903168,0.1520099043846130,0.0389951355755329,-0.1068383604288101,0.2224246561527252,-0.0525032579898834,-0.1955914497375488,0.0311043057590723,0.0468035005033016,-0.0704236626625061,0.1935589462518692,0.2603686451911926, 0.2626008093357086,0.1197158172726631,-0.1344151645898819,-0.1174648404121399,0.0220675617456436,-0.1498521119356155,0.3061137497425079,0.3618146181106567,-0.0230843406170607,-0.1688072234392166,0.1088708788156509,0.1422227770090103,-0.0173599142581224,-0.3259245753288269,0.1437130719423294,-0.6263312101364136, -0.1663412302732468,-0.1406874060630798,0.0847617834806442,0.1539542973041534,0.0494101233780384,0.1009209975600243,-0.0964964330196381,-0.0181552991271019,0.0122514721006155,0.0347808599472046,0.2059860974550247,0.2783985137939453,-0.0803889632225037,0.0004753119719680,-0.0327553376555443,0.1853214502334595, 0.0765360370278358,-0.0521712265908718,0.1216204017400742,-0.1211962923407555,0.0426635928452015,0.1990506947040558,-0.1805817782878876,-0.1967263370752335,0.0156471878290176,0.1564106047153473,-0.3082704544067383,0.0260311663150787,0.1531004160642624,0.1541208326816559,-0.2215839326381683,-0.1853209286928177,
    0.0126860588788986,-0.0868358984589577,-0.4745580255985260,-0.2035589814186096,-0.1700424998998642,-0.0949600711464882,0.0120264999568462,0.1276403367519379,-0.2078879028558731,0.1121738329529762,-0.0466682687401772,0.1033670455217361,-0.2346448153257370,-0.0799976363778114,-0.0709911584854126,-0.1218869909644127, 0.8966878652572632,0.6192120313644409,0.3809874355792999,-0.2862542271614075,0.3100839555263519,0.1323206424713135,-0.2084875255823135,-0.1495345085859299,-0.0009964125929400,-0.1045321747660637,0.1079871430993080,-0.2697117328643799,-0.6550723314285278,-0.1989009231328964,0.0876662209630013,-0.1725715994834900, -0.0743720009922981,-0.2610161304473877,0.5356130599975586,-0.3966916501522064,-0.0125076379626989,-0.1470142453908920,0.2896857261657715,-0.0365894101560116,-0.2098930627107620,-0.1303879320621490,0.0120386518537998,-0.0038113442715257,-0.0256451237946749,-0.0810004174709320,-0.2411728352308273,-0.2542409598827362, -0.4092793166637421,-0.1786263138055801,-1.0398471355438232,-0.0548245050013065,0.0134868388995528,-0.0484039820730686,0.0133654018864036,-0.0335070490837097,0.0478086136281490,-0.0940235927700996,-0.1043343693017960,0.1087992265820503,-0.1462711542844772,-0.0004148337757215,0.0539971292018890,0.2658897936344147,
    -0.2354139536619186,-0.1116777956485748,0.0049784630537033,-0.1693782955408096,-0.0507039688527584,0.1773714870214462,-0.0482218004763126,-0.1167996749281883,0.0237841084599495,-0.1155622974038124,-0.1159178167581558,0.3854462802410126,-0.3941305577754974,0.2394451797008514,0.3238219320774078,0.0014092521741986, 0.0302441231906414,0.0575724877417088,-0.0206313468515873,0.0716052874922752,-0.0387099459767342,0.1461518257856369,0.1273703426122665,0.2287997603416443,0.2364941090345383,0.0387998558580875,0.0161328390240669,-0.8493894934654236,0.1975986808538437,-0.0465254597365856,0.0683192536234856,0.0422352999448776, 0.0193864386528730,-0.0326576381921768,0.3989048898220062,-0.0198591463267803,0.1085906699299812,0.0338021963834763,-0.0971035957336426,0.0050497879274189,-0.1370925158262253,-0.0774239525198936,0.1631315499544144,0.1223544925451279,-0.0645496845245361,-0.0864853858947754,0.3937778174877167,0.1476654112339020, 0.0425593033432961,0.0479924529790878,0.0173870436847210,0.0248198006302118,0.2606982886791229,-0.1531763076782227,0.0411804877221584,0.1319887340068817,-0.0312861613929272,0.1686800569295883,0.2791180312633514,0.1954357028007507,0.1792061477899551,-0.0111350296065211,-0.0260985679924488,-0.1001048907637596,
    -0.2464387714862823,0.1205305680632591,0.1269352436065674,-0.1275891512632370,-0.3302577733993530,0.1696057468652725,0.1359877735376358,-0.3148256242275238,0.4476270377635956,-0.1358164399862289,-0.0841695889830589,-0.0199698004871607,0.0205126926302910,0.0022398873697966,0.4874860346317291,-0.0607070475816727, -0.0052961427718401,-0.4681515991687775,-0.2468856275081635,-0.2217533290386200,0.4512024521827698,0.2193256169557571,-0.3743147253990173,-0.0770011395215988,0.0936779528856277,0.3261581063270569,-0.1048854514956474,-0.1053025498986244,0.2084801942110062,-0.6152391433715820,-0.0259869042783976,0.4199893772602081, -0.0850677788257599,0.1891340166330338,0.0104322955012321,-0.0063858907669783,-0.2702963054180145,-0.2028497308492661,0.0270093400031328,0.0116467066109180,0.1151547506451607,0.1716411262750626,0.1627610325813293,0.0674126893281937,0.1221942231059074,-0.0033034309744835,0.1244427114725113,0.2025145143270493, -0.0528698414564133,-0.1166891604661942,0.5551736354827881,0.2695288658142090,0.0407251901924610,-0.2939525246620178,-0.0336666479706764,-1.0961725711822510,-0.0319250635802746,-0.3743579387664795,-0.0520730391144753,0.0519586354494095,0.1764017492532730,-0.2331475764513016,-0.1462134271860123,0.1432121694087982,
    0.1858306527137756,0.0083033582195640,0.1324605345726013,0.0372855141758919,-0.0078456457704306,0.1660620719194412,-0.0637236535549164,0.2014609724283218,0.4300786852836609,0.1612272113561630,0.0514536760747433,0.0771194249391556,-0.2575550079345703,0.3540203273296356,-0.3356770873069763,-0.0399121195077896, 0.0717565193772316,-0.0764388814568520,0.0495741851627827,0.2797041535377502,-1.1300401687622070,-0.4377108514308929,0.0646534562110901,0.2920315563678741,-0.3411610424518585,-0.5074217319488525,0.1886449009180069,0.3315993845462799,-0.3209213316440582,-0.0543484762310982,-0.3206327855587006,0.0210389886051416, 0.2462640553712845,-0.1088083162903786,0.2434702515602112,0.1010581701993942,0.1479421705007553,-0.3044372200965881,-0.2305502146482468,0.2986902594566345,0.0143620530143380,-0.0398829840123653,0.1642904579639435,0.0242485329508781,-0.2690134942531586,-0.1204702258110046,0.1570217013359070,0.3758469521999359, 0.0119999432936311,-0.1289656758308411,0.0478551276028156,0.2568470835685730,0.1178547069430351,-0.1668484956026077,-0.9837985634803772,-1.4642825126647949,0.0413583256304264,0.3189571201801300,-1.5804446935653687,-0.1131321266293526,-0.0093179736286402,-0.1488074213266373,0.0374137312173843,-0.3089096546173096,
    -0.0080892695114017,0.0221379846334457,0.2764858603477478,-0.2595620453357697,-0.0397761687636375,-0.1216260790824890,-0.0573731213808060,0.2372993528842926,-0.1432125121355057,-0.5413292050361633,-0.0678097829222679,-0.2903990447521210,0.2452405989170074,-0.3153949975967407,0.1654229462146759,-0.1622928082942963, -0.1979572474956512,-0.0632583275437355,-0.4856068491935730,0.1676068902015686,-0.5600831508636475,-0.1202512308955193,-0.0445956885814667,0.0482101030647755,-0.1620947122573853,-0.0818477347493172,-0.1981365680694580,0.1415799558162689,-0.0756353586912155,0.0583797506988049,0.1974385082721710,-0.1373029053211212, 0.1181040033698082,0.2012425661087036,-0.3805056810379028,-0.0198026187717915,0.1658803671598434,-0.3287129998207092,0.1628410816192627,-0.1718318313360214,0.1190978884696960,0.0350110791623592,0.1083318665623665,-0.1351943016052246,-0.1004481464624405,-0.1212975233793259,0.4710303843021393,-0.3839772343635559, -0.0756717398762703,-0.2468325048685074,-0.6953576207160950,-0.2344296574592590,-0.0589563548564911,-0.4153109192848206,-0.3846728801727295,-0.1493542641401291,0.1280890107154846,0.2705833613872528,-0.0328640304505825,0.1655709445476532,-0.3094335496425629,0.4058965146541595,-0.3606045246124268,-1.0192391872406006,
    -0.7128953933715820,-0.0962422788143158,-0.0057149380445480,-0.0531997680664062,0.0525436624884605,-0.1268418133258820,-0.2795442938804626,-0.5724524259567261,0.0006078563164920,-0.2497283667325974,-0.1933567374944687,0.4645680189132690,0.3472652435302734,0.1964031159877777,0.2313381582498550,0.2837454378604889, -0.5359997153282166,-0.1070090979337692,-0.7301470041275024,0.1762728691101074,-0.6566639542579651,0.2990061342716217,0.2208547592163086,-0.0450050048530102,0.0980522334575653,0.1801502704620361,-0.4076928794384003,-1.2573653459548950,0.1263825148344040,0.1112871095538139,0.4319030046463013,0.1282994598150253, 0.1497410088777542,-0.0737175792455673,-0.0960366353392601,0.3663837909698486,-0.0378313288092613,0.6917047500610352,-0.3301876187324524,-0.0746291801333427,-0.3589491844177246,-0.0592223517596722,0.3342858254909515,0.5525574088096619,0.1417399495840073,0.3660384416580200,-0.0745705887675285,0.2737504541873932, -0.0098453527316451,0.1140447333455086,-0.1841484457254410,-0.2514600753784180,0.0395885035395622,0.1393005400896072,-0.0372894033789635,0.1559109091758728,0.1566219180822372,0.0949340760707855,0.0525822527706623,0.0569676756858826,0.3861540853977203,-0.2310629487037659,-0.5840637087821960,0.1198716834187508,
    -0.1675564050674438,-0.0347057506442070,0.1618779450654984,-0.0262748319655657,-0.1298038065433502,0.1094805225729942,-0.1897681355476379,-0.1184151172637939,0.0496270991861820,0.0358068756759167,0.2143530696630478,0.1277982294559479,-0.0715151503682137,0.1470482498407364,-0.3861226141452789,0.0808363407850266, 0.1367196589708328,-0.0858871415257454,0.1706304997205734,-0.1367995291948318,0.2148190736770630,-0.0996300205588341,-0.1450798809528351,0.1082163304090500,-0.0944774448871613,-0.2269499897956848,0.0948563739657402,-0.0500092245638371,0.0794633850455284,0.2137039154767990,0.1238996013998985,-0.1855047345161438, -0.0122695891186595,0.0004006088129245,0.1694500148296356,-0.1337014138698578,0.1112496927380562,0.0193866044282913,-0.0723011195659637,-0.2387119680643082,-0.0394609272480011,0.1450145393610001,-0.0658928006887436,0.0773221328854561,-0.0764444395899773,0.0649876445531845,0.1218700110912323,-0.1087826937437057, -0.0312633328139782,0.1221009939908981,0.0490771941840649,0.1307824254035950,0.0026511284522712,0.0522611476480961,-0.2454904317855835,0.3447606563568115,0.1125815436244011,0.1784543991088867,-0.1458479613065720,0.1307719051837921,-0.0859647989273071,-0.1062273979187012,0.0762439370155334,-0.5809430480003357,
    0.0118170045316219,-0.0023983977735043,0.1493850946426392,-0.0050738225691020,0.2681467533111572,0.0392772033810616,0.0118275880813599,-0.1022276505827904,-0.1248779222369194,-0.0419010557234287,0.1021109744906425,0.0371405221521854,-0.0142941325902939,-0.1739082187414169,0.6115337014198303,-0.1196677163243294, 0.1468653380870819,0.2203138470649719,0.0089047849178314,0.1672239899635315,0.2132782340049744,0.0689797177910805,0.0564910992980003,0.3562100231647491,0.1239062324166298,0.0197493564337492,-0.1326925009489059,0.3012989759445190,0.0995157957077026,-0.1268837302923203,0.0080172680318356,0.0663664638996124, -0.1999480426311493,0.0325779207050800,0.2103981524705887,-0.0589552037417889,-0.1954402774572372,0.0449886769056320,-0.0794236883521080,0.1965170204639435,0.1154569312930107,-0.0225361231714487,0.2604443430900574,0.2339158207178116,0.1346149444580078,0.0848178267478943,0.1504266113042831,-0.2144249975681305, 0.0784279480576515,0.1144121512770653,0.0557461641728878,0.1404601186513901,0.1195197850465775,-0.4616511166095734,-0.5762550234794617,-0.3628326952457428,0.0425950735807419,-0.0344227291643620,-0.4324186742305756,-0.3131524026393890,0.1285855025053024,0.0882739648222923,0.2683703303337097,0.6026543974876404,
    0.0779941231012344,-0.0770352482795715,0.0193368699401617,-0.0559411197900772,-0.1565172076225281,0.0712126716971397,0.0383006855845451,-0.1069656834006310,0.1052486002445221,0.0751609280705452,-0.1247894465923309,-0.0541738756000996,0.2087567895650864,0.0559564754366875,-0.1487754136323929,-0.1869612187147141, -0.1918760091066360,-0.1808254569768906,-0.0810985267162323,-0.0625780373811722,0.1180883720517159,0.3198001384735107,-0.2037013471126556,0.2054087221622467,0.1504595875740051,-0.1144290566444397,-0.0322580002248287,0.0223026927560568,-0.0114800371229649,0.0208150185644627,0.3777088820934296,-0.2246704548597336, 0.0642132386565208,0.0014921393012628,0.0408631376922131,0.1187269687652588,0.0656204000115395,0.0404579192399979,-0.1128652244806290,0.0445059277117252,0.1265292614698410,0.0000120651020552,0.0173210501670837,-0.1302528381347656,-0.2161920368671417,0.0762298554182053,0.1235055774450302,-0.2168745100498199, -0.0201233420521021,-0.1618463397026062,0.0431931726634502,-0.0927324518561363,0.0246268808841705,-0.2630546689033508,-0.1233434677124023,-0.0096280016005039,-0.0696128308773041,0.0190708357840776,-0.2785436809062958,0.0119424527511001,-0.2170328050851822,-0.0603316351771355,0.4114154875278473,-0.1651937067508698,
