//MIT License
//
//Copyright (c) 2016 Drake Levy
//
//Permission is hereby granted, free of charge, to any person obtaining a copy
//of this software and associated documentation files (the "Software"), to deal
//in the Software without restriction, including without limitation the rights
//to use, copy, modify, merge, publish, distribute, sublicense, and/or sell
//copies of the Software, and to permit persons to whom the Software is
//furnished to do so, subject to the following conditions:
//
//The above copyright notice and this permission notice shall be included in all
//copies or substantial portions of the Software.
//
//THE SOFTWARE IS PROVIDED "AS IS", WITHOUT WARRANTY OF ANY KIND, EXPRESS OR
//IMPLIED, INCLUDING BUT NOT LIMITED TO THE WARRANTIES OF MERCHANTABILITY,
//FITNESS FOR A PARTICULAR PURPOSE AND NONINFRINGEMENT. IN NO EVENT SHALL THE
//AUTHORS OR COPYRIGHT HOLDERS BE LIABLE FOR ANY CLAIM, DAMAGES OR OTHER
//LIABILITY, WHETHER IN AN ACTION OF CONTRACT, TORT OR OTHERWISE, ARISING FROM,
//OUT OF OR IN CONNECTION WITH THE SOFTWARE OR THE USE OR OTHER DEALINGS IN THE
//SOFTWARE.

#define CONST_SCALING   1    
    
static const float fx2d_paramFeatureBias[16] = {
    0.0147628486156464,-0.1012328118085861,0.0125125292688608,-0.0872502326965332, 0.0029151507187635,-0.0613294094800949,0.0008914369973354,-0.0767232030630112, -0.1264328211545944,-0.0279394891113043,-0.0064888978376985,0.0420002378523350, 0.0070585198700428,0.0109722968190908,-0.0186138395220041,-0.0247610080987215
};

static const float fx2d_paramFeatureWeights[25*4*4] = {
    0.0258867852389812,-0.0340782813727856,0.0420042425394058,0.0325760319828987, 0.0135127231478691,-0.0165634769946337,0.0435598008334637,-0.0149057637900114, -0.0131980935111642,0.0266927909106016,0.0695492923259735,-0.0063398526981473, -0.0427159443497658,0.0345138609409332,-0.0043228855356574,0.0263762231916189, 
    -0.0042444774881005,-0.0015453429659829,0.0189028624445200,-0.0475430712103844, -0.0228847339749336,0.0010997278150171,0.0216255430132151,0.0310201775282621, 0.0159970503300428,0.0148094780743122,0.0719174891710281,0.0041566533036530, -0.0215423200279474,-0.0201900992542505,-0.0263530425727367,-0.0075583830475807, 
    0.0567907728254795,0.0873767733573914,0.0567022338509560,-0.0621563792228699, 0.0263330750167370,0.1414172500371933,0.0920841321349144,-0.0657699853181839, 0.0399939678609371,0.0506784133613110,0.0477518960833549,-0.0844549685716629, -0.0208488702774048,-0.0263796150684357,0.0048027029260993,-0.0180702358484268, 
    -0.0306649338454008,-0.0714163482189178,0.0473429188132286,0.1008332893252373, 0.0158146508038044,-0.0184755995869637,0.0141742452979088,-0.0165870897471905, -0.0162003915756941,0.0667246878147125,0.0661090239882469,0.0736296772956848, -0.0033123074099422,-0.0459871888160706,0.0074687330052257,-0.0531630516052246, 
    0.0152249755337834,0.0639158412814140,-0.0300818998366594,-0.0612861253321171, -0.0132065815851092,-0.0751400440931320,-0.0428155101835728,0.0052004638127983, 0.0187468398362398,0.0019713738001883,0.0874735563993454,-0.0255339350551367, 0.0712261721491814,0.0599316917359829,-0.0117431124672294,-0.0091551328077912, 
    0.0408086255192757,0.0875807404518127,0.0317574664950371,0.1191576942801476, 0.0716190189123154,0.0045931492932141,0.0975653976202011,-0.0400408394634724, -0.0850194543600082,0.0163485687226057,-0.1212844401597977,-0.0479937046766281, 0.1062309294939041,0.0316648185253143,0.0022315878886729,-0.0494135320186615, 
    -0.1050408855080605,0.0589458979666233,0.0660466924309731,-0.0352053083479404, 0.0715559795498848,0.1788620352745056,-0.1724022328853607,-0.0984080582857132, 0.0732808113098145,-0.0097687849774957,0.0417790748178959,0.0896924287080765, 0.0869664698839188,-0.0889192670583725,-0.0302817411720753,0.0871973037719727, 
    -0.3237755596637726,0.1804163157939911,-0.0379739888012409,0.1372951567173004, 0.1811059415340424,0.0456536896526814,-0.1703828871250153,0.0498118251562119, 0.1258524060249329,-0.3104827105998993,-0.0218985043466091,0.1121514812111855, -0.1390235275030136,0.0109816743060946,0.1826847791671753,0.0588588342070580, 
    -0.0318203978240490,0.0038085589185357,-0.1028131842613220,0.0520160682499409, -0.0097249904647470,0.0977436900138855,0.1316085010766983,-0.0342273637652397, 0.0074320179410279,-0.0256812535226345,0.0645651295781136,-0.1755836457014084, -0.0808288902044296,-0.0446107201278210,0.0685509145259857,0.1322640776634216, 
    -0.0142179057002068,-0.0404687039554119,0.0323907770216465,0.0430089049041271, 0.0428396761417389,0.0155571792274714,-0.0170442368835211,0.0395168215036392, -0.0393245257437229,-0.0383107811212540,0.1041718125343323,0.0366581790149212, -0.0431778207421303,-0.0715203061699867,0.0272494368255138,-0.0406388416886330, 
    -0.0298593845218420,0.0694253444671631,0.0555122569203377,0.1005806028842926, -0.1028733700513840,-0.0809405446052551,0.1166266947984695,-0.0673500820994377, 0.0145607199519873,0.0456735864281654,-0.1359732300043106,0.0837914943695068, -0.1043576672673225,0.0435773134231567,-0.0156023483723402,0.0003633489250205, 
    -0.0350390858948231,-0.0044562439434230,-0.0801842734217644,0.2329425364732742, 0.0798736959695816,0.1202776357531548,0.0907938107848167,0.1063688993453979, -0.0148519007489085,-0.0929340571165085,0.0423509478569031,0.2566445469856262, 0.3914019167423248,0.1128338500857353,-0.3622477650642395,-0.2134702056646347, 
    0.4449002444744110,0.1544224023818970,-0.1345878094434738,0.2600763738155365, -0.1435703784227371,0.2803598642349243,-0.3220657706260681,0.4127312004566193, 0.1964939236640930,0.3518604338169098,-0.0973007753491402,0.1974137276411057, -0.2566887140274048,0.4643316566944122,0.4298384189605713,0.2023355811834335, 
    -0.0495627783238888,-0.1202057301998138,0.3168737590312958,0.1082767471671104, 0.0352024137973785,-0.0811312496662140,-0.1050737351179123,0.1529482305049896, 0.1888202577829361,0.2577683329582214,-0.1013639196753502,-0.2581922709941864, -0.0870738476514816,-0.2335397005081177,-0.0682953223586082,0.1927117854356766, 
    -0.0142364865168929,-0.0569389946758747,-0.0300011597573757,-0.0413980036973953, -0.0548246912658215,-0.0066257156431675,-0.0384114645421505,0.0332037955522537, 0.0241410620510578,-0.0072364830411971,0.0341953933238983,0.0454998016357422, 0.1308144330978394,0.0925729721784592,0.0465335994958878,-0.1193709373474121, 
    -0.0005151761579327,-0.0952512174844742,-0.0208353623747826,0.0199232511222363, -0.0205884110182524,-0.1069750636816025,-0.0073009179905057,0.0592166967689991, -0.0374109223484993,-0.0471867136657238,0.0710652917623520,0.0134411044418812, -0.0574972666800022,-0.0618521086871624,0.0282293409109116,0.0364051461219788, 
    0.0601653940975666,0.0493328794836998,-0.1787780970335007,-0.0561225190758705, 0.0253312829881907,0.0051871533505619,0.1640746146440506,0.0306565817445517, 0.1920984536409378,-0.0478645265102386,-0.0647146105766296,0.0222374666482210, 0.0559999272227287,-0.1199548989534378,0.0019089960260317,0.0112631628289819, 
    0.2522509992122650,-0.0372882746160030,0.0964855477213860,0.0540010221302509, 0.0892853885889053,-0.1487601995468140,0.2865480482578278,0.2875403165817261, 0.0602415762841702,-0.0288685746490955,0.0075958576053381,-0.2160810977220535, 0.0438338480889797,-0.0732697844505310,-0.2594016492366791,-0.0785673633217812, 
    -0.1415692716836929,-0.0229692179709673,0.0637697577476501,-0.1182228699326515, -0.0835615247488022,-0.0581778027117252,-0.0550909973680973,0.1425815075635910, 0.0850555971264839,-0.0782011076807976,-0.0114041855558753,-0.1209100186824799, -0.0346798598766327,-0.1528525501489639,0.1528349220752716,-0.1032024696469307, 
    0.0687273889780045,-0.0198110770434141,-0.0516268573701382,0.0656097158789635, 0.0309277195483446,-0.0506685487926006,-0.0266683306545019,-0.0472095124423504, -0.0049744024872780,-0.0065365592017770,-0.0089643299579620,-0.0742740705609322, 0.0561404302716255,0.0303718857467175,-0.0542364232242107,0.0132365953177214, 
    -0.0328949801623821,0.0751283690333366,0.0083597749471664,0.0140956267714500, -0.0409559160470963,0.0094648934900761,0.0351537279784679,-0.0076995193958282, -0.0137028237804770,0.0186147168278694,-0.0370406880974770,0.0295204035937786, -0.0114848464727402,0.0516396202147007,-0.0230368301272392,-0.0116722676903009, 
    0.0248807389289141,-0.0190096721053123,0.0093385083600879,-0.0304660033434629, 0.0409245006740093,0.1342664659023285,-0.1063540428876877,-0.0468707382678986, -0.0895456820726395,-0.0375148542225361,-0.0313744619488716,-0.1119082570075989, 0.0216846000403166,-0.0487921759486198,-0.0266283787786961,-0.0552150383591652, 
    -0.1160471588373184,0.0223725475370884,-0.2164965867996216,-0.0070583499036729, -0.1835696250200272,-0.0999113172292709,-0.0240161959081888,0.0508222617208958, 0.0242840964347124,-0.0231526307761669,-0.0532953739166260,0.0544772148132324, -0.1205942556262016,0.0671967938542366,-0.0458866842091084,0.0994790792465210, 
    -0.0276862345635891,-0.0283980723470449,0.0453952662646770,0.0049119470641017, 0.0175041966140270,-0.0365947335958481,0.0317368693649769,0.0590598061680794, -0.0712804645299911,-0.0538538359105587,-0.0336124263703823,-0.0369212552905083, -0.0450517013669014,-0.0236119553446770,-0.0031007658690214,0.0068094953894615, 
    -0.0414730980992317,0.0231062546372414,-0.0347512997686863,-0.0328228026628494, -0.0800161138176918,-0.0124522168189287,-0.0041967704892159,0.0315603762865067, -0.0017276481958106,0.0138095710426569,0.0136405434459448,0.0244382321834564, 0.0447798296809196,0.0324511975049973,0.0374569594860077,-0.0123012084513903
};


static const float fx2d_paramModel1Bias[16] = {
    0.0538579821586609,0.0207305960357189,0.0254634171724319,0.0153640825301409, 0.0050486661493778,-0.0228962972760201,-0.0334742926061153,-0.0749474465847015, 0.0511174127459526,0.0359574593603611,-0.0185840297490358,0.0512145012617111, -0.4677113592624664,0.0596643872559071,-0.1394357085227966,-0.0474149025976658
};


static const float fx2d_paramModel1Weights[36*16*4] = {
    0.0942513421177864,0.0891742855310440,0.1703276932239532,0.0523716993629932,0.1674145758152008,-0.0544738620519638,-0.1198973059654236,-0.0423433668911457,0.0515154302120209,-0.0596617907285690,0.2768746614456177,0.3570924103260040,-0.2002887129783630,-0.1301720142364502,0.1128292605280876,0.0972013026475906, -0.0636506080627441,0.0414536744356155,-0.0601340085268021,-0.1492895781993866,0.0266887508332729,0.1290355175733566,-0.1096160188317299,-0.0060973335057497,-0.1082219034433365,-0.2484298050403595,-0.0492997542023659,-0.1507269591093063,-0.0063208816573024,0.0278978366404772,0.0559392459690571,-0.0855900421738625, 0.0578461475670338,0.2828919589519501,-0.1346452981233597,0.0320160463452339,-0.0698082149028778,0.1168579459190369,0.1400541961193085,0.0388100557029247,0.0376713834702969,0.0375407524406910,0.1184962242841721,0.0882366225123405,0.0020162458531559,-0.0868167132139206,0.0034549718257040,-0.0163146443665028, 0.0283560287207365,0.1632403135299683,0.1545499116182327,-0.1395063996315002,-0.0688662007451057,-0.0736728757619858,-0.1194026470184326,0.0635547265410423,0.1496663391590118,-0.2046299278736115,-0.1990851163864136,0.1986444592475891,0.0938748717308044,0.0851655229926109,0.0643394067883492,0.0175190437585115, 
    0.0506789609789848,0.2283374667167664,0.3002701997756958,0.0719720944762230,0.2141722440719604,-0.1343615055084229,0.1546344310045242,0.0621918700635433,-0.0544323623180389,-0.0221508406102657,0.4773038625717163,-0.0141492532566190,-0.0967316552996635,0.0168843884021044,0.0570617616176605,-0.1742728203535080, -0.0479767583310604,-0.1680374741554260,-0.0433681309223175,0.0709083005785942,-0.2127597928047180,0.0669720545411110,-0.0468601882457733,0.0844738036394119,0.0361499190330505,0.2795697748661041,-0.0900071188807487,0.0771756023168564,-0.0945145860314369,0.0329340286552906,-0.1299255639314651,-0.0251025389879942, 0.1800664067268372,-0.0640114471316338,0.2431817501783371,0.0366823226213455,-0.0444068312644958,-0.0690090730786324,0.0584501102566719,-0.1308096647262573,-0.0052478332072496,-0.1090428233146667,-0.0908301025629044,-0.0933984592556953,-0.0864761248230934,0.1372670531272888,0.0407580547034740,0.0705780163407326, -0.1706869602203369,0.0189472753554583,-0.1184043362736702,0.0998171344399452,-0.1032890230417252,0.1420563012361526,-0.0668720826506615,0.0394843854010105,-0.0842913612723351,0.1660422533750534,-0.5172500014305115,0.2054497301578522,-0.0657985284924507,0.1270816773176193,0.1796167194843292,0.0053847674280405, 
    0.1996528208255768,0.0715565979480743,-0.0198881570249796,-0.2097080498933792,0.1386303305625916,-0.0629681572318077,-0.0573015734553337,0.1730632334947586,-0.0319919139146805,0.0613489709794521,0.0009632866713218,0.0963142737746239,0.0922120437026024,-0.1362144947052002,-0.1248387992382050,-0.0438973791897297, 0.1168580055236816,-0.1255342066287994,-0.0880676284432411,0.1660774797201157,-0.2297494858503342,0.0064496542327106,-0.0535941347479820,-0.2143118381500244,0.2292995154857635,0.1740189641714096,0.0004259505367372,-0.0690135732293129,0.1331175416707993,0.1003144457936287,-0.0844909623265266,0.0122939394786954, 0.1828511208295822,0.0576393343508244,0.0217101480811834,-0.0089030526578426,-0.0623153559863567,-0.1101517006754875,-0.0719603896141052,-0.1372530609369278,-0.1984188556671143,-0.1293830275535583,-0.0651546716690063,-0.0637928247451782,-0.1048893108963966,0.0154370125383139,0.0358166024088860,-0.3106870949268341, 0.1217580363154411,0.1042716652154922,-0.1231716424226761,-0.1094131618738174,-0.0445660017430782,-0.0655702874064445,0.0594377182424068,-0.1643417626619339,-0.0057018632069230,-0.2968985736370087,-0.0090959724038839,0.1444288939237595,0.0278254449367523,0.0531919300556183,-0.0797978714108467,0.1580917537212372, 
    0.0729181915521622,-0.0412426479160786,-0.0903936550021172,-0.0877909436821938,-0.0501929707825184,-0.1361309438943863,-0.1435612738132477,-0.3544941246509552,0.1188186258077621,0.0854843929409981,-0.1572271734476089,0.1614757478237152,-0.0394551232457161,0.0561030209064484,0.1981999427080154,0.1012751534581184, 0.1027175262570381,-0.0609552152454853,0.0520542748272419,0.0642495974898338,0.1000228375196457,-0.1185205951333046,-0.0579122789204121,-0.1555659025907516,-0.0605787895619869,-0.2131439894437790,0.1039092391729355,0.2101044952869415,0.1405750513076782,0.0517179183661938,0.0021876082755625,-0.3164139688014984, 0.0981069579720497,-0.1049205511808395,-0.2421268373727798,0.0293983612209558,-0.2442162781953812,0.2212668210268021,0.2120037823915482,-0.0813540369272232,0.0450910143554211,-0.3425211608409882,-0.1026159673929214,-0.0506544224917889,0.0712244138121605,0.1318957358598709,0.0610611140727997,-0.0272802803665400, 0.1023867651820183,0.0782632082700729,0.1376877725124359,-0.2557797431945801,-0.0860542878508568,0.1032235845923424,-0.0648632198572159,0.1306759864091873,-0.0739438682794571,-0.0179721694439650,-0.0082308109849691,0.1747244745492935,-0.1365087479352951,-0.0927051901817322,0.0143458470702171,0.1506867408752441, 
    -0.1364078372716904,-0.0915576890110970,0.0312875770032406,-0.0373064279556274,-0.1864551603794098,0.1270632743835449,0.0160129573196173,-0.2269953936338425,-0.1248846203088760,0.0047860695049167,0.1067357808351517,0.0389528647065163,0.0046090064570308,0.1194815561175346,0.0107140550389886,0.1202540248632431, 0.2074049115180969,-0.0506212897598743,0.1249784007668495,0.1202733814716339,-0.0585046447813511,-0.1000120416283607,0.1991082876920700,-0.1943191587924957,-0.1808652281761169,0.0442306883633137,-0.1876850426197052,-0.0544150769710541,-0.0482590310275555,-0.1091798990964890,-0.1555807590484619,0.0641228109598160, 0.0757116675376892,0.0171789843589067,0.1280157119035721,0.1780004650354385,0.1940336227416992,0.0905117467045784,0.1280143857002258,-0.0075025563128293,-0.0081007732078433,0.2032423913478851,0.1274915784597397,0.1291383504867554,-0.1648930013179779,0.0216276049613953,-0.1590877324342728,0.1075148805975914, 0.2170464694499969,0.0002870913885999,0.1082361266016960,0.0810969695448875,-0.0233201589435339,0.0988461151719093,-0.0679773390293121,0.2193212807178497,-0.2105504870414734,-0.0245069134980440,-0.0248711705207825,-0.2008217871189117,-0.0665743276476860,-0.0864971727132797,-0.1867953538894653,-0.1417353451251984, 
    0.0601032748818398,-0.2038935124874115,0.3221660852432251,0.1911306679248810,0.1072739660739899,0.0386378541588783,-0.2028579860925674,-0.1244315281510353,-0.0588039867579937,0.1519959121942520,0.1538249552249908,0.3218008279800415,-0.0203690603375435,-0.0309583507478237,-0.0803360491991043,0.1190733462572098, -0.0516644716262817,0.2187380641698837,0.1580324769020081,-0.0298149734735489,0.1568845361471176,-0.0694709494709969,-0.0156475324183702,-0.1467818617820740,-0.3323013186454773,-0.1269628554582596,0.1774071902036667,0.0703119486570358,0.1119378954172134,0.0026767798699439,-0.0007590121240355,-0.0759204849600792, 0.2919487655162811,0.0159679595381021,0.0741899386048317,-0.1138671264052391,-0.1472337245941162,0.0585891306400299,-0.2953324615955353,0.0341861061751842,0.1097938418388367,-0.3058669269084930,-0.0194781050086021,-0.2184937149286270,0.0867074877023697,0.0781764239072800,0.0877893045544624,-0.0211875345557928, -0.0060973879881203,0.2791217565536499,-0.1383740305900574,-0.0722776874899864,0.0468704253435135,0.0632910281419754,0.1379466801881790,0.0857292935252190,0.1201294362545013,-0.5738033652305603,-0.1481534987688065,0.1082581132650375,0.0583366453647614,-0.0605551861226559,0.0226882509887218,-0.1571758389472961, 
    -0.1834098100662231,-0.1000090688467026,0.0111735267564654,0.0360066965222359,-0.3350115418434143,0.1023564040660858,0.0298401378095150,0.1608188599348068,0.1666297018527985,-0.0028937852475792,0.2172369807958603,-0.1244791150093079,-0.1523841619491577,0.1347199827432632,-0.1450833082199097,-0.0060648908838630, 0.1218863129615784,-0.0142991924658418,-0.1754228770732880,0.1960164606571198,0.3764416575431824,-0.0640086159110069,-0.1760962009429932,0.2673647105693817,-0.3611862659454346,0.0912636891007423,-0.0847290754318237,-0.0417214743793011,-0.0578436329960823,-0.0263695251196623,-0.1327239871025085,-0.3475520014762878, -0.0053484216332436,-0.0241691619157791,-0.2177040278911591,0.0781714171171188,-0.1637988239526749,-0.0008503105491400,0.0396153256297112,0.2763280868530273,-0.1462812572717667,-0.2049797475337982,0.1382520645856857,-0.0691982954740524,-0.1430344730615616,0.0482883676886559,-0.2159024178981781,0.0288316234946251, -0.0389893129467964,-0.1442680507898331,0.0443960465490818,-0.0106713678687811,0.0771727785468102,0.0900101289153099,-0.0914754047989845,-0.0729852244257927,0.0937186479568481,-0.1620398461818695,-0.1510852575302124,0.0379182845354080,-0.2640995085239410,0.1212409734725952,-0.0698653087019920,0.0764444917440414, 
    0.0420283265411854,-0.1068769097328186,0.4277499914169312,-0.0138771189376712,-0.1625174582004547,0.1436374485492706,-0.0571523755788803,-0.0274514369666576,-0.0590669140219688,-0.0235943235456944,0.0200154744088650,-0.0343827977776527,-0.0585989430546761,-0.0086731221526861,-0.0286329183727503,0.0404300950467587, -0.2874909341335297,-0.0407578013837337,0.0599964335560799,-0.2408095449209213,-0.2017816752195358,-0.2848342955112457,-0.0796688795089722,-0.0723477452993393,0.1366535574197769,0.0102123394608498,-0.1985246092081070,0.1587944626808167,0.2955283522605896,0.0750069320201874,0.0187748130410910,0.1516282111406326, 0.0257013905793428,-0.2157738357782364,-0.0104084108024836,0.1268256902694702,0.0796590447425842,-0.0404040142893791,-0.0645640641450882,-0.1908340603113174,0.0319073088467121,-0.1588334888219833,0.2061458826065063,-0.0268522966653109,0.0711527019739151,0.0515270642936230,0.0610213540494442,0.1500909030437469, 0.0094550428912044,-0.1416580229997635,0.0040757483802736,0.0711589679121971,-0.0278622452169657,0.1276591867208481,-0.0185330137610435,0.0989640280604362,-0.0241079051047564,0.1958288699388504,-0.0341864079236984,-0.0203034970909357,0.1311966329813004,0.0726944506168365,-0.1139959171414375,0.0695756077766418, 
    0.0019283422734588,0.2278475612401962,-0.0184804853051901,0.0763652250170708,0.0055652162991464,-0.0678962543606758,-0.0727402940392494,-0.0088435094803572,0.1559262871742249,-0.0718241333961487,-0.3270556628704071,-0.0119281299412251,-0.1585037857294083,-0.0271203480660915,-0.1241048276424408,-0.1096233353018761, 0.1594368070363998,-0.1468944847583771,0.0471258424222469,-0.0241045635193586,-0.0501801446080208,0.0218925625085831,0.0225021727383137,-0.0979235544800758,0.1620006114244461,0.1432553678750992,-0.1368250846862793,-0.1964376866817474,-0.0230209566652775,-0.0552996881306171,-0.1095163747668266,-0.1232675686478615, 0.0754264667630196,0.0516740866005421,-0.0874962434172630,0.0603918395936489,-0.0756956934928894,-0.1173401325941086,0.0785196125507355,-0.0671538934111595,-0.0816918089985847,-0.0357300601899624,-0.0434930622577667,-0.0150950783863664,-0.0413136780261993,-0.0122060971334577,-0.1442099362611771,-0.0745952427387238, -0.1046063899993896,0.0169014390558004,0.0566153712570667,-0.0909216180443764,0.1807488054037094,0.1575771272182465,-0.0805048644542694,-0.0666622519493103,-0.0279997456818819,0.3350932896137238,0.0631688386201859,-0.0093164052814245,-0.0619123466312885,0.0301001071929932,-0.0260559096932411,0.0059746033512056, 
    0.1743012368679047,-0.1782766282558441,0.0913587436079979,-0.0247910134494305,0.1648189425468445,0.0423905961215496,-0.0372997410595417,-0.0980355441570282,-0.0360249131917953,0.1658414900302887,-0.1740437895059586,0.0990202873945236,0.0902439951896667,-0.0230961311608553,-0.2429363280534744,-0.0633871406316757, 0.2003141194581985,0.0201547835022211,0.0051529011689126,-0.0014524413272738,0.0695162415504456,-0.0560750104486942,0.1347300708293915,0.1203261390328407,-0.2232214659452438,-0.0777770578861237,-0.1109718605875969,-0.0036153327673674,-0.1624626517295837,-0.1004763543605804,0.0409551188349724,-0.0183079633861780, -0.0170399695634842,-0.0806885212659836,0.3260264992713928,-0.0606914423406124,0.1005641967058182,0.3976904153823853,0.3015973865985870,0.0750900134444237,0.3002873361110687,0.1097188293933868,-0.0507142990827560,0.3961393535137177,0.0288244299590588,-0.0879809781908989,0.0269260630011559,0.0237243082374334, -0.0143611505627632,0.2324832826852798,-0.0060990033671260,0.1127019226551056,0.0126230213791132,0.2339999228715897,0.1924626082181931,0.2061477303504944,0.0493903905153275,-0.1729395091533661,-0.1811242699623108,-0.6014294624328613,0.0342454761266708,-0.0274821706116199,0.1105191484093666,-0.1979669183492661, 
    -0.0990383774042130,-0.0565105788409710,0.2761702835559845,0.0871174111962318,0.0381780490279198,-0.0729763880372047,0.1674342453479767,0.0289874579757452,0.0117457192391157,0.1226039305329323,0.1880341768264771,0.1736565828323364,0.1634613424539566,-0.2213666588068008,-0.0251860022544861,0.0209391023963690, -0.0283994600176811,0.0475098155438900,-0.0393812768161297,0.0898945406079292,-0.2062479108572006,-0.0960468500852585,0.0813136026263237,-0.0469682477414608,0.1563576310873032,-0.0207612141966820,0.0042922985740006,0.2140935212373734,-0.1559178084135056,0.0017188332276419,-0.1165986284613609,0.0095806019380689, -0.0264652632176876,0.1016611754894257,0.0643393844366074,-0.0530705191195011,0.0024295691400766,0.0143215563148260,-0.1968523412942886,-0.1619118005037308,-0.0106757655739784,0.0187640935182571,0.0976292043924332,0.0248356256633997,-0.0410357415676117,0.0219711922109127,-0.0956720858812332,0.0902286618947983, 0.0304616615176201,-0.2031574547290802,-0.0807851925492287,-0.0697002559900284,-0.0698697268962860,0.0051260222680867,0.2499262094497681,-0.0973711311817169,-0.0771127119660378,-0.0720796883106232,-0.5590449571609497,-0.2520964741706848,-0.0163954924792051,0.0744133740663528,0.2196218222379684,-0.2336483448743820, 
    -0.0247564055025578,0.0445051491260529,0.1454031318426132,0.1105114370584488,-0.0754487141966820,-0.1011193692684174,-0.1713480800390244,-0.0486282519996166,0.1028212979435921,-0.0380472168326378,0.1385174542665482,0.2016232162714005,-0.0913221612572670,0.1636791229248047,-0.0015221120556816,0.1394934058189392, -0.0255314018577337,0.0053132837638259,-0.2335292100906372,0.1714269518852234,0.1378968954086304,-0.0134489014744759,-0.0610948204994202,-0.2788822054862976,0.3191868662834167,0.1429490745067596,0.1573762744665146,-0.0905571207404137,-0.2665251791477203,-0.0549174770712852,-0.0497622266411781,0.0014125620946288, 0.0231158118695021,0.2895714342594147,0.3024026155471802,0.2077331990003586,-0.0650042518973351,0.0217847023159266,-0.0772262811660767,-0.0283138379454613,0.2134558260440826,0.0431921556591988,-0.1028737574815750,0.0213085450232029,-0.0087573593482375,-0.1172112450003624,0.0229998510330915,-0.2088558822870255, 0.1008921638131142,0.1226324513554573,0.1692889481782913,-0.1959094405174255,0.0208503510802984,0.1198548898100853,-0.0169574189931154,-0.0145710362121463,-0.0836949944496155,-0.0894491747021675,-0.0554155036807060,0.1527550071477890,-0.1670548170804977,0.0129694417119026,-0.1856075525283813,0.0408268384635448, 
    -0.2109110355377197,-0.0351128168404102,0.1712934076786041,-0.1123685985803604,-0.0729602649807930,0.1665348112583160,0.2296800017356873,0.1969782263040543,0.1243449077010155,-0.0277454610913992,-0.0713174566626549,-0.2141246795654297,-0.0153689784929156,0.1890520006418228,-0.1286026239395142,0.0219256319105625, 0.2041343450546265,-0.0793451294302940,-0.1584397703409195,0.0189015548676252,0.0841031521558762,-0.0510663576424122,0.0782111138105392,-0.1774760782718658,0.1344453990459442,0.1194181516766548,0.0633851066231728,-0.1575935482978821,0.1386636048555374,-0.0103090191259980,0.1229354143142700,0.0644944533705711, 0.3234306275844574,-0.0036758435890079,0.0758589431643486,-0.0505495630204678,-0.0476355440914631,-0.0742078125476837,-0.0672180801630020,-0.0859087854623795,0.2005819231271744,0.0526694320142269,0.0181618090718985,0.1270401477813721,0.0360271520912647,-0.0535571500658989,-0.2090791016817093,0.1898656040430069, -0.0305163897573948,-0.0767870619893074,0.0613127462565899,0.1089824065566063,-0.0490215420722961,0.0649225413799286,-0.3888852000236511,0.2872225344181061,-0.0105518708005548,-0.0723692327737808,-0.0249940138310194,0.0244531538337469,-0.0104067716747522,0.0199929829686880,-0.0143613154068589,-0.1261249780654907, 
    -0.0438295155763626,-0.1626479178667068,-0.1232330128550529,-0.1845719069242477,-0.1844127029180527,0.0464013330638409,0.3269801437854767,0.0413873605430126,-0.0631050467491150,-0.0446006916463375,-0.1060080379247665,-0.0166274104267359,-0.0650791078805923,-0.2335784137248993,-0.1026779189705849,0.0378167182207108, -0.4877364337444305,0.2027113735675812,-0.1288372576236725,-0.1133702546358109,0.0907325148582458,-0.0902310758829117,-0.0123172188177705,0.0125291664153337,-0.1056642383337021,-0.1495229005813599,0.1867364346981049,-0.0354580022394657,0.0589499361813068,0.1484927982091904,0.0824608951807022,0.0011405796976760, -0.1914348602294922,0.3021202683448792,0.0804308727383614,0.0203794166445732,0.0215651225298643,-0.2746695578098297,-0.2756184935569763,0.1516600549221039,-0.1790768355131149,-0.1245375573635101,0.1609978973865509,-0.1723066270351410,-0.1159619092941284,0.0524865239858627,0.0562714673578739,-0.0370114147663116, 0.0417649522423744,0.1641997247934341,-0.3794211745262146,0.1482190340757370,0.0126221617683768,0.0924909561872482,-0.1544391512870789,-0.0747963562607765,0.0679167956113815,0.1877635866403580,0.0086008775979280,0.0841070786118507,-0.0103343576192856,-0.1396269202232361,0.0794675424695015,0.0356968715786934, 
    -0.1554500162601471,-0.1754475533962250,-0.0552926026284695,-0.0490237846970558,-0.0015100783202797,-0.0955125093460083,0.0477011203765869,-0.3376740217208862,0.0374519377946854,-0.0852863043546677,-0.0375335887074471,-0.1743462830781937,-0.1896701306104660,-0.0357031226158142,0.3129993081092834,0.1430367380380630, -0.1545341163873672,-0.0932014808058739,-0.1113527715206146,-0.0319784991443157,0.0242115519940853,-0.1953306794166565,0.1512601375579834,0.0399545468389988,-0.1712766140699387,-0.1649830639362335,-0.1137973442673683,0.2562557160854340,0.4170604944229126,0.0485921874642372,0.0115369297564030,0.0471604056656361, 0.0319192595779896,-0.0397810451686382,0.1978694200515747,-0.1865420639514923,0.1077109277248383,0.0574462562799454,0.1544080823659897,-0.0755468830466270,-0.0234267488121986,0.0506254322826862,-0.1276153475046158,0.0454352833330631,0.1296306401491165,0.0681788548827171,-0.0031885858625174,0.2401781082153320, 0.1153599098324776,0.1380549669265747,0.0995968654751778,-0.1357073485851288,0.2307410091161728,-0.1676283031702042,-0.0096712857484818,-0.2089426666498184,-0.0020792745053768,0.1697451472282410,-0.1037141531705856,-0.0332836210727692,0.0217782165855169,0.0239152982831001,-0.1074517816305161,0.0315274447202682, 
    -0.0428619198501110,-0.2211611419916153,-0.0617481805384159,-0.0345504581928253,-0.1697518676519394,-0.1951408386230469,0.1325777322053909,0.2924070656299591,-0.2159555554389954,0.1970866918563843,0.1946451216936111,-0.0279270336031914,-0.1987766176462173,0.0403713621199131,0.3247581720352173,-0.2781505882740021, -0.0174177736043930,-0.0868183523416519,-0.1611233651638031,-0.1155694723129272,0.0565580539405346,-0.4630706608295441,0.0683171078562737,-0.0496649593114853,0.2282834798097610,-0.1620554924011230,0.0733736976981163,-0.2501778006553650,0.0369014106690884,0.0956562161445618,-0.1545992940664291,0.0942374169826508, 0.0883577913045883,-0.1225442066788673,-0.0518296025693417,-0.1428000628948212,-0.0082690687850118,-0.3502953946590424,0.0103399204090238,-0.0086328629404306,-0.1192949190735817,0.0245292577892542,-0.3912904560565948,0.1688191741704941,-0.0310530029237270,-0.2192679792642593,-0.0955478847026825,-0.2416780889034271, -0.1172794103622437,-0.1133701056241989,0.1197625696659088,0.2757594883441925,0.0907953381538391,0.1085178330540657,-0.0892044082283974,0.0410259068012238,-0.0039528561756015,0.1873635351657867,0.1140211671590805,-0.0239405203610659,0.0777708739042282,-0.2992796599864960,-0.0244610011577606,-0.1262238919734955, 
    0.4459752738475800,-0.2120098024606705,-0.3578203022480011,-0.2277844101190567,0.0322797335684299,0.0300148930400610,-0.2169913798570633,-0.0314500071108341,-0.1224590241909027,0.2108448296785355,-0.0568907819688320,0.3598763644695282,0.0357060506939888,-0.0424680560827255,-0.1881009638309479,0.1019125133752823, -0.0288630966097116,0.2024775445461273,0.2231666445732117,0.1415414363145828,-0.2260987460613251,0.1266845762729645,-0.0103499302640557,0.1321901828050613,-0.0433016680181026,0.0710583105683327,-0.4118835628032684,-0.1507381796836853,-0.0908712670207024,0.0622761659324169,0.2384989708662033,0.0809374526143074, 0.1438802629709244,0.4415321350097656,0.1194443255662918,-0.0833267197012901,0.1291743963956833,0.0808409601449966,-0.2797149121761322,0.0922314450144768,0.3578602969646454,-0.2166663557291031,0.1485640406608582,0.1230967789888382,0.2417494207620621,0.1943885535001755,-0.3441389501094818,0.0836386457085609, 0.1601363271474838,-0.1024804711341858,0.0558576621115208,-0.0647795945405960,0.4536117613315582,-0.1438980698585510,0.0363552756607533,-0.0851869955658913,-0.0199466384947300,0.1326086074113846,-0.0915003195405006,-0.1175814792513847,0.0238959547132254,-0.1614147275686264,-0.0998204350471497,-0.2010682374238968, 
    -0.1538701802492142,0.4115009307861328,-0.2816752493381500,0.1506592929363251,-0.0253271460533142,-0.0399473570287228,-0.0093031516298652,-0.4269565343856812,-0.2753987312316895,0.1565917879343033,-0.0441544651985168,0.3552229702472687,0.3185600638389587,0.0603101029992104,-0.2451339662075043,-0.2411369383335114, 0.3266247510910034,-0.0178601127117872,-0.2003595679998398,0.1144727766513824,0.0626943558454514,0.2073500007390976,0.2080030590295792,0.0128668304532766,0.7344420552253723,-0.1793971508741379,0.0798397064208984,-0.4412221014499664,0.0407845303416252,0.1131422445178032,0.2934736609458923,0.0625335574150085, 0.0140561945736408,-0.0930848121643066,-0.3222397863864899,0.3774345815181732,0.2496200799942017,0.1319408118724823,-0.4739931523799896,0.2975631058216095,-0.6283363103866577,0.4485394656658173,0.1579030901193619,0.2276044636964798,0.1954878866672516,0.0422135479748249,0.1251304894685745,-0.1129303053021431, 0.1476137489080429,0.2393688559532166,-0.2296492159366608,0.0042779981158674,0.1037053167819977,0.1472122520208359,0.0032886650878936,-0.2251711189746857,-0.0404342859983444,-0.0171687994152308,-0.2280301898717880,0.3987729549407959,0.4020861983299255,0.1607445031404495,0.1672488003969193,-0.3888488411903381, 
    0.1958894580602646,-0.2673653364181519,-0.1395241618156433,0.1446722447872162,0.5314681529998779,0.0796354189515114,-0.1473572105169296,-0.2334580719470978,-0.0118259964510798,-0.0133179081603885,0.1444961130619049,-0.0981970056891441,-0.4798493385314941,-0.0918875485658646,0.1868294477462769,-0.2451380342245102, 0.0319333635270596,0.1737762838602066,0.1869451403617859,0.1409240961074829,-0.1438102424144745,0.3691526055335999,-0.1304105222225189,0.2626801431179047,0.1752091795206070,-0.0515829734504223,-0.0831976905465126,0.0601379945874214,-0.2747399508953094,0.1969172060489655,0.3182463347911835,-0.0077942823991179, 0.0721885040402412,0.1271906793117523,-0.2274189144372940,-0.0034560146741569,0.4503856897354126,0.3654197454452515,0.0625725463032722,-0.3701701760292053,0.0350647158920765,-0.3291721642017365,0.2419649809598923,0.1158339232206345,0.1363242119550705,-0.3370400965213776,-0.4590337574481964,-0.1087213605642319, 0.0218454655259848,0.2671929895877838,-0.0119920698925853,-0.2715956568717957,0.1263071000576019,0.4152169823646545,0.0728624537587166,-0.3734714686870575,-0.0906806811690331,0.0673342943191528,-0.1451562941074371,-0.0111573236063123,0.1217871680855751,-0.4524103701114655,-0.1648243367671967,0.0074777076952159, 
    -0.0867395997047424,0.0342525728046894,0.1998478621244431,0.1943975389003754,0.3717151880264282,-0.1969631165266037,-0.0676675811409950,-0.2403614819049835,0.1548621505498886,-0.1033347174525261,0.2075791805982590,-0.7434594631195068,0.1297969818115234,-0.3071094155311584,-0.2551306188106537,-0.1033857911825180, 0.4369443356990814,-0.2348733842372894,0.1978072971105576,-0.1678612977266312,-0.1983436346054077,0.3403945565223694,0.4189101755619049,0.0315188989043236,-0.6563832163810730,0.3771362900733948,-0.0205766223371029,0.4802694916725159,-0.1200327053666115,0.0508982129395008,-0.1016638129949570,0.1347854137420654, -0.0425999015569687,-0.0803546756505966,-0.0682977288961411,0.1522664278745651,0.3394095897674561,0.0147661138325930,-0.2460791468620300,-0.1358268707990646,0.3123224675655365,0.0335265956819057,-0.1279314905405045,-0.2441596984863281,0.0691332891583443,-0.0065273907966912,0.0315024778246880,-0.2075266540050507, -0.1264527887105942,0.0800493806600571,-0.1353330612182617,0.3417861163616180,-0.0440137460827827,-0.3641567230224609,-0.1094656735658646,-0.2400032728910446,0.3886721134185791,-0.0321426466107368,0.1743922829627991,-0.2514666318893433,0.4774186313152313,0.1686504930257797,-0.1134199872612953,-0.0880033746361732, 
    0.1910413950681686,-0.0454304032027721,-0.2005550116300583,0.2301318347454071,-0.1277633160352707,0.2670663893222809,-0.1828060597181320,0.1923152506351471,-0.0639155209064484,0.0946919098496437,0.1297533214092255,-0.0114321000874043,-0.0732707604765892,-0.0450826175510883,-0.0549302212893963,0.1134130135178566, 0.0703062862157822,0.2102960497140884,0.0154892085120082,-0.2812403440475464,0.0107412738725543,-0.1078063398599625,-0.0538537353277206,0.2014517188072205,-0.0119203403592110,0.3250710070133209,0.1019796878099442,0.1494667232036591,-0.0774624198675156,0.2472514212131500,-0.1382634639739990,0.1727007627487183, -0.0352581776678562,0.1733648777008057,-0.2391406744718552,-0.1985583156347275,0.0307849999517202,0.1498878896236420,-0.0964969918131828,0.0610927008092403,0.0656357258558273,-0.3735375106334686,-0.1126287132501602,0.0810788348317146,0.2228245884180069,0.0629712119698524,-0.1089765280485153,0.1937741935253143, -0.1341401636600494,0.0961203575134277,0.0174810066819191,-0.1315679401159286,0.2148621231317520,-0.0422738716006279,0.1060828566551208,-0.0043826033361256,-0.0195943713188171,0.0413073748350143,-0.0209606774151325,0.1535830348730087,0.0019101846264675,-0.0752144008874893,0.0543836802244186,0.0817238166928291, 
    -0.1371006667613983,-0.0017097343225032,0.0003772592754103,0.1115825846791267,0.0546416267752647,-0.0000054702604757,0.2462200671434402,-0.1137474253773689,0.1809550523757935,0.0758358314633369,-0.5332003831863403,0.3873719871044159,0.0272153057157993,-0.2072244733572006,0.1103228032588959,0.0409625619649887, -0.3406212627887726,0.1102256178855896,0.0344245545566082,0.0535254664719105,-0.1131787896156311,-0.1116196066141129,-0.0361820906400681,0.2828329205513000,0.1532165110111237,0.1664879620075226,0.1495245248079300,-0.1846220791339874,-0.0863110795617104,0.1879447698593140,-0.2187136262655258,-0.0976269990205765, -0.0714075788855553,0.1122887283563614,-0.0541789606213570,0.1050251945853233,0.2244011759757996,-0.2155403494834900,0.0281857214868069,-0.0192877724766731,0.0115881757810712,0.0295707397162914,-0.0402938537299633,-0.0159157104790211,-0.0322378501296043,0.0462084412574768,0.0796689689159393,-0.0045751547440886, 0.2039585858583450,0.0317360870540142,-0.1431615948677063,-0.0021050858777016,0.0781205222010612,-0.0810130387544632,0.0781239792704582,-0.0228356011211872,-0.0057179541327059,0.1765613555908203,0.1328212618827820,0.1162380650639534,0.0440343655645847,-0.0955794304609299,0.0061650266870856,-0.2743133902549744, 
    0.1801925897598267,0.1230550035834312,-0.1961367875337601,0.1255238950252533,-0.0885850787162781,-0.0268044397234917,0.2343062460422516,-0.0446412861347198,-0.0571067556738853,0.0261972416192293,0.2480108886957169,-0.1201685294508934,-0.0412609651684761,0.1934995651245117,0.1661445647478104,0.2297777235507965, 0.2498962283134460,0.0628746822476387,0.0752239376306534,0.0465303435921669,-0.3409739434719086,0.2857620120048523,0.0698532983660698,-0.1929524689912796,0.0117371957749128,-0.1592671424150467,-0.0443856492638588,-0.1500931084156036,-0.0638014823198318,0.2300414592027664,0.2772723138332367,0.0982782691717148, -0.1745322793722153,-0.1089341342449188,0.0311019849032164,0.1796688586473465,-0.0497992001473904,-0.3238902688026428,-0.1294999867677689,-0.1981544494628906,0.2647362053394318,-0.0497390553355217,0.1340302228927612,0.1089042499661446,0.3159225285053253,0.0749141424894333,-0.2068309783935547,0.2945960760116577, 0.0216834526509047,-0.0422806702554226,-0.0307590048760176,-0.0987641364336014,-0.0867971032857895,0.0247024279087782,-0.0049467366188765,0.2352760881185532,0.0741604268550873,0.2699835598468781,-0.2172181308269501,0.0214569829404354,0.0881326273083687,-0.3191315531730652,0.3460417091846466,-0.3118346929550171, 
    0.1018679812550545,0.0478270761668682,0.1306073367595673,0.3471642732620239,0.0682028234004974,0.0713321119546890,0.1219814047217369,0.1942566037178040,-0.1766284108161926,0.0594538077712059,0.2545968890190125,0.0807048305869102,0.0677410215139389,-0.0419276766479015,0.0102333007380366,0.1901416778564453, -0.5059490203857422,-0.1311045885086060,0.0368731617927551,0.1761099994182587,-0.2564618289470673,0.3076902031898499,-0.1110099628567696,0.1084324046969414,0.2835643887519836,-0.1647099554538727,-0.1255061924457550,-0.2327279746532440,-0.0985080376267433,0.0366575457155704,-0.1026502773165703,-0.0330082252621651, 0.0552009753882885,0.0791923254728317,-0.0234178118407726,-0.2137083113193512,0.2205381244421005,-0.1788860112428665,-0.0469832457602024,0.0188462510704994,-0.1843361705541611,-0.2105434536933899,-0.1968381106853485,0.2580736875534058,0.0339437164366245,-0.0693900063633919,-0.0590746030211449,0.3345184922218323, 0.2059896439313889,0.1252457946538925,-0.0074510029517114,-0.0691959038376808,0.1807214915752411,0.0027611132245511,0.0240095667541027,-0.0766959115862846,-0.2156358659267426,0.1172294840216637,-0.0495175346732140,-0.1693508028984070,-0.2264798283576965,0.1293796896934509,-0.0099031990393996,-0.0373347997665405, 
    -0.1422130912542343,-0.0209633577615023,0.1563519537448883,0.0638999491930008,-0.0353768132627010,-0.0458791069686413,-0.0035924366675317,0.2189119011163712,-0.0782971233129501,0.1802898645401001,-0.3779482841491699,0.0555818416178226,-0.2072600871324539,0.1333364993333817,-0.0317861549556255,0.0318425223231316, -0.3360988199710846,0.2244271785020828,-0.0387836545705795,0.1149037256836891,0.0972868502140045,-0.0944996923208237,-0.0228208024054766,0.0300375390797853,0.3410931825637817,0.0673678517341614,-0.1067329868674278,0.0460759624838829,-0.1416530013084412,0.0719029083848000,0.1737461686134338,-0.1460048109292984, -0.0714576318860054,-0.1314765065908432,0.0044849822297692,-0.0384970940649509,0.2241345494985580,-0.0324452109634876,0.2159636765718460,0.1048837751150131,-0.1070954799652100,-0.0161915589123964,-0.0572434253990650,-0.1844666749238968,0.0281824711710215,-0.1263117045164108,-0.2617301940917969,0.0878679007291794, -0.1486484259366989,-0.0883196964859962,-0.1987736970186234,-0.0938437283039093,0.0970940217375755,-0.0196071788668633,-0.1967689394950867,0.1610310226678848,-0.0768222808837891,0.1623231619596481,0.3253002166748047,-0.0089388052001595,-0.1180243045091629,-0.1877942830324173,-0.0183167178183794,0.0188101623207331, 
    -0.0286058560013771,0.1659249514341354,0.0012943913461640,0.0499969981610775,0.1422614604234695,0.0672997236251831,0.1053121238946915,0.0241394750773907,-0.0267950072884560,-0.2408446371555328,0.0689387544989586,-0.0353503115475178,-0.1775945425033569,0.0234226547181606,0.0756977722048759,0.0147098181769252, 0.1348958611488342,-0.0217581838369370,-0.0246997904032469,-0.0370253399014473,-0.2199629992246628,-0.2583822607994080,-0.0932653769850731,-0.2328930199146271,-0.3985703587532043,-0.0800357311964035,-0.0502789840102196,-0.1894255578517914,0.0157703701406717,0.0064301551319659,-0.0858104750514030,0.0733424127101898, -0.1100168824195862,-0.0780089497566223,0.1974209547042847,-0.0670912265777588,0.1407631486654282,0.1423299312591553,0.1635863184928894,-0.0288321077823639,0.3278575837612152,-0.1082433238625526,0.2574056684970856,0.1123920455574989,-0.1196926757693291,-0.0249382574111223,0.0006079469458200,-0.1647489219903946, -0.1101450696587563,-0.0586120933294296,0.2209171354770660,-0.0070414175279438,0.2106666266918182,0.0642789304256439,-0.0919141173362732,0.0349143296480179,0.1890538632869720,-0.1068792790174484,0.0104350410401821,0.1184908673167229,-0.1089602261781693,-0.0094016948714852,0.0017966856248677,0.0176654886454344, 
    -0.0543244630098343,0.1917871087789536,0.0193976480513811,-0.0431259982287884,-0.2033711969852448,0.0477821268141270,0.0067753521725535,-0.0682270526885986,0.1969993859529495,-0.0750918835401535,-0.2594552636146545,-0.1375313699245453,-0.0077267014421523,0.1274733394384384,0.0865155607461929,0.0472486987709999, 0.1041419282555580,0.0518928579986095,-0.0646929740905762,-0.0370695181190968,0.0235015563666821,0.1457109898328781,-0.0695325955748558,0.1174258142709732,-0.2374160140752792,-0.1920933574438095,0.1244019418954849,0.0188022516667843,0.0602986663579941,-0.1103134676814079,0.0410128720104694,0.1191382408142090, 0.1526419073343277,0.0477463267743587,-0.0402963794767857,-0.0688054859638214,-0.0743660777807236,-0.1399626880884171,-0.2718788683414459,0.3125098943710327,0.1716637760400772,-0.1604706645011902,-0.1242120563983917,0.0801826342940331,-0.0891780182719231,0.0744505822658539,-0.1075374931097031,-0.2213074415922165, 0.1723289191722870,0.1253015846014023,0.0129809668287635,-0.0096823889762163,0.0716049075126648,-0.0353725440800190,0.1567278355360031,0.1648248732089996,-0.0200736690312624,-0.0962075367569923,0.4105050861835480,-0.2045884430408478,-0.0749892368912697,0.1791831552982330,-0.0503315366804600,0.1393465697765350, 
    0.0638304129242897,-0.0325457416474819,-0.1572882980108261,-0.0546916499733925,0.0232818126678467,-0.0714884400367737,0.1627114564180374,-0.0557239502668381,0.0209975223988295,-0.0187117625027895,0.3106088042259216,-0.0053044236265123,0.1987716555595398,-0.0953556299209595,0.2629529833793640,-0.0071331881918013, 0.0710143893957138,0.1863823831081390,0.1069454997777939,-0.0628824830055237,-0.0817598104476929,-0.2282510697841644,-0.0731965005397797,-0.2010470926761627,0.0196697581559420,-0.0930084213614464,-0.2215146869421005,-0.0995974317193031,0.0197020657360554,-0.2077472507953644,-0.2745246887207031,-0.2016142755746841, -0.1353906840085983,-0.0651349574327469,-0.3486540019512177,0.0519254878163338,0.1884097605943680,-0.0021119879093021,0.1838577538728714,0.2008749395608902,0.1146747693419456,-0.0404230952262878,-0.0025575994513929,-0.1060535013675690,-0.0098623437806964,0.0988361388444901,0.0361230596899986,0.0778185352683067, -0.0570600554347038,-0.0980537757277489,0.1290795952081680,-0.2045826315879822,0.0843658223748207,0.1265690475702286,0.0357006937265396,-0.0056274337694049,-0.0230911634862423,-0.2809480428695679,0.0960148945450783,-0.0294854622334242,0.0398252755403519,-0.0827212855219841,0.3009684681892395,0.1364646106958389, 
    -0.0421246476471424,0.2592750489711761,-0.0927281454205513,0.3078538775444031,0.2100289762020111,-0.0642854720354080,-0.0921883061528206,0.0326341763138771,-0.2644840776920319,0.1774180531501770,-0.1196464598178864,-0.4229507744312286,0.2510976195335388,0.0372096374630928,-0.2537170350551605,0.2260684221982956, 0.0337189361453056,0.0165102854371071,-0.0615520589053631,-0.0837895199656487,0.0536002889275551,-0.2178279608488083,0.2378123551607132,-0.0640304759144783,-0.1842651665210724,0.1383887231349945,-0.0163793954998255,0.0974779129028320,0.0414890572428703,-0.1716658025979996,-0.0911796241998672,0.2949803471565247, -0.7296320796012878,-0.1005255207419395,-0.0297978557646275,-0.3341357111930847,0.1982498317956924,-0.2028026878833771,-0.1974771767854691,-0.1999196559190750,0.0944639220833778,-0.0612797103822231,0.0827406495809555,-0.0263017136603594,-0.1228519976139069,-0.3428965508937836,0.0960030034184456,0.1286140382289886, -0.2818616926670074,0.1190070509910583,-0.0221457425504923,0.0436922684311867,0.2696960866451263,-0.0621693730354309,0.1205597668886185,-0.1424377113580704,0.1226921603083611,-0.1418399065732956,0.0728522315621376,-0.0041362936608493,0.0959575772285461,-0.1118893623352051,-0.0150952748954296,-0.1468373239040375, 
    0.0206921920180321,-0.2198302298784256,-0.0701930820941925,-0.3230668008327484,-0.0217957627028227,0.1357497274875641,0.2323972135782242,-0.0309077259153128,-0.0590932071208954,-0.1639022678136826,-0.1563350111246109,-0.1444355696439743,0.0613540187478065,0.0601835064589977,-0.0287189222872257,-0.0357198491692543, -0.0948021039366722,-0.1160111948847771,0.1457199901342392,0.0830268114805222,-0.0575311966240406,-0.0802905112504959,0.1907799690961838,0.0806293338537216,-0.2138084769248962,-0.0966582298278809,-0.2017477154731750,0.1610527485609055,-0.0404433608055115,-0.2105194330215454,0.0839709937572479,-0.1883381307125092, 0.2460274547338486,-0.0110488999634981,-0.0974549204111099,0.0422583743929863,0.2751173973083496,0.0678272098302841,-0.2969105541706085,0.1323045939207077,0.0380870699882507,0.3217476606369019,-0.0752521008253098,0.0459126196801662,-0.4058500826358795,0.0251078642904758,-0.0231282394379377,-0.1124168261885643, -0.0212179757654667,-0.2112931758165359,0.4129287302494049,-0.2591953575611115,0.0837515369057655,0.2280779331922531,-0.0166412573307753,0.0318110287189484,0.0451285168528557,0.1645151078701019,-0.0918505042791367,-0.3413339257240295,-0.1391270756721497,0.1170434877276421,0.1808806508779526,0.1371048092842102, 
    -0.0020270729437470,0.1621738374233246,0.0399310030043125,-0.0438883267343044,-0.0824203342199326,0.0099390773102641,-0.4241760969161987,0.1165389567613602,-0.1991093158721924,-0.1385766267776489,-0.3597168028354645,-0.2093434631824493,0.0716988667845726,0.0764024257659912,0.1949614137411118,-0.0398958511650562, -0.0252135824412107,0.0330959074199200,0.0855813026428223,-0.0615275166928768,0.2952718436717987,-0.0192984342575073,-0.0794014632701874,-0.0708832591772079,-0.0284778289496899,0.0396614037454128,-0.0762029662728310,-0.0091145960614085,0.0112863909453154,-0.0858006030321121,0.2219867259263992,-0.0473073832690716, -0.2689310014247894,-0.2388662099838257,0.1936679780483246,-0.0622065514326096,-0.2855861485004425,0.0881438851356506,-0.1297691315412521,-0.0710278674960136,0.3021833598613739,0.0885890796780586,0.0518921613693237,0.2242880314588547,0.1547999829053879,-0.1480449587106705,0.1359568983316422,0.0099172536283731, 0.2365919649600983,0.0929477214813232,0.0098810018971562,-0.0705359354615211,-0.0263667479157448,0.3372208178043365,-0.2670886814594269,0.1929598152637482,0.1251814067363739,0.1176949441432953,0.3895280361175537,0.0087956897914410,-0.1003661006689072,0.0438285619020462,0.0709054544568062,0.1750314384698868, 
    -0.1486600339412689,-0.4024447798728943,0.1636409163475037,-0.0883854106068611,0.1269216090440750,0.2130152583122253,0.0226612426340580,0.0302033293992281,0.2051880210638046,-0.0517359860241413,0.1467522382736206,0.0957927107810974,0.0443594977259636,0.1177708283066750,0.0564442165195942,0.3151275515556335, -0.0735780969262123,0.1588295102119446,0.0526467189192772,0.0841475054621696,0.2984561026096344,-0.0126614877954125,0.1053985804319382,-0.1054222360253334,-0.2275395393371582,0.0325669273734093,-0.1359508931636810,-0.0432912521064281,0.3476223051548004,0.0060007474385202,0.0478659644722939,0.0217769891023636, 0.1443729847669601,-0.2127736210823059,-0.1425509303808212,-0.1897493451833725,-0.2638850510120392,-0.1273290663957596,-0.0896094292402267,-0.0437430441379547,0.1610110104084015,-0.1014155820012093,0.2710902988910675,-0.0327298417687416,-0.0324533618986607,0.0915087535977364,0.0798557400703430,-0.1547852903604507, -0.1494247168302536,-0.0427187569439411,0.1252926588058472,-0.0381422936916351,0.0603532493114471,0.0479200966656208,0.1253385990858078,-0.0344637632369995,0.2232175469398499,0.0041557680815458,0.1741494685411453,0.1342372000217438,0.0462950356304646,0.2518405318260193,0.1433944255113602,-0.2184360623359680, 
    -0.2304142415523529,-0.0719510838389397,-0.0675006136298180,-0.3363347947597504,-0.1184817776083946,-0.1126850321888924,0.1518510878086090,-0.0257060509175062,0.0532785877585411,-0.0668446049094200,-0.0280778128653765,0.1538693457841873,-0.0306744184345007,0.2549984455108643,-0.1447070389986038,-0.0391077250242233, -0.1700742095708847,0.1524066627025604,0.0056248060427606,-0.0194710157811642,0.1511547267436981,0.1654875576496124,0.1847568601369858,-0.1580300033092499,-0.1765314042568207,-0.0585254132747650,-0.0740904882550240,0.1187586858868599,0.0925130993127823,0.1622044593095779,-0.1567358523607254,-0.0668452009558678, -0.2404520064592361,-0.0844260677695274,-0.2389319241046906,-0.1240477040410042,0.1413290798664093,0.3788705766201019,0.0120783364400268,0.0488567911088467,-0.1317554712295532,-0.2663916051387787,-0.0246596839278936,-0.0082284500822425,-0.1777968853712082,0.0150971999391913,-0.0495786853134632,-0.0782039240002632, -0.0174759086221457,0.1435166150331497,0.1709098070859909,0.0303303804248571,0.1366100013256073,-0.0466808117926121,-0.2585677206516266,-0.0260113924741745,0.0891791060566902,0.1636637747287750,-0.0108174066990614,-0.2410513609647751,-0.0733066499233246,-0.2842519283294678,0.0900657922029495,0.1629368662834167, 
    0.0575510375201702,0.2173524498939514,-0.0927070975303650,-0.1615140885114670,0.0490588247776031,0.0307105164974928,-0.1662461310625076,0.0981267020106316,0.0214565992355347,0.0494793355464935,-0.1530900448560715,-0.2056774795055389,-0.0225916951894760,0.0415866039693356,-0.0117064453661442,-0.0291576590389013, 0.1341780424118042,-0.1721378117799759,0.1383672952651978,-0.3065282702445984,0.0086536090821028,-0.1854903697967529,0.0173848569393158,-0.0958723276853561,0.2456385642290115,0.1917649209499359,-0.2038490176200867,-0.1217347383499146,-0.0541911497712135,-0.2786482274532318,0.0933305397629738,0.0611389316618443, 0.1535158157348633,-0.1182311400771141,-0.1546080559492111,0.0448417924344540,-0.0881625786423683,-0.0413807667791843,0.0816671028733253,0.2144964784383774,-0.4627449214458466,0.0498482473194599,-0.0300191771239042,0.0065994099713862,-0.0156666859984398,-0.1720254272222519,-0.0485287122428417,-0.1363081336021423, -0.1839466094970703,-0.3148627281188965,0.4585924744606018,-0.1045131012797356,0.0372976958751678,-0.0834625810384750,0.1311012655496597,-0.1129970699548721,-0.0473304502665997,0.0826512053608894,0.3313356339931488,-0.2423646897077560,-0.1377865374088287,-0.0669801011681557,-0.1558588445186615,-0.1705927103757858, 
    0.0177033450454473,-0.1274748295545578,0.1430204361677170,-0.1192419081926346,-0.0703871473670006,-0.0706785991787910,0.2976159155368805,0.0470926500856876,-0.0072712986730039,0.1795812845230103,-0.0024556454736739,0.0982688292860985,-0.1377155184745789,-0.0327612347900867,-0.0722481608390808,-0.0682997331023216, -0.0451022833585739,-0.0605932325124741,-0.0374172404408455,-0.0356340780854225,-0.0950141549110413,0.2326428592205048,0.0564964823424816,0.0559692643582821,-0.0715712606906891,-0.1021538227796555,-0.0026287697255611,0.0984951853752136,-0.1102745011448860,-0.0487639307975769,-0.1391361206769943,0.1251715570688248, 0.0021659194026142,-0.1300170868635178,-0.0059179398231208,0.0288986936211586,-0.0019816202111542,-0.0576530508697033,-0.1840831786394119,-0.0129501679912210,0.1544197946786880,0.2934990227222443,0.0106042763218284,-0.0419802144169807,-0.2079767584800720,-0.3180702328681946,0.1618657112121582,-0.0636325553059578, 0.1175539419054985,0.0567405335605145,0.1487032324075699,0.0238782912492752,0.0462666153907776,-0.0194517634809017,0.1340848952531815,0.3176729083061218,-0.0521196462213993,0.2000763863325119,0.2545012831687927,0.0430522076785564,-0.1516814082860947,-0.0023446544073522,0.1940542608499527,0.0857671871781349, 
    -0.2610870897769928,0.1586860567331314,-0.0943611562252045,0.0243455953896046,-0.1236873045563698,0.1264219880104065,-0.1729681342840195,-0.2474125772714615,0.0177616085857153,-0.0425097197294235,0.1647205352783203,-0.2539803087711334,-0.1173504814505577,-0.0786687880754471,-0.0249674320220947,0.0602308809757233, 0.2046471387147903,0.1251144856214523,-0.0454968921840191,-0.0424325466156006,-0.0259405653923750,0.0798271521925926,-0.1830127239227295,-0.2307291328907013,-0.1853311359882355,-0.0832240208983421,-0.0404579453170300,-0.0428061001002789,-0.1496866494417191,-0.1584313660860062,0.1983799189329147,-0.0448243059217930, -0.3316137194633484,0.0584416948258877,0.2460993081331253,-0.0385730527341366,-0.1526068896055222,0.0712944641709328,0.0567634105682373,-0.1403829455375671,0.1281589567661285,0.1594053804874420,0.2744943499565125,0.0101370532065630,0.0462218746542931,-0.1511970162391663,-0.0000599296290602,-0.0264442525804043, -0.0185494329780340,-0.2759767770767212,-0.1199675053358078,-0.0520934872329235,-0.1969349235296249,-0.1761688590049744,-0.0436133332550526,0.0472480617463589,-0.0757623463869095,0.1956251859664917,-0.1295351535081863,0.0402258150279522,-0.0910124331712723,-0.1337720751762390,0.2972950339317322,0.0360797531902790
};


static const float fx2d_paramModel1Alpha[16] = {
    0.4589389860630035,-0.0171027909964323,0.1109997034072876,0.7046035528182983, -0.2172160744667053,1.0248425006866455,0.7351635098457336,0.2249015122652054, 0.1329186856746674,0.4945091009140015,-0.0285056717693806,0.5025353431701660, -0.0182641837745905,-0.0059784287586808,-0.3269565105438232,0.1502418369054794
};


static const float fx2d_paramModel2Bias[16] = {
    0.0289922468364239,-0.0046213301829994,0.0367466285824776,0.0247280076146126, -0.0080647552385926,-0.0841037333011627,-0.0345347858965397,-0.0046435240656137, -0.0030431493651122,0.0772903189063072,-0.0187399759888649,-0.0710480436682701, 0.0032819050829858,-0.0068913456052542,-0.0168672092258930,0.0562067702412605
};


static const float fx2d_paramModel2Weights[36*16*4] = {
    0.0143457781523466,-0.0190678630024195,-0.0258230697363615,0.1313548088073730,0.3141909837722778,-0.0069119986146688,-0.0645182058215141,-0.0854005292057991,0.1413416415452957,0.1722284108400345,-0.0839119851589203,0.1197172924876213,-0.3372162282466888,-0.1395767331123352,-0.0039571234956384,0.2856540679931641, -0.0514949448406696,-0.0195349659770727,-0.0553774349391460,0.0636545792222023,0.1359733939170837,-0.1403330415487289,-0.1598486304283142,0.0592918619513512,-0.0407843701541424,-0.3072011172771454,-0.1158820018172264,-0.0578623302280903,-0.1388145834207535,-0.0434607192873955,0.0151221435517073,0.0283437091857195, 0.0630776658654213,-0.0156661290675402,-0.0405465587973595,-0.0338476225733757,-0.0282611027359962,0.2571686506271362,0.1697734296321869,-0.0872390717267990,0.0397485978901386,0.3090895414352417,-0.3134531676769257,-0.1192939057946205,0.2721681594848633,-0.0167478378862143,-0.1397513300180435,-0.0548031628131866, 0.1641025543212891,0.0313241854310036,0.0711381211876869,-0.0296631902456284,-0.1502986103296280,-0.1068164110183716,-0.0381608307361603,0.0092772999778390,-0.1527430117130280,-0.0560315959155560,0.0389505252242088,0.1343159675598145,-0.3100968301296234,-0.0691766440868378,-0.0174769628793001,-0.1137761622667313, 
    0.0069858012720942,0.1824326515197754,0.0518632940948009,-0.1651064753532410,-0.0377099290490150,0.1738090366125107,-0.0732944905757904,0.0683743804693222,0.1099290549755096,-0.0019769740756601,-0.0532479472458363,0.0886035263538361,0.0118701932951808,0.0399258546531200,0.0053707323968410,-0.2170725464820862, -0.0148447081446648,-0.0011291034752503,0.0435503832995892,-0.0598094686865807,-0.0511103533208370,-0.0365611836314201,0.0455631166696548,0.0867569372057915,0.0477958917617798,0.0855460390448570,0.0229050423949957,-0.0388118885457516,-0.0507727414369583,0.1061691641807556,0.1198279187083244,0.0848968774080276, -0.1318342983722687,-0.0501545593142509,0.1291329711675644,-0.1016503497958183,0.1012440845370293,0.0461882278323174,0.1797344982624054,0.1079239994287491,-0.0815896093845367,0.0929149240255356,-0.0424860119819641,0.1146970540285110,-0.1831907033920288,-0.0413108095526695,-0.0068255756050348,-0.0800214409828186, 0.0161639191210270,0.1862726509571075,0.1988800466060638,-0.0224490389227867,-0.1546811759471893,-0.0656597539782524,0.1375859528779984,0.0102049289271235,0.2183663100004196,-0.0581316426396370,-0.0591496415436268,0.1198177635669708,0.5113847255706787,0.0340892784297466,-0.0523570515215397,-0.0504959635436535, 
    -0.0457811802625656,-0.0583812780678272,0.0106086488813162,-0.0548048131167889,0.2685912251472473,0.0483037903904915,-0.2051575630903244,-0.0179434139281511,-0.1426836252212524,-0.2228482961654663,0.0035537795629352,-0.0673922449350357,-0.0544852837920189,-0.2038804441690445,-0.0021089925430715,-0.1177326589822769, -0.0069508175365627,-0.1228519231081009,0.0253262501209974,-0.0378559790551662,0.1467339247465134,-0.1158478483557701,-0.1068108901381493,0.0627379044890404,-0.2429156601428986,-0.0409935936331749,-0.1167572066187859,0.1767156422138214,-0.1341967582702637,0.0469993613660336,0.0547994934022427,0.1689712703227997, 0.0877645313739777,-0.1072989180684090,-0.2200396656990051,-0.0037374580278993,-0.0790953487157822,0.0755271315574646,0.0474142432212830,-0.0773731768131256,-0.0099691189825535,-0.3477037847042084,0.0682063102722168,0.1483027487993240,0.0829065367579460,0.1553632915019989,0.1872977912425995,0.1587218940258026, 0.0343936607241631,0.1063148081302643,0.0805083066225052,0.0396051108837128,-0.1236344054341316,-0.0233269948512316,0.1233193129301071,-0.2264101654291153,-0.2960208356380463,-0.1071716025471687,-0.1833824366331100,-0.0790851041674614,0.1837736070156097,0.0833743810653687,0.1230603456497192,0.0385375246405602, 
    -0.1366073936223984,-0.0315098315477371,0.1321292817592621,0.2525149285793304,-0.1456605792045593,-0.0025319734122604,-0.0818520784378052,-0.0146102681756020,-0.1718215197324753,-0.1178970932960510,-0.0832295715808868,-0.0491813458502293,0.1259993761777878,-0.0999935120344162,0.0563119463622570,0.0435056872665882, -0.0820880457758904,0.0399885736405849,-0.0981159806251526,-0.1002681255340576,-0.1290888786315918,0.0368873812258244,-0.1092253178358078,0.0073415748775005,-0.0934184119105339,0.0151069313287735,-0.0192732363939285,0.0380824320018291,-0.0613358244299889,0.1173662766814232,0.1313189268112183,-0.0921110212802887, -0.1909448504447937,-0.1900620609521866,0.0080121280625463,0.0393090993165970,0.0565608181059361,-0.0137943392619491,0.1410759538412094,-0.1537460386753082,0.1233773529529572,0.1025700196623802,-0.0166660584509373,-0.0503131486475468,-0.0601725652813911,0.2112258076667786,-0.1001082658767700,-0.1376190185546875, -0.0663255229592323,-0.0819603651762009,-0.1970731317996979,0.1191908717155457,-0.0865668952465057,-0.3306200504302979,0.0536981187760830,-0.0735869854688644,0.2214231342077255,-0.0135698653757572,0.1337730437517166,-0.0007018639007583,0.0386643111705780,0.2869086861610413,-0.0204952880740166,-0.0785670056939125, 
    -0.4573970437049866,0.1022815480828285,-0.0117169795557857,0.0031934282742441,0.0641026124358177,-0.2733633220195770,0.0072853905148804,-0.4380507767200470,0.2007429301738739,-0.0816889330744743,-0.0122506804764271,-0.0956504642963409,0.0294950269162655,-0.0895949974656105,-0.1854041069746017,-0.7676455378532410, 0.0098996255546808,0.0312625244259834,-0.1832284927368164,0.1066081672906876,-0.0402730740606785,-0.0942633822560310,-0.1069478467106819,-0.1148846298456192,0.0798483416438103,-0.0506768226623535,-0.4664174318313599,-0.1142466217279434,0.1528352797031403,0.1847205907106400,-0.0349850691854954,-0.0741918385028839, 0.0971400663256645,0.0190913230180740,0.0646057352423668,0.0170308649539948,-0.0416023842990398,0.1902754008769989,0.0793102532625198,0.0713693052530289,-0.0401241183280945,0.1678720116615295,0.0291440747678280,0.0524650253355503,-0.1040422320365906,-0.0104328989982605,-0.1395813226699829,-0.0404534190893173, -0.5512277483940125,-0.0432629100978374,-0.0074420026503503,0.0599113143980503,-0.0683796256780624,-0.1501161009073257,0.1093824207782745,-0.1609797477722168,-0.1926446855068207,0.0696224570274353,0.1865710169076920,-0.0263149999082088,0.2819041907787323,0.1336970329284668,-0.1383060216903687,-0.0294327381998301, 
    0.1377535015344620,0.3586088418960571,0.0549380332231522,-0.2113907039165497,-0.1651734709739685,0.0877330154180527,-0.3724181950092316,0.4033094644546509,0.1721396297216415,-0.2539699673652649,0.1025523915886879,0.0573127306997776,-0.2649540305137634,0.0996546223759651,-0.0322739854454994,-0.0665868520736694, 0.1102754846215248,-0.1074369102716446,-0.0651983171701431,0.0699046328663826,-0.0759588181972504,0.1463358849287033,-0.0985756441950798,0.0231575872749090,0.0208139587193727,-0.0964017882943153,-0.0419954620301723,0.0635820031166077,-0.3484080433845520,0.1240990608930588,-0.0308482125401497,0.0729894787073135, -0.1533539742231369,-0.0675712078809738,0.1737787276506424,0.0134361702948809,0.0524101257324219,0.1048178821802139,-0.1665556132793427,0.0876842513680458,0.0705502256751060,-0.2661143839359283,0.2847896218299866,-0.1311216503381729,0.0924764275550842,0.1106167882680893,0.0937874242663383,-0.0774846002459526, -0.2117140591144562,-0.1964783072471619,0.0209140237420797,-0.1468834728002548,-0.0388768389821053,0.0099467393010855,-0.0096735656261444,0.0119368890300393,0.0105373486876488,-0.0117405820637941,0.0939888283610344,-0.0859694704413414,0.0858618542551994,-0.0481163673102856,0.2874279022216797,-0.0189808309078217, 
    -0.2230871468782425,0.0878259241580963,-0.0725827813148499,-0.2203043699264526,-0.0549901463091373,0.2613747119903564,-0.0657631829380989,0.2836516201496124,-0.2296158373355865,0.1444439440965652,-0.1738165020942688,-0.0411833599209785,0.2213525772094727,-0.1472615599632263,-0.0803443863987923,0.0813046768307686, 0.2594768404960632,0.1165392622351646,-0.2245630919933319,-0.0496957376599312,-0.1046951040625572,0.1734437793493271,-0.0652893185615540,-0.0092790275812149,0.1586924642324448,0.1640542000532150,0.0196580439805984,-0.1081535294651985,0.0077492995187640,0.0407850369811058,-0.1291919499635696,0.1519178301095963, -0.4562861919403076,-0.1734165996313095,0.3422911465167999,-0.1925340294837952,0.0327902697026730,-0.2392490506172180,-0.1206030473113060,-0.2357721775770187,0.2271317094564438,-0.0530497878789902,0.0483286269009113,0.1063277050852776,0.0199932400137186,0.1523556411266327,0.1057730913162231,-0.2196847349405289, -0.0355829447507858,0.1019678786396980,-0.2398020476102829,-0.1328687220811844,-0.2580155134201050,-0.0937134549021721,0.0362211614847183,-0.0406967476010323,0.2681314349174500,-0.2669462859630585,-0.3174448907375336,-0.0182126667350531,0.0024880690034479,0.0660213157534599,0.0105634322389960,0.1912512183189392, 
    0.2197474390268326,-0.0366083644330502,0.0380731560289860,-0.0071744159795344,0.1010168194770813,0.1950140595436096,0.0008539655827917,-0.0120169641450047,-0.0898331403732300,-0.0149100609123707,0.0195039734244347,-0.0262539740651846,0.1531230509281158,0.0617115199565887,0.0106047820299864,0.1345859915018082, 0.1029526740312576,0.0660485774278641,0.1212314814329147,0.1897536814212799,0.0002048090100288,0.0255673751235008,-0.1060385853052139,0.0200774837285280,0.0062124803662300,0.0234904885292053,0.1536596268415451,-0.0485081151127815,-0.0124538373202085,0.1555083692073822,0.1307172477245331,0.0596063323318958, -0.0489124208688736,-0.2881653308868408,0.0520398281514645,-0.3342506587505341,0.1777028590440750,0.0881835371255875,-0.1338129043579102,-0.0686874762177467,-0.0218005832284689,0.1372035145759583,-0.0582883283495903,0.1006423830986023,-0.0772568359971046,0.1407227367162704,0.0833180919289589,-0.0681120976805687, -0.1245332434773445,0.0905841588973999,0.2586607336997986,-0.1941296160221100,-0.0360556505620480,-0.1410470008850098,-0.0345183834433556,-0.0158733837306499,-0.2102904766798019,-0.0320044979453087,-0.1005627065896988,0.0356406010687351,0.0979287698864937,0.1831983625888824,-0.0043986211530864,0.0148757481947541, 
    0.1767730861902237,-0.0500057265162468,0.2573432922363281,-0.0796421468257904,0.0833976343274117,0.0809997841715813,-0.0547020621597767,-0.0294426903128624,0.0086969649419188,-0.0437616072595119,-0.0277936980128288,-0.0780489891767502,0.0786738246679306,0.1040676459670067,0.1303991526365280,-0.0775700286030769, 0.1274900883436203,-0.0615960955619812,-0.0011545824818313,0.0187249369919300,-0.0517742522060871,-0.1474293470382690,-0.1384572833776474,-0.1142253652215004,-0.1599780023097992,-0.0045510027557611,0.0537799969315529,-0.0989719927310944,0.0614120811223984,-0.0065263318829238,0.0731932893395424,0.1176574006676674, -0.0371689051389694,0.0473397299647331,-0.1643261909484863,-0.1036504954099655,0.1803442537784576,0.1943777352571487,-0.1918847560882568,0.1054074317216873,-0.1592989861965179,0.2840387523174286,-0.0867500007152557,0.1634681671857834,-0.1577144116163254,0.0861068814992905,0.2544870674610138,-0.0183504782617092, 0.3109019398689270,0.0552714280784130,-0.0726910978555679,0.0104056596755981,0.0853902027010918,-0.0355966687202454,0.1460472345352173,-0.1897231042385101,0.0314988754689693,0.1150667071342468,0.0418409183621407,0.1117350310087204,0.0620010979473591,-0.0620957873761654,-0.0738903582096100,0.0698305815458298, 
    -0.1780300885438919,0.2307239323854446,-0.0490200854837894,-0.1115287542343140,0.0413367860019207,-0.0131242256611586,-0.1669027954339981,-0.2644900381565094,-0.0998633503913879,0.0747515484690666,0.0838051065802574,0.1215404942631721,0.3635001182556152,-0.1774637252092361,0.0236857626587152,0.0582830198109150, 0.0679059028625488,0.0489907935261726,-0.0386480204761028,-0.0088006509467959,-0.1278632283210754,0.1026496812701225,0.2393069267272949,-0.1442947536706924,-0.1121301352977753,0.0131147149950266,0.0134216891601682,0.0449649542570114,0.0013345155166462,0.1510204374790192,0.0867359489202499,-0.0340320803225040, -0.1120471283793449,0.1204055920243263,-0.1750146299600601,-0.0942561253905296,-0.1838751435279846,0.0039609898813069,-0.0777691304683685,-0.0518617704510689,0.0514143742620945,-0.1477667987346649,-0.1996971368789673,-0.0032348544336855,0.2509424686431885,0.1136791333556175,0.0888099968433380,-0.0837909355759621, -0.0829380825161934,0.1496474444866180,0.0959206894040108,-0.2010160833597183,-0.0168314706534147,-0.0137099549174309,0.1006841659545898,-0.0071484511718154,-0.0873117819428444,-0.0358791500329971,0.0285834260284901,0.0123149370774627,-0.0544689930975437,-0.2894275784492493,-0.1473379582166672,0.0083891181275249, 
    0.0588678158819675,-0.0194804612547159,-0.0146815674379468,0.1759945601224899,-0.0188863482326269,0.1450830698013306,-0.0976979285478592,-0.0334439128637314,0.1088448762893677,-0.2636922299861908,-0.0487314909696579,-0.1833051592111588,0.0295283142477274,-0.0965298935770988,0.0555295459926128,0.0416923537850380, 0.1385339349508286,-0.0126309562474489,-0.0248520635068417,0.1041667088866234,-0.0101676015183330,-0.1773101538419724,-0.0992127656936646,-0.0877092033624649,-0.0962495133280754,-0.1400426775217056,0.0448617413640022,-0.0215080231428146,-0.0798614248633385,-0.0013233533827588,0.1995851993560791,-0.0098537430167198, -0.0687133818864822,-0.0270413793623447,-0.0664285942912102,0.1152484267950058,-0.1331844180822372,0.0738074481487274,-0.0529414154589176,0.0388907752931118,0.0105007681995630,-0.1075217947363853,-0.0450529195368290,0.1841222643852234,0.0399711728096008,-0.0444593094289303,-0.1561354696750641,-0.0107559710741043, -0.1977951079607010,-0.0100609613582492,-0.1164959520101547,-0.0656628012657166,0.0203267224133015,-0.0295156929641962,-0.0500625744462013,-0.1956685781478882,0.0031584915705025,0.0104866456240416,0.1058313697576523,0.1084064468741417,0.0490563884377480,0.0155234616249800,0.1480228304862976,0.1603093147277832, 
    -0.1194345131516457,0.1776950806379318,0.0304453447461128,-0.0358243547379971,0.0609029754996300,-0.2111077457666397,-0.0769061818718910,-0.0515557341277599,-0.0104961041361094,-0.0110840210691094,-0.0751237869262695,-0.0627719312906265,-0.0470809116959572,-0.0052316081710160,-0.0147776203230023,-0.0123609444126487, -0.1314268857240677,0.0883787870407104,-0.1828433722257614,-0.0209707003086805,-0.0505778789520264,-0.1624096632003784,-0.0147311268374324,0.0453269891440868,-0.0248489864170551,-0.0089180208742619,-0.1016742363572121,0.0179600268602371,-0.0403063930571079,-0.0572606474161148,-0.0667501166462898,0.0397375524044037, 0.0619415044784546,-0.0867511779069901,0.0338320508599281,-0.0743320137262344,0.1069674417376518,0.0521016456186771,0.0078780241310596,0.0025270218029618,0.1670740693807602,-0.0574002750217915,-0.0644577816128731,-0.0374347269535065,0.2109401673078537,-0.1343586444854736,0.3885019421577454,0.0634160861372948, 0.1918130517005920,0.0445322617888451,0.1228738129138947,-0.1334928870201111,0.0340709649026394,-0.0980764999985695,-0.0386491529643536,-0.0087758591398597,-0.0257204398512840,-0.1249853745102882,-0.0486717447638512,0.0040949913673103,-0.0177379343658686,-0.0854057148098946,0.1303411871194839,0.0381813757121563, 
    -0.0329177081584930,0.0750706046819687,0.1031253039836884,-0.2896055579185486,-0.0099481903016567,0.0257256161421537,0.1279631108045578,-0.1913103759288788,-0.1453415453433990,0.1676286458969116,-0.0144909946247935,-0.1456130743026733,0.1021625846624374,-0.0406420677900314,0.0150578496977687,-0.4707487821578979, -0.0810762420296669,0.0391263812780380,0.0641367137432098,0.0243103150278330,0.1766536235809326,-0.1969371587038040,0.2263849824666977,-0.0404553413391113,0.2390791475772858,-0.1145247817039490,-0.2748443782329559,-0.0572190880775452,0.0838880538940430,0.0736846774816513,0.0232369992882013,-0.0087333582341671, 0.0501961298286915,-0.1200719699263573,0.0870017856359482,0.0603387542068958,-0.0298256073147058,0.1005835160613060,0.2436549365520477,-0.1746886372566223,-0.1640983670949936,0.2111585140228271,-0.1956101059913635,-0.1028593182563782,0.0658186301589012,0.0651919320225716,-0.0343937613070011,0.2783910036087036, -0.3268094956874847,-0.0587583854794502,-0.0753372758626938,-0.0717469453811646,-0.0948380231857300,0.2379926145076752,-0.1344134509563446,0.1646426320075989,-0.2222341299057007,0.0496150217950344,-0.1110209971666336,-0.1986591368913651,0.0837696939706802,-0.1599014550447464,0.0698972865939140,-0.1346876621246338, 
    -0.1022704094648361,0.1302301734685898,0.0201830789446831,-0.0964004769921303,0.0682998597621918,-0.0549241937696934,0.1587424874305725,0.1584217101335526,-0.0718813836574554,-0.1156852692365646,-0.1400242000818253,-0.0399557352066040,0.0212425049394369,-0.1191432029008865,0.0329345837235451,0.4230840206146240, -0.0308689922094345,0.0805446729063988,0.0669609010219574,-0.1240565553307533,0.1614721864461899,-0.0397229865193367,-0.0074304589070380,0.1271419525146484,-0.0677013546228409,-0.1385257840156555,-0.0751412287354469,-0.1304943710565567,0.0683621093630791,-0.1514931470155716,0.0028100861236453,0.1105734407901764, -0.3140862882137299,0.1927280873060226,0.0866174399852753,-0.0778658464550972,0.1708843410015106,-0.0771798267960548,0.2387497276067734,-0.0273820459842682,-0.0269722994416952,-0.1322530508041382,0.0175024475902319,-0.1998025774955750,-0.0956034064292908,-0.0310876704752445,0.0397771485149860,0.1369255781173706, -0.0088008726015687,0.0928560346364975,0.1201700568199158,-0.0589695684611797,0.0742420107126236,-0.2886217534542084,-0.1916337311267853,-0.1743781715631485,0.3392179906368256,-0.0635917037725449,-0.0728326812386513,0.0600978694856167,-0.0625639706850052,0.0922416672110558,-0.2094564437866211,0.0675566419959068, 
    -0.0670338720083237,-0.2093392014503479,-0.0664634555578232,0.1959116309881210,0.0310438647866249,0.0076268846169114,0.1642050594091415,0.0193996038287878,-0.1796613782644272,-0.0597044788300991,0.0265230983495712,0.1191902905702591,-0.3822203278541565,0.3378601372241974,-0.1067518070340157,0.2888302206993103, -0.3092923462390900,-0.1926667094230652,-0.0141210667788982,0.2251794189214706,-0.1781981587409973,-0.4085194170475006,0.0880601853132248,-0.1117141172289848,0.3235633969306946,-0.0803129822015762,0.1887630671262741,-0.0385875925421715,0.1798022836446762,-0.0534458346664906,-0.1295908242464066,-0.0777843520045280, -0.0654354989528656,-0.1777599751949310,-0.0638939961791039,0.0176162496209145,-0.1511016637086868,-0.0689900889992714,0.0882042497396469,-0.0371526740491390,-0.1841539293527603,-0.1932286024093628,0.0439552105963230,-0.1088663786649704,0.1958499252796173,-0.0090533858165145,-0.0804488509893417,-0.2405947297811508, -0.0475945174694061,-0.6589110493659973,0.2246629893779755,0.0212813597172499,-0.3203825354576111,-0.0757866054773331,-0.0717910528182983,0.0750807374715805,-0.3471343517303467,-0.0157684087753296,-0.0413894765079021,-0.0321107469499111,0.1142143234610558,-0.1607771664857864,-0.0635187104344368,-0.0914107412099838, 
    -0.2332227826118469,-0.0284878704696894,-0.3023777306079865,-0.2995139956474304,-0.2314976751804352,0.0214060395956039,-0.0834021866321564,0.0851880982518196,-0.2304719239473343,-0.1238549500703812,-0.1049085557460785,-0.0193341635167599,0.2219447493553162,0.2046199440956116,-0.3574564456939697,0.0140718510374427, 0.2058505564928055,0.0038056622724980,-0.0336683429777622,0.0005303425132297,0.0219732206314802,0.0916120633482933,0.3742682337760925,-0.1028247624635696,-0.0757900401949883,0.0623364672064781,0.1084700226783752,-0.0482954978942871,0.0384275987744331,-0.3698539733886719,0.1275842338800430,-0.1164079979062080, -0.0707487538456917,0.1211814880371094,0.1198588982224464,0.2254535555839539,-0.3664198517799377,0.0149808581918478,0.1507129222154617,0.0658811405301094,-0.0454952195286751,0.0809907317161560,-0.0207222849130630,0.0306631941348314,-0.0945806577801704,0.5358731746673584,-0.1865912377834320,-0.0853623002767563, -0.0765698701143265,0.1051954478025436,-0.1580289453268051,0.1240042373538017,-0.1146782189607620,-0.2974278032779694,-0.1153521612286568,-0.0505782365798950,-0.0114173181355000,0.1053626239299774,-0.0833419337868690,-0.0015653657028452,0.0449684411287308,0.0872889980673790,0.0055605149827898,-0.0759068205952644, 
    -0.2188393920660019,-0.4000800251960754,0.3918939530849457,-0.1298827826976776,0.1075959801673889,-0.1363613456487656,0.1831594705581665,0.2557156085968018,0.2268265485763550,0.2713584303855896,-0.2952989339828491,0.2925834357738495,0.0425545200705528,0.1138439401984215,0.1610191315412521,0.9559882283210754, 0.3891098201274872,0.3280866146087646,0.1308258622884750,-0.1806241273880005,-0.4164046347141266,-0.0303141847252846,0.1112162321805954,0.0804532319307327,-0.0049474453553557,-0.1725915819406509,-0.2230628728866577,-0.0468336455523968,-0.1930345594882965,0.0530356168746948,0.2353114038705826,-0.0930669531226158, -0.0068992790766060,-0.2202512770891190,0.2473269402980804,0.2424443066120148,0.0678144246339798,-0.0401034764945507,0.1286835521459579,-0.0863844081759453,-0.1350753158330917,0.2628782093524933,-0.2170456498861313,-0.1734984964132309,-0.0481674820184708,-0.0981746390461922,0.0421205833554268,-0.0737363696098328, -0.1162151694297791,-0.1879661232233047,0.1471571922302246,0.2256650924682617,0.1338957995176315,-0.0661436468362808,0.0708340033888817,0.0204926915466785,0.2562061846256256,0.2182419449090958,-0.1013555973768234,-0.0519635267555714,0.4835367500782013,0.1160502731800079,-0.2073138803243637,-0.1113100200891495, 
    0.0744557380676270,0.2223352193832397,0.0502287223935127,-0.2242146432399750,-0.1545594036579132,-0.2363180071115494,-0.1222988739609718,-0.6208294630050659,0.0146329915151000,-0.2016517817974091,0.1301292032003403,-0.2429598271846771,-0.2252487093210220,0.1148211881518364,-0.2663983106613159,0.0882013812661171, -0.0894790366292000,0.1346593797206879,0.0954394042491913,0.1908129006624222,0.3153880834579468,-0.0197620224207640,0.0351910144090652,0.2379240691661835,0.1635813415050507,-0.2503397762775421,0.3663334846496582,0.3794072866439819,0.1699618399143219,-0.1566538512706757,-0.1967535763978958,-0.0601752363145351, -0.4458754956722260,0.2320904284715652,-0.2159235626459122,0.1026738286018372,-0.0899752750992775,-0.1010135710239410,0.1128966957330704,-0.1413348764181137,0.2127014994621277,-0.1384209841489792,0.3861987590789795,0.1806972175836563,-0.2717109322547913,-0.0117673911154270,0.0094319004565477,-0.0842245742678642, -0.1780631393194199,-0.0397111028432846,0.1546480953693390,-0.0341892130672932,0.1070734411478043,0.0416513606905937,0.0254482682794333,0.1617107987403870,-0.3465618193149567,-0.1205257773399353,-0.0438895002007484,0.0651826635003090,-0.2734737694263458,0.1171417087316513,0.3170448839664459,-0.0755234733223915, 
    -0.3354397416114807,0.0556654334068298,-0.0877891853451729,-0.0723027586936951,-0.3086970150470734,-0.1458612978458405,0.4014125168323517,-0.3830009102821350,0.1983656138181686,0.0708551332354546,0.0551107563078403,-0.1499060690402985,-0.1816355586051941,0.5149498581886292,0.3547013998031616,-0.1821456700563431, 0.1261692494153976,0.1984932720661163,0.1669745743274689,0.3550611138343811,0.0926000624895096,0.3854622840881348,0.1828416436910629,-0.1837217211723328,-0.2419044226408005,0.1508911252021790,0.2734063565731049,-0.1536229699850082,-0.1761455088853836,-0.0087679559364915,-0.0522777661681175,0.2335962653160095, -0.0710214599967003,-0.2646472752094269,0.3271702826023102,-0.0116354534402490,0.1118489429354668,-0.1219298616051674,0.2625328600406647,0.0976289808750153,-0.0211406741291285,0.2269163727760315,-0.3161485791206360,0.0318164750933647,-0.0988205298781395,0.1295432895421982,-0.2902800440788269,-0.0250033866614103, -0.1574621051549911,-1.0492645502090454,0.1584949642419815,-0.1538892239332199,0.2216238677501678,-0.0618984177708626,0.1072544455528259,0.1084627807140350,-0.2063041478395462,0.2229731529951096,-0.2824307680130005,-0.1881915926933289,0.0544787198305130,-0.0355097949504852,-0.1704217791557312,0.0130623206496239, 
    -0.0752305835485458,-0.5638636350631714,-0.1729134172201157,-0.1124454736709595,-0.2223979532718658,0.0704293176531792,0.0203290153294802,0.0351259820163250,-0.2848574817180634,-0.0418890938162804,0.0438340008258820,-0.0656529366970062,0.5115717649459839,-0.0562645904719830,-0.0825002789497375,0.2555425465106964, -0.0700223445892334,-0.1252374947071075,0.1610522121191025,-0.0097315898165107,0.0193566624075174,0.4243805408477783,0.0916870310902596,-0.0976453423500061,0.1068030819296837,0.1044174805283546,0.0876776054501534,-0.0678445622324944,-0.1056139394640923,0.2123496681451797,-0.2564689218997955,-0.4195530712604523, 0.0538521185517311,0.2303918153047562,-0.2087893038988113,-0.1191865280270576,0.1073722541332245,0.2815416157245636,-0.4466392695903778,0.1729597598314285,-0.0806390196084976,0.0974340066313744,0.0412844642996788,0.0934070646762848,-0.2061768174171448,0.3713734745979309,-0.2771237194538116,-0.0733152255415916, 0.0266278758645058,0.2311389744281769,0.3218958079814911,-0.1309652477502823,0.1176318153738976,-0.0573505945503712,-0.1852329820394516,-0.0377184376120567,-0.2539016604423523,-0.1384127885103226,-0.0018377456581220,-0.1079373210668564,0.4843352735042572,0.0736699700355530,0.1098218485713005,-0.1038916707038879, 
    0.2004646062850952,0.1638224869966507,-0.1880697011947632,0.1501211673021317,0.2122931629419327,-0.1741550713777542,-0.0958371013402939,0.2639476060867310,-0.0731826350092888,0.1258066147565842,-0.0688803344964981,0.0180414430797100,-0.1551354229450226,-0.5502672791481018,-0.1077943965792656,0.3587292730808258, -0.0280200876295567,0.1511713862419128,0.0646780878305435,0.1197788268327713,-0.0558574721217155,0.1370699554681778,-0.0261533521115780,-0.0355304442346096,-0.0121172796934843,-0.1500239223241806,0.0736288055777550,-0.0704763978719711,-0.0033017182722688,-0.1623643189668655,-0.1167406141757965,0.0434451103210449, -0.2342527806758881,0.2152005285024643,-0.9918748736381531,0.0716865509748459,0.1332143396139145,0.0464978255331516,0.0156143531203270,0.0680264607071877,0.1988355815410614,0.2622185945510864,0.1213267073035240,0.0733644366264343,0.0674474164843559,-0.1983297020196915,0.4473591446876526,0.0038960615638644, 0.1099128574132919,0.0438408479094505,-0.0166533365845680,-0.0350774340331554,-0.0442881993949413,-0.1052688732743263,-0.0115521410480142,0.1902013570070267,-0.0444535575807095,0.0750951319932938,-0.2052775919437408,0.0231947842985392,-0.1450876593589783,0.0867368802428246,-0.1092976033687592,0.1778948009014130, 
    -0.1024796217679977,0.0117322364822030,0.0363092422485352,-0.3492212295532227,-0.1270268261432648,0.3700734972953796,0.1422414183616638,0.2052343189716339,0.0445701442658901,0.2266556620597839,-0.0094319209456444,-0.2695310413837433,0.0328722782433033,0.0661893486976624,0.0490676239132881,-0.0614571534097195, 0.0401437804102898,0.0103358523920178,-0.0086319912225008,-0.0060997526161373,0.1433503031730652,-0.0325911603868008,-0.0835496336221695,-0.0093201883137226,0.0567993335425854,-0.0192108172923326,0.0510668270289898,0.1638691574335098,-0.0097630554810166,0.0808687806129456,-0.2234126031398773,0.1237059161067009, 0.0429526977241039,-0.1869587749242783,0.3420941233634949,0.0159873683005571,-0.1732455193996429,0.0663870424032211,-0.4592063724994659,0.1675552725791931,-0.1775226444005966,-0.0392234809696674,-0.0205797571688890,-0.1784932613372803,-0.0597243607044220,-0.1177468746900558,-0.2349186539649963,-0.1273561120033264, -0.0359055474400520,-0.3305373191833496,0.1462755799293518,-0.2761049866676331,0.1002137586474419,0.1180827245116234,0.1133952587842941,0.0132435662671924,0.1060045510530472,-0.1247289627790451,-0.0492945238947868,0.0873006954789162,-0.2079968899488449,0.0602515600621700,0.2395029217004776,-0.1352541893720627, 
    0.0252579115331173,-0.0622757449746132,-0.1155191510915756,0.0095673762261868,0.2282947450876236,-0.1837289184331894,0.2098618000745773,0.2425164282321930,0.2071875333786011,-0.0423258654773235,0.1215800791978836,-0.2211700975894928,0.2533731460571289,-0.2642615139484406,-0.1669356822967529,-0.0271653756499290, -0.0497405715286732,0.4061828851699829,-0.0815772265195847,0.1014231890439987,-0.0539616793394089,-0.0178455803543329,-0.0534149780869484,-0.1359462887048721,-0.2715366482734680,-0.0171669684350491,0.0495530515909195,-0.2839536964893341,0.0072996304370463,-0.2958453595638275,0.0515479855239391,-0.1211838126182556, -0.0448911860585213,0.1577339321374893,-0.2254225760698318,-0.2669016122817993,0.1060085296630859,0.0358660109341145,-0.0641159713268280,0.0469578914344311,-0.0395580641925335,0.0783664286136627,0.0441224910318851,-0.1656036078929901,0.0572852380573750,-0.0544466562569141,0.2231283485889435,0.0226800777018070, 0.1150800585746765,-0.2130348682403564,-0.1119843721389771,-0.1227252334356308,-0.0955257937312126,0.2480934262275696,-0.0111157353967428,0.1311787962913513,0.1526826024055481,-0.0223417356610298,0.0739590153098106,-0.0481651462614536,-0.0804295837879181,-0.0389968454837799,-0.0625433549284935,0.0543623231351376, 
    -0.3783554732799530,-0.2213269472122192,0.0566003434360027,0.1069133505225182,-0.1928440928459167,0.0262646768242121,0.1139844879508018,-0.0577131509780884,0.0568569041788578,0.0130691332742572,-0.0964337214827538,0.0457795709371567,0.0341121889650822,-0.2546681463718414,0.1275185793638229,0.2017956674098969, -0.0477132201194763,-0.2299161255359650,0.0444511510431767,-0.0433127358555794,-0.1203790009021759,-0.2645773887634277,0.0285142175853252,-0.1575172841548920,0.0052798818796873,0.0491629466414452,0.0538714528083801,0.0105630606412888,-0.2005243599414825,-0.0291840154677629,0.0889622941613197,0.0987731963396072, 0.0345212593674660,-0.1193191856145859,-0.0147288320586085,-0.0228357277810574,-0.0712287127971649,-0.1548950672149658,0.1131501048803329,0.2758660912513733,0.1175094470381737,0.0173021890223026,-0.1270108819007874,-0.0371842570602894,-0.0399581193923950,0.0659863948822021,0.3494960963726044,-0.0086737563833594, 0.0361396707594395,0.0296336356550455,0.1750188916921616,-0.1519836783409119,0.0162350311875343,-0.1338425129652023,-0.1135003790259361,0.0374445058405399,0.0949324071407318,0.0364654883742332,-0.0947682112455368,0.0463851653039455,0.1055105850100517,0.1499112248420715,0.0958667322993279,-0.0349789112806320, 
    0.0119640482589602,-0.0166406221687794,-0.0355323478579521,0.1206061542034149,-0.1953788399696350,-0.1345187425613403,-0.2710676789283752,0.2432325333356857,-0.0854752436280251,-0.0748339444398880,0.0688332170248032,0.0879098773002625,0.0928065180778503,-0.0478774271905422,-0.0570105016231537,0.1914014518260956, 0.1197669059038162,-0.0475662164390087,0.0277559943497181,-0.0130590777844191,-0.1289554685354233,0.0296635199338198,0.0097988396883011,0.0873291045427322,0.3005311191082001,-0.0435284301638603,-0.0710076913237572,-0.0204364862293005,-0.0553197301924229,-0.0373280048370361,0.2277362346649170,-0.0861263275146484, -0.0335569679737091,0.0071173124015331,-0.0009998778114095,-0.0385203212499619,-0.0934615582227707,0.0114846546202898,0.0765226408839226,-0.0114618586376309,-0.0940322130918503,0.0047848355025053,0.0587064437568188,-0.1494884043931961,-0.0957998186349869,0.2229097187519073,-0.1365591734647751,0.1728390902280807, 0.0335129462182522,0.0428050272166729,0.0509153790771961,0.0379510596394539,-0.0178432818502188,0.1240853592753410,0.1084208562970161,0.0035838780459017,-0.1191760227084160,-0.3277745246887207,-0.0355614908039570,-0.2248533219099045,-0.1414517760276794,0.0640492141246796,0.1741104423999786,0.0384984835982323, 
    0.0327945612370968,0.1210531443357468,0.0604318268597126,-0.1682498455047607,-0.1201471760869026,0.2245749533176422,-0.1314784586429596,-0.1008907631039619,-0.1534835845232010,-0.1206128746271133,-0.2142660170793533,-0.0132634229958057,-0.1433206051588058,0.2265839576721191,0.0331619083881378,-0.2093234360218048, 0.0555090308189392,-0.0903691351413727,0.1263573616743088,-0.0148489847779274,-0.0930994451045990,-0.0715782493352890,0.1449358016252518,-0.0363432206213474,-0.1212989315390587,0.0707705989480019,-0.0273582674562931,-0.0371941514313221,-0.0268990211188793,-0.0671620443463326,0.0596896111965179,-0.1522596776485443, -0.0540218725800514,-0.0514514185488224,0.2101804465055466,0.1000214070081711,-0.0574509575963020,0.0025572804734111,-0.0489990860223770,-0.0471749305725098,-0.1490073055028915,0.0434097945690155,-0.1229142695665359,-0.0924522653222084,-0.0135353617370129,-0.2028246372938156,-0.0518477670848370,-0.1171858832240105, 0.0007695676176809,-0.1972276717424393,0.0029564294964075,0.0754513815045357,-0.0537735819816589,0.2086908072233200,0.0307790040969849,0.1193686425685883,-0.1628971099853516,0.0022039418108761,0.1920519322156906,0.1291958838701248,-0.1244471892714500,-0.1340852081775665,-0.1556957662105560,0.1235789656639099, 
    -0.0044715465046465,-0.0260666087269783,0.1467585265636444,0.0128453513607383,-0.0823976099491119,-0.1707710772752762,-0.1588797867298126,-0.0293543972074986,-0.1192563101649284,-0.0611195191740990,0.0718725472688675,0.0444633997976780,0.0957413017749786,-0.1960238367319107,0.0240818299353123,-0.0480349957942963, -0.0652994811534882,0.0613018907606602,-0.0920564010739326,-0.0111955646425486,-0.0735834836959839,-0.0622859746217728,0.0051317238248885,0.1026467084884644,0.2248782068490982,-0.2628534138202667,0.1386217027902603,0.2451450377702713,0.0580524057149887,0.0073491157963872,0.0677551999688148,-0.0949436277151108, -0.0107182841747999,0.0337228961288929,-0.1105274632573128,-0.1475829035043716,0.0133261531591415,0.1065121889114380,0.0082426089793444,-0.2667810320854187,0.0844890177249908,-0.1486541330814362,0.0867980420589447,0.1195300891995430,-0.0313152074813843,-0.0572645887732506,0.0448432601988316,0.1734046489000320, 0.0121951168403029,0.2273150086402893,0.0990521609783173,0.0550243407487869,-0.0612697005271912,-0.1683522760868073,0.1213394924998283,-0.0726550966501236,-0.0293549261987209,-0.1659870743751526,0.0168997850269079,0.0877104401588440,0.2721689939498901,-0.4388065934181213,-0.0915758162736893,-0.0231107920408249, 
    -0.2847678363323212,0.0091180726885796,-0.1650844961404800,0.0283044185489416,0.0206628590822220,-0.0847065672278404,-0.1033711507916451,-0.0802335217595100,-0.0624029077589512,-0.1719952672719955,0.0336383692920208,-0.0817446112632751,-0.0043347869068384,0.1867621392011642,0.0502996183931828,-0.1201890036463737, 0.1321496218442917,-0.1297107636928558,0.1155429109930992,-0.0295177418738604,0.0626711621880531,-0.1081474721431732,0.2189140319824219,-0.0366330407559872,-0.0326425880193710,-0.0161970276385546,0.0265044234693050,-0.1087529137730598,-0.0190447792410851,-0.0556839294731617,-0.0329553820192814,-0.0108529813587666, 0.1070856079459190,-0.0753303840756416,0.2330440729856491,-0.1275107264518738,-0.1892447024583817,-0.1256609559059143,0.0203174930065870,0.0638692900538445,0.1604100018739700,0.1361071467399597,-0.1208712756633759,0.0372305475175381,-0.0216135419905186,0.3578442931175232,-0.0904160887002945,-0.1445161849260330, -0.1505561470985413,-0.0439922027289867,-0.0247748792171478,0.0848891362547874,0.0513998530805111,0.1589653044939041,-0.0003475825651549,0.0383524037897587,-0.1249711364507675,-0.2005844861268997,0.0720970481634140,-0.0005939776310697,-0.0706073492765427,-0.1407299935817719,0.0299627427011728,0.1136663109064102, 
    0.0815731957554817,-0.0435508787631989,-0.2562917470932007,0.0064125405624509,-0.0461699366569519,0.1964033395051956,-0.1910998821258545,-0.2282165735960007,-0.0438480488955975,-0.0490582957863808,0.0264722630381584,-0.1659971177577972,0.1226257011294365,0.1581728756427765,-0.4247716665267944,-0.4316994845867157, -0.1958976984024048,0.0969740152359009,0.0059621138498187,0.0309026166796684,-0.0737855210900307,-0.0605157762765884,0.0024988783989102,0.0126573219895363,0.0024309405125678,-0.0003274893388152,-0.0742101520299911,0.0544909201562405,-0.1171734780073166,0.1395827829837799,0.0226303096860647,0.0079891812056303, -0.1140949055552483,-0.0271944291889668,0.0720798894762993,0.3108873367309570,0.0159123893827200,-0.1695712506771088,-0.0388168990612030,-0.0151515733450651,-0.2938031852245331,-0.0276262480765581,0.1338917165994644,0.1782743930816650,-0.0389479994773865,0.0772067606449127,-0.1261728405952454,-0.1045076549053192, 0.2135996818542480,0.2963324189186096,-0.0597860775887966,0.1724555790424347,-0.1320177018642426,0.1785143017768860,-0.1814694553613663,-0.0943221226334572,0.0590678341686726,-0.2324758917093277,-0.0872668847441673,-0.0634911581873894,0.1402362734079361,0.0035077689681202,0.0041122860275209,0.1941866129636765, 
    0.0344251990318298,0.1876997798681259,-0.1417787224054337,-0.0529508665204048,0.0177888758480549,0.0026195631362498,0.3623940646648407,0.1907893270254135,-0.0366006568074226,0.2961347401142120,0.0108891669660807,0.0844657123088837,-0.2957761287689209,-0.0912782400846481,0.0340089388191700,0.1253420263528824, 0.0991575717926025,-0.1500251591205597,0.0912138298153877,-0.0181505177170038,0.0323859006166458,0.2241065204143524,0.0743701830506325,-0.0856274142861366,0.0043774787336588,-0.0071415719576180,0.0017607586923987,-0.1086246892809868,0.2278621792793274,0.0901101455092430,0.0535765513777733,-0.0699984803795815, -0.0763762295246124,-0.0278123728930950,-0.1374498754739761,-0.1697828322649002,-0.2410329729318619,0.1508295089006424,0.0413833409547806,0.1830170899629593,-0.0568674616515636,-0.0395617298781872,0.1605635136365891,0.0000087269254436,0.0810096859931946,-0.0268836729228497,-0.0715123489499092,0.2257166355848312, -0.0014266478829086,0.1091222763061523,0.2763024270534515,0.0375470593571663,0.1410333663225174,0.0072009870782495,-0.0820102766156197,0.1130331456661224,-0.2596918940544128,0.3680086135864258,-0.1441335082054138,0.1512158364057541,0.0632457733154297,-0.1289600133895874,-0.0239693094044924,-0.0755910500884056, 
    0.1044647991657257,-0.1127108111977577,0.0742520391941071,0.0639538839459419,-0.1364147365093231,-0.0278452411293983,-0.1399204432964325,0.2784890234470367,-0.2201107293367386,0.0014376422623172,0.1261498481035233,-0.1247041970491409,-0.2303806096315384,0.0425361022353172,-0.0960937961935997,-0.1815907955169678, -0.0750623196363449,-0.0142483720555902,-0.0178784951567650,-0.0584332495927811,0.0574056766927242,0.0759046524763107,-0.0362865030765533,-0.0462523102760315,0.0687225088477135,-0.2080455422401428,-0.2318178564310074,-0.0726642087101936,0.3167002797126770,-0.0767177045345306,-0.0881855860352516,0.0590229481458664, 0.1129608973860741,-0.0652779489755630,0.0561135299503803,-0.0241573434323072,0.2499233037233353,-0.0439478345215321,0.1476396769285202,0.0974217057228088,-0.0241416357457638,0.3258978426456451,-0.4621813893318176,0.2320890128612518,-0.0672435089945793,-0.2067757397890091,-0.1430984586477280,0.0043349214829504, -0.0697470307350159,0.2321290969848633,0.0965754240751266,0.2174303680658340,-0.0845984369516373,0.1617104709148407,-0.2481762468814850,-0.1070342287421227,-0.0730159655213356,0.1370415836572647,-0.0302251055836678,-0.2314860671758652,-0.1372090876102448,-0.1742094308137894,-0.1067313402891159,-0.3790873587131500, 
    -0.3495737016201019,0.0595081597566605,-0.3192266225814819,0.0244316663593054,-0.2647269666194916,0.0243924595415592,-0.4993122220039368,-0.0915616005659103,0.1351604163646698,-0.1538936793804169,-0.2260099053382874,-0.1273860484361649,-0.2565363049507141,-0.0097459377720952,-0.0185106173157692,-0.0524045601487160, 0.0470520406961441,-0.1462315022945404,-0.0328058786690235,-0.2542710304260254,0.2595972716808319,-0.1078024283051491,-0.1181910112500191,-0.0611724667251110,-0.0948545932769775,-0.1300699114799500,0.0877934992313385,0.0825444981455803,-0.3653071522712708,-0.1159569695591927,-0.0348262637853622,-0.0957687422633171, 0.1733620464801788,-0.1643370240926743,-0.0752913206815720,0.1347340345382690,0.0656896457076073,-0.2200115323066711,0.0169694535434246,0.0821862965822220,0.1015946939587593,0.0676483958959579,-0.0447810590267181,-0.0935861468315125,0.0426611825823784,0.1123342514038086,-0.0464628525078297,-0.2030570954084396, 0.1651351004838943,-0.1991675049066544,-0.0099022816866636,0.2849749326705933,-0.0591459758579731,-0.1929800063371658,-0.0472643934190273,0.0479192845523357,-0.0837826579809189,0.1051614731550217,0.0691604614257812,0.1877252012491226,0.2782741487026215,-0.1949436962604523,0.0015928996726871,0.0484849028289318, 
    0.0769963115453720,-0.0613472089171410,-0.1491233408451080,-0.1099350675940514,0.0587296374142170,0.0251194182783365,0.1328753679990768,-0.0452027060091496,0.2108579874038696,0.0305243916809559,0.0046890387311578,-0.2101819813251495,-0.1994265615940094,0.1010351628065109,0.5569025278091431,-0.3144665062427521, -0.1683560609817505,0.0030932726804167,-0.1647853255271912,-0.0003509002272040,-0.0667054951190948,0.2200130373239517,-0.0516811013221741,0.0292137525975704,0.1835822612047195,-0.1109995171427727,0.2086427807807922,-0.0209745895117521,0.1276083141565323,-0.0533435083925724,-0.0032425487879664,0.0683360919356346, -0.1864038705825806,0.0165662989020348,-0.0488956682384014,-0.0153512852266431,-0.0235369224101305,-0.0145505843684077,-0.0173839498311281,-0.0907464250922203,-0.1201626285910606,-0.0603120923042297,0.0652821362018585,0.1012448891997337,0.0660736858844757,-0.1003770679235458,-0.0489336960017681,-0.2438687384128571, -0.1445056796073914,0.1106163188815117,-0.0092492094263434,0.0412899442017078,-0.0960058644413948,0.0294550489634275,-0.1975658684968948,-0.1197390705347061,-0.2530917823314667,-0.1585791260004044,0.0379120036959648,-0.0545626319944859,-0.1231669262051582,0.0308206696063280,0.0223998818546534,-0.1297578960657120, 
    -0.0655505955219269,0.0596943497657776,-0.1898400634527206,-0.0669943019747734,0.0620926916599274,-0.2699524760246277,-0.0210326462984085,-0.0196340642869473,-0.1571995764970779,-0.2119420468807220,-0.3458395898342133,0.2174158841371536,0.0422618687152863,-0.1147909015417099,0.1503390669822693,0.0818282887339592, -0.0462751165032387,-0.0867139026522636,0.1111874580383301,0.0935514271259308,-0.0098298648372293,-0.0845700725913048,-0.0734221562743187,0.0857466235756874,0.1406754255294800,0.3167072832584381,-0.0067550130188465,0.0106154913082719,0.0347389988601208,0.0685004144906998,-0.1983510255813599,0.0179250929504633, -0.0179918128997087,-0.0821196064352989,0.0647374913096428,-0.0502499751746655,-0.1018071547150612,-0.0849481150507927,-0.0124103799462318,-0.1430548429489136,-0.0160008184611797,0.0973308309912682,-0.0397349707782269,-0.1339930444955826,-0.0672484040260315,-0.0252381637692451,-0.1431783586740494,-0.0629890337586403, -0.0123862475156784,0.2020634114742279,0.2371166795492172,0.0025295689702034,-0.1535065174102783,-0.0326876118779182,0.0469858162105083,-0.0063881147652864,0.0504077374935150,0.2487214356660843,0.0804338827729225,-0.0228144638240337,-0.1986591517925262,0.2256969809532166,0.0163792762905359,0.0209483671933413, 
