//MIT License
//
//Copyright (c) 2016 Drake Levy
//
//Permission is hereby granted, free of charge, to any person obtaining a copy
//of this software and associated documentation files (the "Software"), to deal
//in the Software without restriction, including without limitation the rights
//to use, copy, modify, merge, publish, distribute, sublicense, and/or sell
//copies of the Software, and to permit persons to whom the Software is
//furnished to do so, subject to the following conditions:
//
//The above copyright notice and this permission notice shall be included in all
//copies or substantial portions of the Software.
//
//THE SOFTWARE IS PROVIDED "AS IS", WITHOUT WARRANTY OF ANY KIND, EXPRESS OR
//IMPLIED, INCLUDING BUT NOT LIMITED TO THE WARRANTIES OF MERCHANTABILITY,
//FITNESS FOR A PARTICULAR PURPOSE AND NONINFRINGEMENT. IN NO EVENT SHALL THE
//AUTHORS OR COPYRIGHT HOLDERS BE LIABLE FOR ANY CLAIM, DAMAGES OR OTHER
//LIABILITY, WHETHER IN AN ACTION OF CONTRACT, TORT OR OTHERWISE, ARISING FROM,
//OUT OF OR IN CONNECTION WITH THE SOFTWARE OR THE USE OR OTHER DEALINGS IN THE
//SOFTWARE.

#define CONST_SCALING   3    
    
static const float fx3_paramFeatureBias[16] = {
    -0.0217337850000000,0.0025456230000000,-0.0279829320000000,-0.1282358600000000, -0.0031684786000000,-0.0022991255000000,0.0499236700000000,0.0220620560000000, 0.0039416226000000,-0.0162065800000000,0.0174767020000000,0.0117077770000000, -0.1224012000000000,0.0468191700000000,0.0185590130000000,0.0410794500000000
};

static const float fx3_paramFeatureWeights[25*4*4] = {
    -0.0120521467179060,0.0007604779675603,0.0157412942498922,0.0054834280163050, -0.0361767224967480,0.0039341598749161,0.0147675955668092,0.0720597505569458, -0.0102296965196729,0.0802849382162094,0.0165114980190992,0.0003351909399498, 0.0008544626180083,-0.0064804521389306,0.0066586174070835,-0.0067107197828591, 
    0.0722173526883125,-0.0226263087242842,0.0099070155993104,-0.0175888016819954, -0.0161571707576513,-0.0221203304827213,0.0188608728349209,-0.0616079568862915, -0.0510359331965446,0.0849250629544258,-0.0110226925462484,-0.0792248621582985, 0.0236878283321857,0.0348537378013134,-0.1285046339035034,0.0114079564809799, 
    0.0396334491670132,0.0632886365056038,0.0090281674638391,-0.0040604462847114, -0.0718525275588036,0.1758781075477600,0.0364969559013844,0.2335183173418045, -0.1214098632335663,-0.1402347534894943,0.0091298678889871,0.0184922125190496, 0.0302023421972990,-0.0486175231635571,0.0522358380258083,-0.0068952483125031, 
    -0.0832125991582870,0.0416408777236938,0.0498776324093342,-0.0158133096992970, 0.0443188063800335,-0.0132136931642890,0.0291199404746294,-0.1240965202450752, 0.0478152744472027,0.0491608306765556,-0.0053687407635152,-0.0391981191933155, 0.0389673598110676,-0.0101140597835183,0.1351130604743958,-0.1342007666826248, 
    0.0732574015855789,0.0067438883706927,0.0026470110751688,0.0083549413830042, 0.0045639369636774,0.0089845480397344,-0.0072045237757266,-0.0682527497410774, 0.0370544269680977,-0.0630565658211708,0.0048534860834479,0.0016637828666717, -0.0143743446096778,-0.0000750177641748,0.0193907152861357,-0.0580395199358463, 
    0.0155529584735632,-0.0470408350229263,-0.0106976917013526,0.0002293850266142, 0.0638144761323929,-0.0244575869292021,-0.0341294221580029,-0.0315587781369686, 0.0783589705824852,0.1056309267878532,-0.0545507669448853,0.0442286841571331, -0.0253870319575071,0.0500562228262424,-0.1311348080635071,0.0634773224592209, 
    -0.0212126970291138,0.1596530973911285,-0.1310532242059708,-0.1118117794394493, 0.1357818692922592,0.0938678085803986,0.0681803002953529,-0.1373114883899689, 0.0842602252960205,-0.0263206232339144,-0.0130506902933121,-0.0053181727416813, 0.1362990289926529,-0.0353935286402702,0.0961475968360901,-0.1866359561681747, 
    -0.0535300783813000,-0.0243808086961508,-0.2707147896289825,-0.2347218692302704, -0.0326779782772064,-0.5133457779884338,-0.3139010369777679,-0.0502480529248714, 0.3296031653881073,0.2532705962657928,0.1118465438485146,-0.1342693716287613, 0.2626515328884125,-0.0460237637162209,0.0643776953220367,-0.1811299622058868, 
    -0.0119976000860333,-0.2239800691604614,-0.0938881784677505,-0.0360641479492188, -0.1965128779411316,0.0199284125119448,0.0236809439957142,0.0916041359305382, -0.0743810161948204,-0.1747347563505173,-0.0942941009998322,0.0803952664136887, 0.0189786907285452,0.0348169803619385,-0.1433927416801453,0.3697485625743866, 
    -0.1006934940814972,0.0364385396242142,0.0032170771155506,-0.0208882484585047, 0.0009541288018227,-0.0009915891569108,-0.0068894182331860,0.2368853092193604, 0.0664756968617439,0.1082745268940926,0.0276307463645935,-0.0375859402120113, 0.0243466384708881,-0.0631922483444214,0.0244844909757376,-0.0635936483740807, 
    -0.1519123911857605,0.1365020424127579,0.0557376779615879,0.0248368270695210, -0.0401076003909111,-0.0077264523133636,-0.0664676427841187,0.1079069450497627, -0.1105508580803871,0.0088479984551668,-0.0475883670151234,0.1000648736953735, -0.0262941382825375,-0.2031510770320892,0.0033888325560838,-0.0793608129024506, 
    0.0215111859142780,-0.4417504668235779,-0.0282471179962158,0.1027907580137253, 0.3751886785030365,-0.1021137908101082,0.1103042885661125,0.1017166450619698, -0.0734518989920616,-0.0635453909635544,0.3851176202297211,-0.7950500845909119, 0.0582631267607212,0.1930226981639862,0.0638388097286224,-0.0171502977609634, 
    0.0289882309734821,0.4272189438343048,0.6424557566642761,0.5648670792579651, 0.0688082128763199,0.7579216957092285,-0.5550243258476257,0.1256601810455322, -0.2236360460519791,-0.2657299041748047,0.1169415861368179,0.5496134161949158, 0.8208497166633606,-0.3690672814846039,-0.2961656451225281,0.4145323932170868, 
    0.5528052449226379,-0.1423137933015823,-0.3660861551761627,0.0759710520505905, -0.1971374899148941,-0.1277531534433365,0.0733531191945076,-0.0831774920225143, -0.2426817566156387,0.4119971692562103,-0.4718991816043854,0.3760927617549896, 0.0139757283031940,0.4827655255794525,0.3910166323184967,-0.2128338068723679, 
    -0.2048524022102356,-0.0096693551167846,-0.0045253532007337,-0.0021914998069406, -0.0431494824588299,0.0782695338129997,-0.0430186912417412,-0.3554679751396179, -0.0123272044584155,-0.2354433536529541,0.0618283562362194,-0.0532926321029663, 0.0111284339800477,-0.0182698629796505,-0.0666892826557159,0.0338597632944584, 
    -0.0172680579125881,-0.0251106508076191,-0.0174272619187832,0.0016109279822558, 0.0474555790424347,0.0441529490053654,-0.0264584943652153,0.0490811131894588, 0.0539502538740635,-0.0344878174364567,-0.0350028946995735,0.0256662610918283, -0.0097405901178718,0.1891414523124695,0.2381251901388168,-0.0716119930148125, 
    0.0055438154377043,-0.1057609841227531,0.0629968941211700,0.0509218834340572, -0.0684320330619812,-0.1316027939319611,0.0027381784748286,0.0475208237767220, -0.0796213448047638,0.1212454885244370,0.0786877647042274,0.0826370641589165, -0.0896894708275795,-0.0473081842064857,-0.1442716121673584,0.0072057321667671, 
    -0.1401608288288116,0.1288126409053802,-0.0697783231735229,0.4936180114746094, 0.0896138325333595,-0.1307584792375565,0.5801669359207153,-0.1758699715137482, 0.2579016387462616,0.0370667614042759,-0.1770216375589371,-0.0622262544929981, -0.1707204580307007,-0.0851187705993652,0.3215043246746063,0.0858003869652748, 
    0.0163653008639812,0.0750095397233963,0.0204385276883841,0.0360991135239601, -0.0752201899886131,-0.1283987611532211,0.2042040377855301,0.2066961526870728, 0.0961790457367897,-0.3299233615398407,0.0014554783701897,-0.0512152761220932, -0.0154733220115304,0.0397652126848698,-0.1973265260457993,0.0322134234011173, 
    -0.0889934152364731,0.0146027002483606,0.0086486525833607,0.0349464528262615, -0.0267555098980665,0.0142942890524864,-0.0396311059594154,-0.0325188860297203, -0.0310710761696100,0.1564379334449768,0.0543023534119129,-0.0193752497434616, -0.0564558878540993,-0.0294338483363390,-0.0265683420002460,0.0410011634230614, 
    -0.0318261496722698,0.0114572839811444,0.0062224394641817,-0.0073476764373481, -0.0238019097596407,-0.0212229061871767,0.0138814486563206,-0.0436912551522255, -0.0753507986664772,0.0352514125406742,-0.0206208378076553,-0.0423643663525581, 0.0164595730602741,-0.0533005259931087,-0.0594617314636707,-0.0041913101449609, 
    0.0786496400833130,-0.0139296036213636,0.0071756253018975,0.0169201567769051, 0.0059308176860213,0.0340527631342411,-0.0549539327621460,-0.0281228329986334, 0.1690366864204407,-0.0196120627224445,0.0427110828459263,-0.0259812772274017, -0.0415998362004757,0.0030993367545307,0.1478864103555679,0.0971398949623108, 
    -0.0485713519155979,-0.0292556025087833,0.0860175043344498,-0.0061826738528907, -0.0344724506139755,-0.0672280266880989,-0.0790157988667488,-0.1999572217464447, -0.1684975028038025,-0.1317330896854401,-0.0077934451401234,-0.0058278585784137, -0.0015443866141140,-0.0741555169224739,-0.3007562458515167,-0.1164708882570267, 
    0.0678986534476280,-0.0307322721928358,0.0096400287002325,0.0052698585204780, 0.0357310511171818,0.0435532331466675,-0.0831358209252357,0.1068417578935623, -0.0189945735037327,0.0779487118124962,0.0327174104750156,0.0507371835410595, -0.0420911796391010,0.0403742194175720,-0.0796845257282257,-0.1304915994405746, 
    0.0267118792980909,-0.0107494527474046,0.0028056893497705,-0.0046078176237643, -0.0027013560757041,-0.0090879164636135,0.0150222526863217,-0.0046680164523423, 0.0673607513308525,-0.0334834977984428,-0.0217834152281284,-0.0293756406754255, 0.0085343969985843,0.0122030843049288,-0.0317675061523914,-0.0014637381536886
};


static const float fx3_paramModel1Bias[16] = {
    0.0623111170000000,-0.0415262300000000,-0.0318090840000000,-0.0103116390000000, -0.0479531000000000,-0.0047871860000000,-1.6525403999999999,-0.0589677200000000, -0.7444084000000000,-0.0348116270000000,-0.0530729480000000,-0.7479812500000000, 0.0311479400000000,0.0763761700000000,0.0294276600000000,-0.2561403500000000
};


static const float fx3_paramModel1Weights[36*16*4] = {
    0.0249141361564398,0.5597113966941833,-0.2418203800916672,-0.0727095156908035,0.1836576759815216,-0.2528157532215118,0.1273135244846344,0.2837504148483276,-0.3663180768489838,-0.2342433780431747,0.1377500444650650,0.2402915209531784,-0.0102909961715341,-0.2310313135385513,-0.3521195650100708,-0.0203144289553165, 0.0459430813789368,-0.1474961787462234,-0.2129460424184799,0.2236332893371582,0.0922744870185852,0.4670112133026123,-0.1072157993912697,0.2615514397621155,-0.2029457688331604,0.6834610104560852,0.2390252351760864,0.1023858562111855,0.0520675629377365,0.0002667661756277,-0.0039779082871974,-0.0745754018425941, 0.0810238122940063,0.0967176035046577,0.1608426272869110,0.1641401499509811,0.0682175457477570,0.3611517548561096,0.1626376509666443,0.1343905329704285,0.2811188101768494,0.2900829315185547,-0.2379982769489288,0.1116343513131142,-0.0773231387138367,-0.0810042247176170,0.0226467717438936,-0.0958549156785011, 0.1625244170427322,0.3306193649768829,0.0201676618307829,0.3715217113494873,-0.1585139930248260,-0.1718759983778000,0.1386061161756516,-0.2191736102104187,0.0051075401715934,-0.1350967735052109,0.1551936864852905,0.0428820252418518,0.2512000203132629,-0.2586972415447235,0.0041525247506797,-0.2997616231441498, 
    0.0771720185875893,0.3600259423255920,-0.6095759272575378,0.1272422522306442,0.2540054321289062,0.5062881708145142,0.4535987973213196,0.1880394071340561,-0.5947270393371582,-0.2177139967679977,-0.2105428427457809,-0.0141557389870286,-0.1552822440862656,-0.1359052062034607,0.0080526107922196,-0.0175946131348610, 0.0369019992649555,-0.2402250915765762,0.3845706880092621,-0.5027109384536743,0.1712075471878052,0.2772746384143829,-0.1253202557563782,0.2750712037086487,-0.1289022564888000,0.1502683013677597,0.0447118133306503,0.1982725411653519,-0.0000047671423999,-0.0302732046693563,-0.1761460155248642,-0.0804442167282104, 0.9134047627449036,0.4122357070446014,-0.0715921297669411,-0.4081056118011475,0.1395987868309021,-0.0668920874595642,-0.8178403973579407,-0.0791681632399559,0.0727328658103943,0.5020417571067810,0.1514293104410172,0.0439687371253967,-0.0825950205326080,0.3152483999729156,0.3665532767772675,0.3080159127712250, 0.1971600800752640,-0.4218685925006866,-0.2028844058513641,0.4456599056720734,-0.3313442170619965,0.1612189114093781,-0.0367995984852314,0.5224563479423523,-0.0269056241959333,-0.0757433921098709,0.2009662836790085,-0.2203506082296371,0.3808116018772125,0.2571207880973816,-0.1296354383230209,-0.3279385268688202, 
    -0.0802597850561142,-0.0103063937276602,0.2162177115678787,-0.0074628069996834,0.0514644235372543,0.2594522237777710,0.1818642020225525,0.0332127772271633,0.1625777482986450,-0.0449793562293053,0.0193177256733179,-0.0882676020264626,-0.2929989695549011,-0.2197169661521912,-0.3968951106071472,-0.1369063258171082, -0.0236586686223745,0.2643805444240570,0.2255180180072784,0.0857817977666855,0.0792284160852432,0.0314409062266350,-0.3685995042324066,-0.2207459509372711,0.1942235827445984,-0.0122461607679725,-0.1124486550688744,-0.2517974078655243,0.1627412587404251,-0.3284100890159607,0.2876408100128174,-0.2512156069278717, 0.0201390609145164,0.0009438823908567,-0.4637539684772491,0.4459939599037170,-0.1531085073947906,0.2427982538938522,0.4013764262199402,-0.1833747029304504,-0.4100714325904846,-0.1855826973915100,-0.5152486562728882,0.3343399465084076,0.1974680274724960,0.2705286145210266,0.0804737806320190,-0.0071286447346210, -0.0155241871252656,-0.1955649703741074,-0.0294223651289940,-0.6744421124458313,-0.1024078652262688,0.4266249537467957,-0.1882674247026443,0.7107159495353699,-0.0621212162077427,0.3785369992256165,-0.0289285928010941,-0.3742678761482239,0.1766730844974518,-0.1662269234657288,-0.0390922687947750,0.1814414411783218, 
    0.0420243293046951,-0.0420716218650341,-0.1533359438180923,0.0686409622430801,0.1849386245012283,-0.4908787310123444,0.1430165320634842,-0.1702880114316940,-0.2278502136468887,-0.1214723065495491,-0.0753501132130623,-0.0753056704998016,0.0734907314181328,0.0356264822185040,0.1736369431018829,0.2263887077569962, -0.0900290012359619,-0.0302274208515882,-0.1667429506778717,0.0776870623230934,-0.0112868482246995,-0.2668888568878174,0.0178300309926271,0.1759036183357239,-0.0211526993662119,-0.1305730044841766,0.0098701119422913,0.3849193453788757,-0.1192673891782761,0.4518287777900696,0.0687363073229790,-0.2361676245927811, -0.1004138663411140,0.0108826579526067,0.0614541992545128,-0.0745850354433060,-0.1159253418445587,-0.0845921561121941,0.1774836778640747,0.1369653940200806,0.1890449225902557,-0.0969876870512962,0.4490714967250824,-0.1745705157518387,0.1604747772216797,0.2388929575681686,-0.0766457840800285,0.4028665125370026, -0.0701474100351334,0.2771490514278412,0.1388421952724457,-0.3498736619949341,0.2279321551322937,-0.1767572760581970,-0.0040160263888538,-0.1381227076053619,0.1782089620828629,0.2642771899700165,-0.3706513047218323,0.0302562303841114,-0.0360862724483013,0.1453020721673965,0.2154541611671448,-0.4488518536090851, 
    0.0256251748651266,-0.4520455598831177,0.1789343655109406,-0.1421573162078857,0.0487055666744709,0.7991157174110413,0.0491662956774235,0.2976641356945038,-0.2631658315658569,-0.2432923614978790,-0.0412397310137749,-0.1335451304912567,-0.0202278066426516,-0.1548684984445572,-0.5296820402145386,0.0213466752320528, -0.0680605396628380,-0.0491489917039871,0.0560516640543938,-0.1943641453981400,0.1135815456509590,-0.1567830145359039,0.0668426901102066,-0.3560290932655334,-0.1548407524824142,0.3049950897693634,0.3331966996192932,0.0322768650949001,0.0137652661651373,0.1851654350757599,0.1470677852630615,0.0283718761056662, -0.2581131756305695,-0.2731688618659973,-0.0721701905131340,-0.0357461161911488,-0.1168694496154785,0.3033965528011322,-0.4672307670116425,0.0626771897077560,0.4754006564617157,-0.4009535014629364,0.4619883298873901,0.2518801689147949,0.1315630525350571,0.0939759388566017,-0.0313599482178688,0.1183038130402565, -0.1624498218297958,-0.2253427803516388,-0.1161199957132339,0.2691397368907928,-0.1343230009078979,-0.2563731968402863,0.3793616890907288,-0.4860086441040039,0.0022426149807870,0.0551403872668743,0.1307968348264694,0.0721064358949661,0.1766800284385681,-0.3177768588066101,0.0727339088916779,-0.2719914913177490, 
    -0.3775039613246918,-0.5693987011909485,-0.2757063210010529,-0.4724947214126587,0.4053295552730560,0.1831585913896561,-0.5446242690086365,-0.2710557281970978,-0.1385250985622406,0.0621716603636742,0.1864036917686462,-0.0040203537791967,0.0906154587864876,-0.1437395811080933,0.4543586373329163,0.3191482722759247, -0.3726296424865723,-0.1453502774238586,0.0327693410217762,-0.0755321606993675,-0.2154108136892319,-0.6151679754257202,-0.2834095656871796,-0.0630065277218819,-0.4182154536247253,0.4301425516605377,0.0389766171574593,0.1271359026432037,-0.0693478733301163,-0.2278123646974564,0.0720550939440727,0.1983675509691238, 0.5498551130294800,-0.0484667196869850,0.6427315473556519,-0.0841732546687126,-0.3125057816505432,-0.1480037122964859,0.2486426830291748,0.0615510530769825,-0.3842392861843109,-0.0142543911933899,-0.3239761292934418,0.4205378592014313,0.7206261157989502,-0.2939804196357727,0.0549361295998096,-0.1054251268506050, 0.1696691066026688,-0.2837740182876587,0.1415423303842545,-0.2375304251909256,-0.2827890515327454,-0.0952939540147781,0.3038313984870911,-0.5260624289512634,0.3573179244995117,-0.3412743210792542,0.4284879565238953,-0.5877091884613037,-0.5433658361434937,0.0719093233346939,-0.0531299225986004,0.3489918112754822, 
    0.0955768525600433,0.6069937944412231,0.0307241436094046,0.1341468840837479,0.0427518784999847,-0.0580446496605873,-0.1487261801958084,-0.2569920718669891,0.3823723196983337,-0.0831436663866043,-0.6286260485649109,0.0058519719168544,-0.0173985809087753,1.1810495853424072,0.5768150091171265,0.0700208991765976, -0.3574467301368713,-0.0284850001335144,-0.0989878401160240,-0.2366905063390732,-0.1316692978143692,-0.2007695138454437,-0.1605544537305832,0.1888404041528702,0.3354671001434326,-1.7070356607437134,-0.1037942543625832,0.2427423149347305,-0.0877298489212990,-0.0642454326152802,0.0004303207388148,-0.2786744832992554, 0.0248113572597504,0.4933448135852814,-0.1128967627882957,0.3504573404788971,-0.0067314440384507,-0.2879724800586700,0.2920054793357849,0.2027944028377533,-0.1015506610274315,-0.1858346760272980,0.8220050930976868,-0.2817180454730988,0.1418230831623077,0.0215076394379139,-0.0998751968145370,-0.0665853843092918, 0.2273922115564346,0.1466553658246994,0.1978561282157898,-0.7099828124046326,0.4893834888935089,-0.0477622933685780,0.0476425923407078,0.1474003046751022,-0.1107941046357155,0.8110254406929016,-0.3347468376159668,1.0302703380584717,-0.0773337557911873,-0.3463841080665588,0.3588112592697144,-0.4666476249694824, 
    -0.2117560058832169,-0.2107210755348206,-0.4252672791481018,-0.0199423972517252,0.0420552901923656,-0.0008454110356979,-0.3101733326911926,-0.2735741138458252,-0.0378886684775352,-0.4843569397926331,-0.2080439925193787,0.1987365633249283,-0.0976755321025848,0.4433959424495697,-0.3668361306190491,-0.1912318468093872, -0.1191988289356232,-0.2204509377479553,0.2451708912849426,0.0107129970565438,0.1094423532485962,0.0746065899729729,-0.0020335826557130,0.1430883556604385,-0.2728557586669922,0.0320906229317188,-0.4610613584518433,-0.0779280439019203,-0.3275088071823120,-0.8437753915786743,0.0360794402658939,0.0549676530063152, 0.1601094305515289,-0.0483683235943317,0.1644244939088821,0.1183459833264351,0.3803777098655701,-0.2067379951477051,-0.3473861813545227,0.1948233395814896,0.1124075800180435,-0.0832952111959457,0.1075352281332016,-0.3028719425201416,0.3089815080165863,0.2020368874073029,0.3999440371990204,0.2286820560693741, -0.5169275999069214,-0.1456523537635803,-0.3210557103157043,0.1984123587608337,-0.1279292553663254,0.0752375796437263,-0.0878242403268814,0.3275783061981201,-0.3022524714469910,-0.4676631689071655,0.4933230876922607,-0.8119028806686401,0.1420993208885193,0.0573513060808182,0.1504728496074677,-0.1901059746742249, 
    -0.1650994718074799,0.1227173730731010,0.0890401527285576,0.1520693004131317,0.1377296745777130,-0.2403649538755417,0.5089238882064819,0.4181571602821350,0.1474796533584595,0.3383245170116425,0.3342560529708862,-0.0052246982231736,-0.0612855106592178,-0.1006010621786118,-0.0666521936655045,-0.0921191871166229, 0.2423578351736069,-0.1212363690137863,0.0178914666175842,0.0611312352120876,0.0590476170182228,-0.4363579750061035,0.0529890060424805,-0.0656531825661659,-0.1590591669082642,0.6599822640419006,0.1648184955120087,0.0357097759842873,0.0628998428583145,-0.5175613760948181,-0.0373540222644806,-0.0360009558498859, 0.0217976234853268,-0.0049452497623861,0.0504054762423038,-0.0246230140328407,-0.3315449953079224,-0.5977643728256226,0.2549919188022614,0.1277442574501038,-0.1280820071697235,0.1465937644243240,0.5698464512825012,0.0710200890898705,-0.1672539860010147,0.1092417165637016,-0.1905569881200790,0.0790736526250839, 0.0815279334783554,0.3730206191539764,0.0949985533952713,0.0358148775994778,-0.1412142962217331,0.4812439978122711,0.0419056527316570,0.7278763651847839,-0.0834524631500244,0.0725454315543175,0.1124052256345749,-0.2377407997846603,-0.0045325825922191,-0.3532031476497650,-0.2252959311008453,-0.0973914042115211, 
    -0.4396481513977051,-0.4105198383331299,0.4685910940170288,0.2372339367866516,-0.1959411352872849,0.1968312859535217,-0.1729447096586227,0.1884918510913849,0.1380980908870697,-0.1656548678874969,0.4273337423801422,-0.0442886352539062,-0.2389886379241943,-0.0403914377093315,-0.3693216741085052,-0.1058074384927750, 0.1205656081438065,0.2214321047067642,0.3952704966068268,-0.0367125384509563,0.4431232213973999,-0.2827382981777191,-0.0431562773883343,-0.1956339180469513,-0.2424712777137756,0.4510937929153442,-0.0837578624486923,0.0873414278030396,0.0198017507791519,-0.3019135594367981,0.0182701814919710,-0.0035509595181793, 0.2888421416282654,0.5827801227569580,-0.1243989765644073,0.5146703124046326,-0.1456500589847565,-0.1312420368194580,0.1566054970026016,-0.3529610931873322,0.1034606397151947,0.0000308403359668,-0.5119379162788391,0.0073648006655276,0.0185328572988510,0.2114280015230179,0.0408075638115406,-0.0151202632114291, 0.2823424637317657,0.2491697818040848,-0.2112787663936615,-0.4358034431934357,-0.3976870775222778,0.3460137844085693,-0.2520934343338013,1.0206776857376099,0.0865072458982468,-0.9226391911506653,0.2804904580116272,0.0909045264124870,0.2003276944160461,0.0806133970618248,-0.1614000648260117,-0.1264145970344543, 
    0.0145231876522303,-0.0973724648356438,0.5633868575096130,-0.2574951946735382,0.0318489298224449,-0.3264593482017517,-0.0239515099674463,0.0314704179763794,-0.1285609602928162,0.1660158485174179,-1.2501883506774902,-0.0123251937329769,-0.1386824697256088,-0.3709417283535004,0.4831208586692810,0.0715980753302574, 0.2593210935592651,0.2487892210483551,-0.0237040352076292,0.0474584847688675,-0.1055176928639412,-0.0944360867142677,0.0491266585886478,-0.1377167105674744,-0.0168865565210581,-1.4533555507659912,-0.1890846341848373,-0.1870540082454681,-0.4572507441043854,-1.1541590690612793,0.0140264900401235,0.0258039701730013, 0.0103036519140005,-0.3493703007698059,0.3220714330673218,-0.0450650490820408,0.1226222068071365,0.2101164907217026,0.0266102869063616,0.1674409061670303,-0.0074429754167795,-0.2044743746519089,-0.0506323724985123,-0.1914143860340118,-0.1124075353145599,-0.0554780885577202,0.3631605803966522,0.3379557132720947, -0.0484454222023487,0.4408934116363525,-0.0963703989982605,0.3723180294036865,-0.2677796781063080,0.3407408297061920,-0.0232735164463520,-0.7819844484329224,0.1079726368188858,-0.0910921469330788,0.0371929034590721,0.0668012276291847,0.2186783552169800,0.5360501408576965,0.1150265261530876,-0.0611503235995770, 
    0.0857768282294273,0.2001716196537018,0.2440310120582581,0.1118013262748718,-0.2944934666156769,-0.1064884066581726,0.0871992781758308,0.1433276087045670,0.1126416176557541,-0.0986722260713577,0.1383951753377914,-0.3144375383853912,-0.1140784770250320,-0.1585414111614227,0.1447659134864807,0.2125731259584427, 0.0192629508674145,-0.3062337636947632,-0.1685346513986588,0.0014151935465634,-0.0439100041985512,-0.6495676636695862,-0.2638766169548035,-0.0538473501801491,0.3065424561500549,0.2321480065584183,-0.3166422247886658,-0.0266001466661692,0.3565806448459625,0.1861832588911057,0.1614264249801636,-0.1627814322710037, 0.0091683622449636,0.2093459069728851,0.0965135991573334,-0.2211748659610748,0.0891254991292953,-0.0227323044091463,0.0035283698234707,0.0825569555163383,-0.2336230278015137,-0.0530705526471138,0.2617117464542389,-0.1772951483726501,-0.1680137813091278,-0.0163136478513479,0.3202013671398163,0.4569260776042938, -0.0490375049412251,0.5333052277565002,0.1237542554736137,-0.0481955744326115,0.0238210223615170,-0.6284380555152893,-0.3393065333366394,-0.0907745435833931,0.4304888546466827,0.0537396669387817,-0.4994814097881317,0.9900615215301514,-0.1509854793548584,0.0082171112298965,-0.1650737226009369,0.2109979093074799, 
    -0.2457635104656219,0.2066171020269394,-0.1318745911121368,-0.4465356469154358,0.2576543986797333,-0.1073417812585831,-0.2007821649312973,-0.2779437601566315,0.0960410460829735,1.0171450376510620,-0.0978406965732574,0.0289337318390608,0.1455918401479721,0.3143316507339478,0.0137097202241421,-0.0291460379958153, 0.1221962273120880,-0.0752379000186920,-0.1085275039076805,-0.3475862145423889,0.2003607153892517,0.5053408145904541,0.3230030238628387,-0.2943305373191833,-0.0419079139828682,-0.0503635592758656,-0.3317115902900696,0.1486956924200058,0.1236405074596405,0.0183682218194008,0.1461012512445450,-0.1494030505418777, 0.2608494162559509,-0.2020731419324875,0.2211890816688538,0.4100586175918579,-0.0119309835135937,0.1253487765789032,-0.0833997949957848,-0.6675559282302856,-0.2985627353191376,-0.0192269980907440,-0.1666124761104584,-0.2771520614624023,-0.1142927184700966,0.3390878438949585,0.1236707642674446,0.0856844633817673, -0.1257656961679459,-0.9231846928596497,0.3696419596672058,-0.3291729092597961,0.3125787973403931,-0.1561614125967026,-0.5793782472610474,1.0258889198303223,0.0681461542844772,0.1348432302474976,0.0537272952497005,0.3587146699428558,0.0078811962157488,0.3308103382587433,-0.1172479763627052,-0.4281971752643585, 
    0.3778053224086761,0.4819298982620239,-0.6839921474456787,-0.0636064335703850,0.0620670504868031,1.0594053268432617,-0.5025173425674438,0.5461195707321167,-0.3228091597557068,1.0405263900756836,-0.6494645476341248,0.0576105266809464,-0.3339669704437256,-0.1353047192096710,-0.1254510134458542,0.0061209471896291, -0.1154989674687386,-0.1768049001693726,-0.0665002539753914,0.4280100166797638,-0.3566048145294189,0.5085701346397400,-0.4280849695205688,0.1465130001306534,0.4064489603042603,-0.2177079766988754,0.4848517775535583,-0.7171052098274231,0.2140578329563141,0.1087019741535187,0.1544452607631683,0.1877910047769547, -0.2618310451507568,0.1449157893657684,0.5443273186683655,-0.5002702474594116,0.2287289649248123,0.1727344840764999,-0.2389054149389267,-0.3258406221866608,-0.2220931053161621,0.7216007709503174,0.1347883492708206,0.3500521779060364,0.1862595379352570,-0.2315202057361603,-0.4462265968322754,-0.3762916326522827, 0.1339480727910995,-0.2609508335590363,0.3413756191730499,-0.0644821152091026,-0.0665306150913239,0.5094431042671204,-0.0256691612303257,0.1971662491559982,-0.0862069576978683,-0.0871445313096046,0.2775867283344269,-0.0099363652989268,0.0068300832062960,-0.5218377113342285,-0.2691485583782196,0.4086810350418091, 
    -0.2298412322998047,-0.7760102152824402,0.0903564840555191,0.1848741471767426,0.2713104188442230,-0.3477118015289307,-0.3204684257507324,-0.2221902608871460,-0.0891778916120529,-0.4667339026927948,0.5318825840950012,0.0820524841547012,0.0814237296581268,0.0501269102096558,-0.2063474357128143,0.0388644821941853, 0.1191366165876389,0.1856961399316788,0.2725533843040466,-0.1005500108003616,-0.3307031691074371,0.2769406735897064,-0.4383445382118225,0.2086211144924164,0.0173796694725752,1.4230226278305054,0.0742670893669128,0.6011924743652344,-0.2606081068515778,-0.0471903160214424,-0.2388378530740738,0.0551279671490192, -0.1431212872266769,0.1834547817707062,0.3596918880939484,-0.5296010375022888,0.2050399184226990,-0.3315707743167877,0.2941492199897766,-0.1205959543585777,-0.1475550085306168,-0.2343003451824188,-0.3025497496128082,-0.3851527571678162,0.0952568352222443,0.2046785056591034,0.1308525204658508,0.0741675943136215, -0.3635300695896149,0.0848303958773613,0.1155885010957718,0.8467388153076172,0.3431038558483124,-0.0250268448144197,0.4136755466461182,-0.7487660646438599,-0.1543160080909729,-0.0127857252955437,-0.3313015401363373,0.1318287849426270,0.0090139256790280,-0.0558335594832897,-0.0941540598869324,0.3335864841938019, 
    -0.3163376450538635,-0.4418037235736847,0.0957698523998260,0.0402534939348698,-0.1712520718574524,0.2132495343685150,-0.0177391637116671,0.1315704584121704,0.1891437917947769,0.0814367979764938,-0.0563124157488346,-0.2648975551128387,-0.2481917142868042,0.0216779578477144,0.0101218139752746,-0.0079621979966760, -0.0941843986511230,0.3142563998699188,0.0156015092507005,0.1255464106798172,-0.0362018011510372,-0.1321836709976196,-0.0264829453080893,-0.2995820939540863,-0.1404766589403152,-0.2833887338638306,0.0120933502912521,-0.2346863895654678,-0.0606728717684746,-0.3983011245727539,-0.1648684442043304,0.1380469202995300, 0.3780182301998138,0.2157238870859146,-0.2393256276845932,0.0616270825266838,0.2369412779808044,0.4293911159038544,0.0760152637958527,0.4594115018844604,0.0216714516282082,0.4245136380195618,0.1283127814531326,0.2574892044067383,0.2013238668441772,-0.2690766453742981,-0.1258514821529388,-0.2456886023283005, -0.1794976890087128,-0.0264429133385420,0.0605620294809341,-0.3468437790870667,-0.2680585086345673,0.1149926036596298,0.2257181406021118,-0.6438864469528198,0.2167581319808960,-0.3064952790737152,0.2410100251436234,-1.2966047525405884,-0.2979978322982788,0.2012893706560135,-0.1809203475713730,0.7181233763694763, 
    0.3690775930881500,-0.0315360128879547,0.0613925382494926,0.4978185594081879,-0.1907000988721848,0.2286695539951324,0.6564926505088806,-1.0860579013824463,0.7867330312728882,0.7941353321075439,-0.7905816435813904,-1.1725013256072998,-0.8073679804801941,0.4840628802776337,-0.1551693379878998,-0.2212391793727875, -0.3065193593502045,-0.1805770546197891,-0.2026263922452927,0.1765318512916565,0.1446397602558136,-0.0457111932337284,0.0993276387453079,-0.5643751621246338,0.1760133504867554,-1.2170816659927368,0.2198439091444016,-0.5486039519309998,0.6880816221237183,-0.1064679473638535,0.5720546245574951,-0.2852335870265961, 0.1142838671803474,0.1914064735174179,-0.4704438149929047,0.1883853524923325,0.7940129637718201,0.0354484245181084,0.5563232302665710,1.1183753013610840,0.4340116679668427,-0.0196878425776958,1.0889778137207031,0.1718621701002121,0.2122307717800140,-0.3208852708339691,0.2589306533336639,0.2720796763896942, -0.2490918636322021,0.3195092976093292,-0.0975624769926071,-0.4363075494766235,-0.0563150793313980,0.2223176509141922,0.5689598917961121,-1.6862721443176270,1.2273709774017334,0.4485821425914764,0.8118331432342529,-0.7321155071258545,0.4799939095973969,0.5932854413986206,0.3002984523773193,-0.1018538102507591, 
    -0.5541368722915649,-0.3279992341995239,-0.0906306281685829,-1.4803323745727539,0.0087648862972856,0.4768584072589874,-1.1780197620391846,-1.1850134134292603,-0.7922466993331909,0.3662951886653900,-0.5516629815101624,-0.3270872831344604,-0.0568527057766914,0.4095412194728851,-0.2127783894538879,-0.5370156168937683, -0.1035831496119499,-1.0983499288558960,0.2893581688404083,0.9053534269332886,-1.0312566757202148,-0.6524343490600586,0.0605362616479397,-0.7435876727104187,1.7801867723464966,0.1815984696149826,0.4446542263031006,-0.5147176384925842,-0.1688806414604187,0.4083625972270966,-0.0788845345377922,0.4158163666725159, 0.6582281589508057,-1.4608410596847534,1.2838615179061890,-0.8322117328643799,0.5830016732215881,0.4785638451576233,1.0224063396453857,0.6636071801185608,-0.9133297801017761,0.3083415329456329,0.8983408808708191,0.0279954839497805,0.0216145645827055,0.1977870613336563,0.2617663741111755,0.0288725998252630, 0.6207012534141541,0.0463494174182415,-0.6120684146881104,0.5070449113845825,1.3254998922348022,-0.3508647382259369,0.6010313034057617,-1.6858247518539429,0.4340397715568542,-0.1003375574946404,-1.5658298730850220,1.0881109237670898,-0.0052226930856705,0.1636141091585159,-0.1115133091807365,-0.0293426718562841, 
    -0.1776195168495178,-0.5968712568283081,0.7181339263916016,-0.1333754658699036,-0.3924356102943420,-0.0812947154045105,0.0833415314555168,0.9201843738555908,1.1846687793731689,-0.4247076213359833,1.3546162843704224,-0.7089418768882751,0.6500956416130066,0.7555711269378662,-0.1089795157313347,0.1765635907649994, 0.6696723699569702,0.2459969073534012,0.1879245638847351,-0.0538734793663025,0.2296104133129120,-0.1470397263765335,0.2043287009000778,-0.2080824524164200,-0.6241613626480103,-0.5760276913642883,-0.9781556129455566,1.2545123100280762,-0.5122953057289124,0.2241880744695663,-0.2976181209087372,-0.7522623538970947, -0.2741170525550842,-0.4005749523639679,0.5726548433303833,-0.0649558678269386,0.1119689345359802,0.0956592410802841,-1.0183551311492920,-0.6580654382705688,1.1949933767318726,-0.4528474807739258,0.9570096731185913,-0.3654361963272095,0.0746959522366524,1.2240281105041504,-0.5876818895339966,0.9404134750366211, -0.2612250745296478,0.2950034737586975,-0.4728798270225525,1.0900590419769287,-0.8000990748405457,-0.2012464702129364,-0.4359290897846222,0.8372814655303955,0.4020357728004456,-0.3288755118846893,0.0521909296512604,-0.4137728810310364,-0.2361488044261932,0.2666358053684235,1.4835817813873291,-1.0259082317352295, 
    -0.1449530869722366,-0.3685565590858459,0.3187276422977448,0.0136929964646697,0.0265428870916367,0.3026155829429626,-0.3261642456054688,0.4344940483570099,-0.6296825408935547,0.0785428732633591,-0.5474689006805420,0.4026313126087189,-0.3837137520313263,0.4342473149299622,-0.5353922843933105,-0.3241220116615295, -0.5502656698226929,-0.0016644467832521,0.1132275611162186,0.0496666915714741,0.2989218235015869,0.1671815663576126,0.0991015657782555,0.4430866539478302,0.0688214823603630,0.0713945701718330,0.2820152640342712,0.2744297385215759,-0.0255105532705784,0.3001248538494110,-0.2245039194822311,-0.4697842299938202, 0.7652716040611267,-0.5918318033218384,-0.3003951609134674,0.3777320086956024,-0.3653143346309662,-0.1793347299098969,-0.1038997396826744,-0.1469736099243164,0.0865432173013687,0.4046236276626587,-0.5335416197776794,-0.2642962336540222,-0.1732418537139893,-0.3007124066352844,0.2835725843906403,0.2770587205886841, 0.0461389161646366,0.3921020328998566,0.7466363310813904,-0.5139359831809998,-0.0663940832018852,0.3318164646625519,-0.2882564365863800,0.7287140488624573,-0.3048334717750549,-0.2562999129295349,-0.4746637642383575,1.1961258649826050,0.6260861754417419,-0.6647397279739380,0.1158643066883087,-0.5417512059211731, 
    0.0383803807199001,0.0289399717003107,0.3051071763038635,-0.0734196007251740,0.0094879548996687,-0.2249776721000671,0.0509173013269901,0.3946015238761902,0.1969604194164276,0.0232473295181990,0.2094894200563431,-0.1143441721796989,0.3286592066287994,0.1907948404550552,0.1684432178735733,0.0038162763230503, -0.1005531996488571,0.1588622927665710,-0.1297462880611420,0.0445717386901379,-0.4022829830646515,0.0970074236392975,-0.1611159443855286,0.5367048978805542,0.2392972260713577,-0.6570973396301270,0.0096157630905509,-0.2192555516958237,0.3149013221263885,-0.5663614273071289,0.1701416671276093,-0.0738574266433716, -0.1956496834754944,0.1934245675802231,0.0532581470906734,0.1207429692149162,-0.4243698418140411,-0.2898111045360565,0.0252418667078018,-0.1329490393400192,-0.2619404792785645,0.1133617982268333,0.9724699854850769,0.1166626736521721,-0.1755310744047165,-0.0101877599954605,0.0897759571671486,0.2516750693321228, 0.3181605935096741,0.3235631585121155,0.2305481582880020,-0.0249390862882137,-0.1142253279685974,-0.1603637486696243,-0.4789746999740601,0.7848818302154541,0.4031426012516022,0.2659474909305573,-0.4856874644756317,0.1257222145795822,0.1550210565328598,-1.0736237764358521,-0.2232370227575302,-0.0631572827696800, 
    -0.3362354338169098,-0.5186180472373962,0.5729419589042664,-0.2518290877342224,0.7201399207115173,0.1586430221796036,0.9787186980247498,0.4684444367885590,0.1112035736441612,0.0248308684676886,0.3896039426326752,-0.0803679898381233,-0.2719464302062988,-0.0815733894705772,0.2700000107288361,-0.2238519042730331, -0.3156210780143738,-0.4151013791561127,-0.5148826837539673,-0.0226668789982796,-0.2454993128776550,0.1867682933807373,-0.2480252534151077,-0.3239337801933289,0.2921768128871918,-0.8297227025032043,0.0494383648037910,-0.2236929684877396,0.0289013981819153,-0.1125133782625198,-0.0304401554167271,-0.0642008632421494, 0.5949975848197937,-0.1871167421340942,0.4327955842018127,-0.2678989171981812,0.2231344878673553,0.0602809973061085,-0.2442421913146973,0.0903160497546196,-0.3018240332603455,-0.0526865869760513,0.6273716688156128,-0.0104336068034172,-0.1147618964314461,-0.2417400628328323,0.2406265586614609,0.0585377775132656, 0.1215197816491127,-0.2136082053184509,0.1752935647964478,-0.1866033375263214,-0.2906557917594910,0.8418595790863037,0.2732670903205872,-0.3699460029602051,-0.0765965953469276,-0.3177526295185089,-0.3352876603603363,0.3731793165206909,0.1633171886205673,-0.0665468648076057,0.2197780162096024,-0.1206566020846367, 
    0.1465466022491455,0.0307778231799603,-0.1590279787778854,-0.0049072438850999,-0.5432142615318298,-0.0415060147643089,-0.2057708650827408,-0.6837107539176941,-0.2718938887119293,0.1479141116142273,-0.3563383519649506,-0.3234119117259979,0.0027908030897379,-0.0713497027754784,-0.1098969727754593,0.8121107220649719, -0.0847511589527130,0.2198158204555511,-0.0887707844376564,0.3449849486351013,0.2814186215400696,0.0568293482065201,-0.0790297538042068,-0.0809249356389046,-0.0941083207726479,0.8229320049285889,-0.3303097784519196,0.1809975206851959,0.0699443444609642,-1.1226090192794800,-0.0215274393558502,0.5404919385910034, -0.0902428105473518,-0.1562681794166565,-0.4223394989967346,-0.2265633940696716,0.0469751320779324,-0.0595177374780178,0.1773012131452560,-0.0804982781410217,0.4310107827186584,0.0266629233956337,-0.5384539961814880,0.3632700741291046,-0.4697348177433014,-0.0087203737348318,-0.3128857314586639,-0.2561888396739960, -0.4217182099819183,-0.5604470968246460,0.5303343534469604,0.6524887681007385,0.2242527008056641,-0.1958263218402863,0.0114341517910361,-0.0004981588572264,0.2795427441596985,-0.2178270518779755,0.1459653526544571,-0.2963694632053375,-0.3539443016052246,0.0573674440383911,-0.2152172327041626,0.7387998104095459, 
    0.0521771050989628,-0.0444220937788486,0.1803528368473053,0.0389330089092255,0.1170260086655617,-0.2085234224796295,0.3269626200199127,0.0778505876660347,0.1300557106733322,0.1389189064502716,0.6358667612075806,-0.1738086938858032,0.4215099811553955,-0.1078456118702888,0.2907806336879730,0.0339393950998783, -0.3340335786342621,0.1147569715976715,-0.0730049610137939,0.1245332136750221,-0.2693651020526886,-0.4250172674655914,-0.1905398517847061,-0.3772082328796387,-0.0246797744184732,-0.2337706834077835,-0.1502829045057297,-0.3828971683979034,-0.2429831326007843,-0.5431113243103027,-0.2617811262607574,0.0849347859621048, 0.1783113479614258,0.2120029479265213,-0.8689702749252319,-0.1082391142845154,0.1941637098789215,0.4310220181941986,0.1304447054862976,0.1542637795209885,0.3442782163619995,0.0862092077732086,-0.0544665791094303,-0.0282431039959192,0.1540993303060532,-0.2074245810508728,-0.2199209034442902,-0.1205038726329803, 0.0637137740850449,-0.3078236579895020,-0.0142048737034202,-0.2436130344867706,0.0232525300234556,0.0168091524392366,0.3934767246246338,-0.2609404921531677,0.0591200850903988,0.2736642360687256,0.2458430975675583,-0.7236638069152832,0.1613267362117767,-0.5365353226661682,0.1785737872123718,0.1114333868026733, 
    -0.3580215573310852,0.0859282389283180,-0.0515600331127644,0.2049667090177536,-0.0741754919290543,-0.1677121520042419,-0.0327839255332947,0.2462209165096283,-0.1281684786081314,-0.1097109615802765,0.2251660227775574,0.1572630703449249,0.1236392408609390,0.0009887294145301,0.0094054751098156,0.0152173778042197, 0.1214290782809258,0.1364744752645493,0.2608613371849060,0.3246952295303345,-0.1524835079908371,-0.1184037700295448,0.2417416274547577,-0.0965164750814438,-0.0957563221454620,0.6624670028686523,-0.3884105980396271,0.1977316886186600,0.1286602765321732,-0.0353596061468124,0.0298508536070585,-0.0099086249247193, -0.3506955206394196,-0.3316960036754608,-0.2070711404085159,0.0541097670793533,-0.1837936639785767,0.7200521826744080,-0.0616332739591599,-0.5767138600349426,0.1091887503862381,-0.4181509613990784,0.0529919974505901,-0.5921627283096313,-0.1805990040302277,0.0221276581287384,-0.0662301406264305,-0.1478848457336426, -0.0583775155246258,0.0140683576464653,0.0708099827170372,0.4353380501270294,-0.4132020473480225,-0.2010340243577957,-0.1173728480935097,0.6370911002159119,-0.1638588160276413,-0.0015734687913209,0.3031658828258514,0.3898936510086060,0.1392205208539963,-0.0335424393415451,-0.1046387180685997,-0.0935347825288773, 
    0.3938360810279846,-0.1215252354741096,-0.3077366650104523,0.1971907466650009,-0.3019837737083435,-0.4554134309291840,0.2552157938480377,-0.3522282838821411,0.0304845720529556,-0.1803052872419357,-0.0230666492134333,-0.0303258933126926,0.4577288329601288,-0.2231107503175735,0.1320752650499344,0.1985343098640442, 0.2671958208084106,-0.0816754549741745,-0.2365187853574753,0.3208398818969727,0.2013035267591476,0.3322734236717224,-0.2981567084789276,0.3075802326202393,0.0341471880674362,0.0718458667397499,-0.3259820640087128,0.1822021454572678,0.1187056303024292,0.2253104448318481,-0.0966361388564110,-0.2586588263511658, -0.0915736556053162,-0.3902323246002197,0.0563913509249687,-0.3524821102619171,-0.0466752648353577,-0.3119814991950989,-0.0306724645197392,0.1338366866111755,0.3733336031436920,-0.0393812321126461,0.0459927618503571,-0.0481266006827354,0.1180201545357704,0.0431481897830963,-0.0856312587857246,-0.0406323149800301, 0.4341634213924408,0.1389826834201813,-0.0621868744492531,0.4934818744659424,0.3008725047111511,0.1236049458384514,-0.0899018645286560,-0.6697570085525513,-0.1714135110378265,-0.0459037162363529,0.1953841596841812,-0.4427584707736969,-0.1889406442642212,-0.0138358268886805,0.1125295832753181,-0.4811198711395264, 
    -0.1953176856040955,0.4022972285747528,-0.1315925717353821,-0.0239059906452894,0.0046395896933973,0.1257012486457825,0.1941850036382675,-0.1058017089962959,-0.5046260356903076,-0.0715268924832344,-0.0717679187655449,-0.2107895612716675,0.0445671975612640,-0.1003529131412506,-0.2165457755327225,-0.1292713582515717, 0.1352007240056992,-0.1279172897338867,-0.1008952558040619,0.2203284204006195,0.2112671881914139,-0.2779730558395386,0.7453553676605225,-0.0776949822902679,-0.0744805634021759,0.4210083782672882,-0.1426989585161209,-0.2042988985776901,0.2693375349044800,0.2623445093631744,0.1007146984338760,-0.0211372077465057, 0.2122086435556412,-0.1587218195199966,0.0996849238872528,0.2532258331775665,-0.2699331939220428,0.1595843136310577,0.0044730189256370,0.2191975563764572,0.0839644670486450,0.3832981288433075,-0.0214494485408068,0.0253906808793545,0.1142269074916840,-0.2751811146736145,-0.1078991666436195,0.1377704292535782, -0.1879025548696518,-0.6395292282104492,-0.2865087985992432,-0.3933229744434357,-0.1418318748474121,0.0027616738807410,-0.2597790658473969,0.4972394704818726,-0.2333999425172806,0.1074215024709702,0.0633738785982132,-0.6650221943855286,0.0436160564422607,0.3257369399070740,-0.0120776658877730,-0.0150115499272943, 
    -0.2987981140613556,0.0080675631761551,-0.0627275854349136,-0.0303447004407644,0.1010016798973083,-0.0064206225797534,0.2318527996540070,-0.1456017792224884,-0.0411004275083542,0.0332182385027409,-0.0961233749985695,0.2064134478569031,0.0431374497711658,0.0143902907148004,-0.1386937797069550,-0.2690687179565430, -0.1255077421665192,0.2206467390060425,0.0158232450485229,0.0656256154179573,-0.1695475727319717,0.1095442697405815,-0.0592083819210529,-0.2354135960340500,-0.0207316186279058,-0.1271544545888901,0.4902645647525787,0.1318683028221130,-0.1379750669002533,0.2061747908592224,-0.3455374240875244,0.4212841391563416, 0.0542409867048264,-0.0842126980423927,-0.1242102533578873,-0.1583226174116135,0.0085979392752051,-0.2797832787036896,0.2215267419815063,0.0499993525445461,-0.1748889833688736,0.0851015672087669,-0.1502505391836166,-0.0662478283047676,0.2563241124153137,-0.3838675618171692,0.0445169024169445,-0.3328239917755127, -0.1076292395591736,0.1116005107760429,-0.0075950794853270,-0.1885752677917480,0.0058148601092398,0.2199033051729202,-0.1146874502301216,-0.3703955411911011,-0.0031972932629287,-0.0873788520693779,0.0700157135725021,1.3338226079940796,0.3338782489299774,0.6931173205375671,0.1204772070050240,-1.3992297649383545, 
    -0.0178241655230522,-0.0412185154855251,0.2209565788507462,-0.3907150626182556,-0.3433362841606140,-0.2363498210906982,-0.2588548362255096,-0.5562055706977844,-0.2161284238100052,0.0723304226994514,-0.2246258258819580,0.0008979666163214,0.5274609327316284,0.1358583122491837,0.1244417503476143,0.0431611351668835, -0.1581078618764877,-0.0829967781901360,0.2943477034568787,0.0281280837953091,0.0554529242217541,0.4890023767948151,0.4505245089530945,0.2032144218683243,0.7290865778923035,0.1816342324018478,0.6217120289802551,-0.3941544294357300,0.2507361173629761,0.1056272983551025,0.6922183632850647,0.1589534431695938, -0.0990633666515350,0.4462747871875763,0.0095078498125076,0.0997496172785759,0.3824048936367035,-0.8371502757072449,0.6354897618293762,0.1264392584562302,-0.3345530927181244,0.0081200869753957,0.2460878640413284,-0.1441561281681061,-0.0089052002876997,0.0431716106832027,-0.1233400627970695,0.2813702523708344, 0.1426405906677246,0.4128418862819672,-0.3167141377925873,-0.3011384010314941,0.0496732294559479,0.4211663901805878,0.4258471429347992,-0.1182290837168694,-0.0011196271516383,0.3751541078090668,0.5106040239334106,0.3726888298988342,-0.0897622555494308,-0.1308248639106750,-0.2545503973960876,-0.0366149023175240, 
    -0.1617335081100464,0.0990504175424576,-0.5262899398803711,-0.9379633665084839,-0.4577266871929169,-0.4589458405971527,0.0430639944970608,0.4825166463851929,-0.3626750111579895,-0.1645934283733368,-0.1889502704143524,0.1400830745697021,-0.1227032616734505,-0.1497442573308945,0.1811514496803284,0.1392278522253036, 0.7329176664352417,-0.0737499818205833,0.3071618974208832,0.5722233653068542,0.7363054752349854,-0.0566108338534832,1.2770618200302124,0.3750858008861542,0.2996243238449097,0.2509510517120361,-0.8683033585548401,0.1348387002944946,-0.0638445094227791,-0.4379222393035889,0.0909766778349876,-0.1491345465183258, 0.4058721661567688,-0.5258142352104187,0.4565038979053497,-1.0772187709808350,-0.5609247684478760,-0.1107218936085701,0.0913180410861969,0.6713707447052002,0.0069684362970293,-0.1906375586986542,-0.1044212654232979,-0.4810810089111328,0.1116226837038994,-0.1276069283485413,0.1627205908298492,0.0810128524899483, 0.2139963209629059,0.9208970069885254,0.2809652984142303,-0.0779830589890480,-0.2435082197189331,-0.5488526821136475,-0.5502761602401733,1.3209968805313110,0.3168569207191467,-0.1337614655494690,-0.1485098302364349,0.5824549794197083,-0.3516470193862915,-0.2977867126464844,0.2428500503301620,0.4375781416893005, 
    0.2496549785137177,0.0743243694305420,-0.4877939224243164,0.1282835900783539,0.4884014725685120,-0.1269785016775131,-0.2680760324001312,-0.1847961395978928,-0.4003801047801971,0.2627661228179932,-0.0262205991894007,-0.0397805683314800,0.3460345864295959,0.1831154376268387,0.0164034441113472,-0.2837899625301361, -0.3367245793342590,-0.0030512018129230,-0.1483519822359085,-0.3019002079963684,-0.4232108294963837,0.3195300698280334,-0.4340637624263763,0.0832143723964691,-0.4766316711902618,-0.3017831444740295,0.1981046199798584,-0.3751836717128754,0.3047006428241730,0.4200930893421173,0.1417023986577988,0.0792806670069695, 0.4169546961784363,0.0689259096980095,-0.3443448245525360,0.1729087084531784,0.1610133945941925,-0.2446776330471039,-0.0620716772973537,0.3745306730270386,-0.2858546078205109,0.0610359646379948,0.6673317551612854,0.6100546717643738,-0.2628518939018250,-1.1910469532012939,0.0691918209195137,0.5711966753005981, 0.0904354080557823,0.1393660008907318,0.2528726756572723,-0.9480375051498413,0.0805586501955986,0.3276196718215942,0.2892849743366241,-0.9199448823928833,-0.0718914046883583,-0.8225582242012024,0.3322012722492218,0.2599676847457886,0.0634201765060425,0.4669024050235748,0.1225314214825630,0.2869730293750763, 
    0.3865578770637512,0.1295283585786819,0.1198871806263924,-0.0256118383258581,0.1239814460277557,0.0449678488075733,-0.1551520675420761,0.1633376181125641,0.2939925789833069,0.1572984755039215,0.0990792810916901,-0.0100491559132934,0.4125536382198334,-0.4305542409420013,-0.2142763286828995,0.4275506138801575, -0.1355844587087631,-0.2371570169925690,0.6055355072021484,-0.2150651961565018,-0.0785416513681412,0.0931708589196205,-0.1412185579538345,0.1840084195137024,-0.1706335693597794,0.3042201399803162,-0.5451542735099792,0.1331700086593628,0.3169216811656952,-0.0354089550673962,0.2904315292835236,-0.1857382357120514, 0.1223833933472633,0.0256555862724781,0.2261601984500885,0.4250197708606720,0.1983408927917480,-0.0823741927742958,-0.0742147862911224,-0.0444054678082466,0.1574608981609344,-0.3764392137527466,0.1303635537624359,0.1556856781244278,-0.4034087061882019,0.6453880667686462,-0.1766516566276550,0.1831813454627991, 0.1606328785419464,-0.1131430417299271,0.0665451511740685,-0.2323566675186157,0.1497261673212051,-0.0775327980518341,0.0180449355393648,0.0269385855644941,-0.0231640525162220,0.1755598783493042,-0.0767038762569427,-0.0499258227646351,-0.0893665701150894,0.3224338889122009,0.3524507284164429,0.9604621529579163, 
    -0.3155088424682617,-0.0114497393369675,0.0665883123874664,0.0232064295560122,0.0247951410710812,0.1501795798540115,0.1439700871706009,0.2081276774406433,0.1983406692743301,-0.3606465458869934,0.1429230272769928,0.4895927309989929,0.1016327366232872,-0.2020204365253448,0.0859824791550636,-0.0776551961898804, 0.0147801237180829,0.4060350060462952,0.0344430245459080,-0.2643867135047913,0.1184381619095802,-0.3597161769866943,-0.2787992656230927,-0.1011995151638985,-0.1596618443727493,0.0003437183913775,-0.3730438053607941,0.0780751705169678,0.0740866586565971,0.1016668602824211,0.0198294259607792,-0.0712155625224113, 0.1406456530094147,-0.3135259747505188,0.4017999470233917,-0.3735573887825012,-0.0527652651071548,0.1151641681790352,-0.1947938054800034,0.1787182688713074,0.2227902412414551,0.1423611044883728,0.1352615505456924,-0.1385131180286407,-0.2282234579324722,0.0261116214096546,0.1969290673732758,-0.1743254363536835, -0.1891986876726151,-0.0676215142011642,0.2259837985038757,0.2556706666946411,0.0055512962862849,0.2050960808992386,0.1177056431770325,-0.3578941226005554,-0.0700564607977867,-0.0623695477843285,0.0809483602643013,0.0002426117862342,0.0741938278079033,-0.2830633521080017,0.0201902035623789,-0.2539733946323395, 
    -0.1228398233652115,-0.0775228291749954,0.2807730734348297,-0.1384042799472809,-0.1061246395111084,-0.2932997345924377,-0.0849199965596199,0.1723755747079849,0.5658831596374512,0.1125566735863686,0.1631428450345993,0.0274334065616131,0.0886067673563957,0.1327887326478958,-0.1356461048126221,0.0857989564538002, 0.1527704447507858,-0.0700798854231834,0.1116536557674408,0.2282906621694565,0.0529481992125511,0.1189613193273544,-0.1735502779483795,0.0382382050156593,-0.1000823453068733,0.0118128526955843,0.1417239606380463,0.0059060538187623,0.0424481891095638,0.0269926656037569,-0.0405509769916534,-0.3041031062602997, 0.3942658305168152,-0.0933753103017807,0.2022738903760910,-1.0877670049667358,0.1458569616079330,0.2236042916774750,-0.1153397113084793,0.3440466821193695,0.0830153822898865,0.0650923997163773,-0.3688519895076752,0.2415206432342529,-0.1767907738685608,0.3229882717132568,-0.1908221393823624,-0.0478643998503685, 0.2921030819416046,-0.1135256439447403,0.1353789865970612,0.1754100769758224,-0.1638553291559219,0.2712095081806183,0.0733252540230751,-0.3743543922901154,-0.0953672602772713,0.0143997306004167,0.0421781092882156,-0.2659036517143250,0.2765035629272461,0.2969743907451630,-0.0724157020449638,-0.1771594882011414, 
    -0.0552768185734749,0.0781279206275940,0.1010550260543823,-0.2104468196630478,-0.3376496732234955,-0.0928232893347740,0.3347796797752380,0.1111220046877861,-0.1405566781759262,0.0929403975605965,0.1356004923582077,-0.2091965228319168,-0.0293527077883482,0.0552481934428215,-0.2855358719825745,0.0149543527513742, -0.0395705141127110,0.0903891697525978,-0.0166668687015772,0.0171151403337717,-0.1061531454324722,-0.4222197532653809,0.2792278230190277,0.1712156832218170,-0.0822344496846199,-0.6381266713142395,-0.1894789785146713,-0.3770571351051331,0.0336288921535015,-0.5748839378356934,-0.4031533300876617,0.0850862413644791, -0.3333390057086945,-0.2837162017822266,0.0208724923431873,0.1680372953414917,-0.1616790890693665,0.2770354151725769,-0.0251675639301538,-0.1278797388076782,-0.8385385274887085,-0.0063000577501953,0.1852667033672333,0.5921104550361633,-0.1448715329170227,-0.2818439006805420,0.0584029108285904,0.3012103438377380, 0.2527689337730408,0.0552748143672943,-0.2865718007087708,-0.0502898320555687,-0.0164352860301733,-0.1118786036968231,-0.1962048560380936,0.2233875691890717,0.1253014355897903,-0.5342549085617065,0.1398202925920486,0.2867699265480042,0.4191529750823975,0.1793691366910934,0.0913749262690544,-0.2571354806423187, 
    -0.1128399893641472,-0.0334222987294197,-0.2391486763954163,0.1455782949924469,0.0789253860712051,-0.0649195611476898,0.4056688249111176,-0.2121134400367737,-0.0314412750303745,-0.1024753078818321,-0.4464488327503204,-0.1635513007640839,-0.2790420651435852,0.1853346824645996,0.2481439709663391,-0.0326205603778362, -0.0937772840261459,-0.0602785162627697,0.0493315607309341,0.0929209738969803,0.0607980191707611,0.1964538842439651,0.1348332315683365,0.2724565267562866,0.1504820585250854,0.1632254272699356,0.2291704714298248,-0.4195579290390015,0.1301933228969574,-0.1415814012289047,-0.1632364392280579,0.2333820313215256, 0.1535690277814865,-0.0731633082032204,-0.1893156766891479,-0.0255206488072872,0.1589686125516891,-0.1843049675226212,0.1043933779001236,0.0972404256463051,0.1574617028236389,-0.0225216355174780,0.0342731028795242,0.3472760021686554,0.2985548675060272,0.1187782213091850,0.2091048359870911,0.0467544049024582, -0.1661229431629181,0.0964344814419746,0.0326342768967152,-0.1719166785478592,-0.0807823538780212,0.0246901251375675,-0.1498587131500244,-0.1295959204435349,-0.0649326890707016,0.0655626878142357,0.1406717002391815,-1.2256674766540527,-0.0446225143969059,-0.4261891841888428,0.0247520096600056,0.4111670255661011
};


static const float fx3_paramModel1Alpha[16] = {
    0.7396326700000000,-0.0836260000000000,0.1213678300000000,-0.6908116300000000, -0.4691871700000000,0.0474302950000000,0.0228447260000000,-0.2705770700000000, -0.0052601690000000,0.6391401000000000,0.0028733248000000,0.0222595200000000, 0.8354099400000000,0.1505815100000000,1.0024750000000000,0.0140783810000000
};


static const float fx3_paramModel2Bias[16] = {
    0.1316964500000000,-0.1269002100000000,0.1606307500000000,0.2794838000000000, 0.0164387780000000,0.1252920200000000,0.2725286500000000,-0.0933360200000000, 0.1742446400000000,-0.1185104100000000,-0.0244582780000000,0.1383818000000000, 0.0272662020000000,-0.1794573800000000,0.1029922500000000,-0.1084343300000000
};


static const float fx3_paramModel2Weights[36*16*4] = {
    -0.0509759522974491,-0.1092135831713676,-0.1355680078268051,0.7943597435951233,-0.3623891174793243,-0.0260059870779514,0.1705163270235062,0.0950727090239525,-0.1565714925527573,-0.1213663145899773,0.0635484904050827,-0.2297235727310181,0.0772884935140610,0.1358770281076431,-0.3793191611766815,-0.2222873270511627, 0.4739825725555420,0.1542257964611053,0.2326684296131134,0.0285953357815742,-0.2387142330408096,-0.1276872456073761,0.2307416200637817,-0.2574523091316223,0.0882353931665421,-0.1936438977718353,0.3575222790241241,-0.3058026432991028,-0.1901636421680450,0.0033140280283988,-0.0915949270129204,0.0679998099803925, 0.0360222235321999,-0.0835820958018303,0.0434394516050816,0.1829630583524704,-0.0490917116403580,-0.0943842902779579,0.0102174952626228,-0.1464586853981018,-0.0530637688934803,-0.0695103779435158,-0.0080083617940545,0.0036908492911607,-0.0470823347568512,0.1810617148876190,-0.2109087109565735,-0.1859951317310333, -0.1837201416492462,-0.2338726818561554,-0.0904471576213837,0.0301754437386990,0.0849574208259583,-0.0721092447638512,0.0766745284199715,0.2845388948917389,0.0714623853564262,-0.1193025261163712,0.0678851604461670,0.0834596008062363,0.0003948478552047,0.2203485965728760,0.1493603140115738,-0.0830513611435890, 
    -0.5614960193634033,0.6133927702903748,-0.0356530062854290,-0.1156257614493370,0.1489056199789047,-0.1034441664814949,-0.2814552485942841,0.0797268822789192,-0.3708072900772095,-0.1983759552240372,-0.2206795215606689,0.2218866348266602,0.2097387313842773,0.1752476990222931,-0.1797416508197784,0.5357521176338196, -0.0743625611066818,0.0187479089945555,0.1010429263114929,-0.2254687547683716,0.1097281873226166,0.1148349419236183,0.4497174620628357,0.0216368194669485,-0.1540592759847641,0.2209012806415558,-0.4290457665920258,0.3724144101142883,-0.1115965694189072,0.1924299895763397,0.3072696626186371,0.1718352586030960, -0.1568306684494019,0.0795781090855598,-0.1052772104740143,-0.0275287684053183,-0.2524874210357666,-0.0811436846852303,-0.0284458957612514,-0.0272858701646328,0.0610023029148579,-0.1452216058969498,-0.1507844328880310,0.0008052416378632,-0.0160376075655222,-0.1544542610645294,0.1270838677883148,0.3250304758548737, 0.0480714291334152,0.0340874195098877,0.2652192711830139,-0.0837408453226089,0.2589332759380341,0.0247843191027641,0.0446792952716351,-0.0446445941925049,0.1793376356363297,-0.3191236853599548,-0.1965448260307312,0.0622992925345898,0.0850448459386826,0.3136204183101654,0.2361402362585068,-0.2225135266780853, 
    0.1979582905769348,-0.0928395539522171,-0.0454750694334507,-0.0315349176526070,0.2334215193986893,-0.1637650281190872,-0.1333320140838623,0.1034449487924576,-0.1189260110259056,-0.0105484891682863,-0.2039482295513153,0.6506458520889282,-0.1052467823028564,-0.1818389296531677,-0.1269643455743790,-0.0042467894963920, 0.0770968124270439,0.0981269404292107,0.2686110734939575,-0.1544260531663895,0.4548368752002716,-0.0664847642183304,0.0791691541671753,0.0073078298009932,-0.0907599702477455,-0.0323917195200920,0.0351952053606510,0.0076310201548040,-0.2347336411476135,-0.0727517977356911,-0.0785621851682663,0.2063947767019272, 0.0399833135306835,0.1751068085432053,-0.3123535513877869,-0.0151536529883742,0.0856795534491539,0.0018823230639100,-0.0424413904547691,0.1401726305484772,0.1870947927236557,0.1123001947999001,-0.1004015803337097,0.1075698658823967,0.0511682294309139,0.1719277650117874,0.1163243278861046,-0.1037776768207550, 0.0073074679821730,0.2595435082912445,-0.1590458303689957,0.0254025198519230,-0.0559145286679268,0.7273374795913696,0.0884247496724129,-0.3788760602474213,0.0326397232711315,-0.5725069046020508,-0.3039727210998535,-0.1510392129421234,0.0069518489763141,-0.3246698677539825,0.0801656842231750,0.2643694579601288, 
    0.0073877675458789,0.1775729954242706,-0.0856656208634377,-0.0517223030328751,0.1232900470495224,0.3044900000095367,-0.0309846289455891,-0.1782514303922653,0.2165035158395767,0.3254649639129639,-0.0712216719985008,-0.0833473354578018,0.4124526083469391,-0.1343465447425842,0.0663527697324753,-0.3658687770366669, 0.3141010701656342,-0.0891292169690132,0.0536963194608688,0.0215967856347561,0.1579070538282394,0.3924171626567841,0.4690445363521576,0.1865068376064301,-0.3037587106227875,0.0923121273517609,-0.0286610014736652,0.0767144486308098,0.1958599388599396,0.0767403692007065,0.1156977266073227,0.0045269248075783, -0.0631400644779205,-0.0806051865220070,0.0956331416964531,-0.1126099303364754,-0.1999924629926682,-0.0969235748052597,-0.2761783599853516,0.2140663415193558,-0.0072866128757596,-0.0586583130061626,-0.2121342867612839,0.0596948377788067,-0.0498665533959866,0.0275976546108723,-0.0681919381022453,-0.0456080734729767, 0.0270947609096766,-0.0303224306553602,-0.1326819956302643,-0.0481387600302696,0.2643321752548218,-0.4858664870262146,-0.2797909379005432,-0.5579720139503479,0.0811216831207275,0.1017439216375351,-0.0192477386444807,-0.2469299584627151,0.0552567355334759,0.1339776217937469,-0.1285338699817657,0.0365067757666111, 
    0.3157752454280853,-0.0695432499051094,-0.4507079124450684,-0.1349649429321289,-0.4230881333351135,0.1364515423774719,0.0587288998067379,0.3410897552967072,0.0545152612030506,-0.1921990066766739,-0.0942694470286369,0.2486272007226944,0.1304025053977966,-0.0219396539032459,-0.4514974355697632,-0.9210712909698486, 0.0908701568841934,-0.0581058189272881,0.5336479544639587,0.0277396235615015,-0.1537062972784042,0.0097030224278569,-0.3340817093849182,-0.2726283371448517,-0.0075315195135772,0.0149090066552162,-0.3605572283267975,0.1987605243921280,-0.0605742968618870,0.1828867197036743,-0.4102650582790375,-0.1589161604642868, -0.0717006325721741,-0.1554352194070816,0.3269008398056030,-0.1631033271551132,-0.0036168561782688,0.0341351628303528,0.0745647400617599,-0.1734153181314468,0.1696330308914185,0.1587859839200974,-0.1914549022912979,0.1282543540000916,0.0304489750415087,-0.0206528566777706,-0.3670690953731537,-0.3403862118721008, 0.5287463665008545,-0.3904880881309509,0.1786615103483200,0.3499281406402588,0.0062900567427278,0.2805847823619843,0.1681958138942719,-0.0799847841262817,-0.1253686249256134,-0.0277905873954296,0.0468898117542267,-0.0501250587403774,-0.0274410676211119,-0.0711530148983002,0.2476790696382523,-0.0622378960251808, 
    -1.3311476707458496,-0.6553518176078796,-0.1421870142221451,-1.0054168701171875,0.1206335425376892,-0.0619432628154755,-0.4271929860115051,-0.5533682703971863,1.0762248039245605,0.0840124785900116,-0.1293153017759323,0.3539326190948486,-0.4065541028976440,-0.3446780443191528,-0.4418397843837738,0.4513826668262482, 0.4707430005073547,0.2775977253913879,-0.5446547269821167,0.2371614277362823,-0.0933467000722885,0.1069144010543823,-0.2916971743106842,-0.2016869634389877,0.1094781756401062,-0.6728501915931702,-0.0536859855055809,-0.8065665960311890,-0.4230610728263855,0.1972533762454987,0.2421279102563858,0.0922887027263641, -0.4154965579509735,0.1453372240066528,-0.5159093737602234,0.1658969074487686,-0.0632522031664848,0.0183670315891504,0.2020366042852402,-0.4017723798751831,0.1536718606948853,-1.0125267505645752,0.7490626573562622,-0.1444612890481949,-0.0259536877274513,-0.4534931480884552,0.3399206995964050,0.1877277195453644, -0.0172794144600630,-0.4099728763103485,-0.2759605944156647,-0.1064716503024101,0.0266661830246449,0.2339765280485153,-0.1918192356824875,0.1002734899520874,-0.0702807381749153,-1.3849114179611206,1.2170809507369995,0.0118289049714804,0.0086036017164588,-0.0648380666971207,0.4892512857913971,0.4702280163764954, 
    -0.0822652652859688,0.0621663369238377,0.0008608271018602,-0.8474267125129700,0.3641358613967896,-0.4010114371776581,0.4205668568611145,-0.3522792458534241,-0.7691057920455933,0.1100961193442345,0.1479095369577408,-0.6835347414016724,0.0649275481700897,-0.1691165566444397,-0.0333307161927223,-0.1567369550466537, -0.0497414022684097,0.2602029442787170,0.0210535321384668,0.3446454703807831,0.2243725359439850,0.0830799862742424,-0.0470277704298496,0.0273789633065462,-0.3716870844364166,-0.1108035817742348,-0.3636396825313568,-0.0804192423820496,-0.2690067291259766,-0.0556155815720558,0.2462446838617325,-0.1438279151916504, -0.2438596040010452,-0.1268889158964157,-0.1015562638640404,0.1052493751049042,-0.2137833386659622,-0.1680656969547272,0.0055644796229899,0.3795500099658966,-0.0443540364503860,0.1546136587858200,0.1571452617645264,0.2975840270519257,0.0063050515018404,-0.1205405816435814,-0.1229661479592323,-0.1330026239156723, -0.0105909844860435,0.2567532658576965,-0.1690136939287186,0.0355440303683281,-0.1279978305101395,0.0541038922965527,0.3440533578395844,0.1124240532517433,-0.0166654307395220,-0.0561147779226303,-0.2529537081718445,-0.0973835140466690,0.1146746724843979,0.0686145275831223,-0.0298981796950102,0.0106204943731427, 
    -0.1741564869880676,0.2598110139369965,0.1070602014660835,0.2596250474452972,0.1912186890840530,-0.1214910969138145,-0.1846095621585846,0.0480564087629318,0.0211335700005293,0.5199549198150635,0.0212585013359785,-0.0586844347417355,0.2320827245712280,0.0335057936608791,0.0060776188038290,0.5990977287292480, 0.2019994854927063,-0.0357419513165951,-0.1442183256149292,-0.1395021677017212,-0.4066301584243774,0.3295738101005554,0.0444078929722309,-0.4733028411865234,-0.0726402550935745,0.3282331824302673,-0.1114817410707474,-0.0371026545763016,-0.1564836353063583,-0.1404132544994354,-0.0506379380822182,0.0893750116229057, -0.1837280839681625,0.1446836441755295,0.0167216435074806,-0.1166872978210449,-0.1437844038009644,-0.0406915880739689,-0.0590065605938435,-0.7190034389495850,-0.0975348055362701,-0.0507714897394180,-0.2561843097209930,0.0231326073408127,-0.0630747526884079,0.1749322116374969,-0.0058265617117286,0.1666684001684189, -0.0257649291306734,0.0866412445902824,0.2548437714576721,-0.1517655849456787,-0.0825935602188110,0.0877356603741646,0.2916316688060760,0.1893855482339859,-0.0094759641215205,-0.2481872886419296,-0.1704563200473785,-0.0507693812251091,0.0355754643678665,0.0947393849492073,-0.2777962386608124,-0.0434779971837997, 
    0.1450283676385880,-0.1713446825742722,0.2907131016254425,-0.7631957530975342,-0.3889922797679901,0.4069675505161285,0.2474341243505478,0.0156190907582641,-0.0823599696159363,-0.1071045845746994,0.0034513485152274,0.0095623638480902,0.1891669481992722,-0.0631914213299751,0.1525387018918991,-0.3534041643142700, -0.1477667540311813,-0.3147196173667908,-0.0522772036492825,0.1422562301158905,-0.2969404458999634,0.0600040741264820,-0.0675587430596352,-0.4001275300979614,0.0326766669750214,-0.1951424181461334,-0.1614040881395340,-0.0692713633179665,0.2071875482797623,0.1726836413145065,-0.3337601721286774,0.0487506315112114, -0.0957284271717072,-0.2155510336160660,0.1679259091615677,0.0085219768807292,0.0243624933063984,0.0164582040160894,-0.0855938345193863,-0.0787574574351311,-0.0011049904860556,0.0244081150740385,0.1475258916616440,0.1506438851356506,0.0426569506525993,-0.0157925970852375,0.0928613245487213,-0.1021320894360542, 0.1127564758062363,-0.2437847107648849,0.1598551124334335,-0.0572584830224514,0.0133379912003875,0.1087717637419701,0.6839426755905151,-0.2382610589265823,0.0116783175617456,0.0476394705474377,0.0646694153547287,0.0464832559227943,-0.0766936987638474,-0.0155749758705497,0.0151868294924498,-0.0552878677845001, 
    0.3588443398475647,0.0065062753856182,0.0543408840894699,-1.0844786167144775,0.0023215727414936,-0.0518693402409554,0.2659786641597748,0.2239732742309570,-0.3251872360706329,-0.1942031830549240,0.0690712630748749,-0.2318152338266373,0.1833894103765488,0.0188606940209866,0.1747143417596817,-0.7191127538681030, 0.0410749576985836,-0.3793954253196716,-0.5832836627960205,-0.2315123826265335,0.0885156318545341,-0.0007825388456695,0.0438224934041500,-0.0529353767633438,0.0248647220432758,0.9226868152618408,-0.4017288982868195,-0.3034195303916931,-0.4899827241897583,0.3933826982975006,0.0220029018819332,-0.2603520154953003, -0.1656095385551453,-0.1497147381305695,0.1985011994838715,-0.1037247329950333,0.0190552882850170,0.0401115119457245,-0.0030375756323338,-0.1645248830318451,0.3346928954124451,0.2928585410118103,-0.4836895465850830,0.2063305974006653,0.0635129287838936,-0.2982932627201080,0.3023579120635986,-0.0193678382784128, 0.0627297163009644,0.0537968836724758,0.1388148814439774,0.1063260808587074,0.0250064823776484,-0.2283164262771606,0.3709987998008728,-0.1193363294005394,0.1992022693157196,-0.2138500660657883,0.0943329781293869,0.2414624243974686,0.0676571950316429,0.5537667274475098,-0.4073683917522430,0.3965000510215759, 
    0.1218707039952278,0.0261000879108906,-0.0912550166249275,-0.3076854050159454,-0.1668010950088501,0.0077017704024911,-0.2692223191261292,0.1147315576672554,-0.0560284107923508,0.0078915730118752,0.0314700305461884,-0.0335240736603737,0.0955306217074394,-0.0626668706536293,-0.0994735062122345,-0.7102046608924866, 0.1189960539340973,-0.0858123451471329,0.3980378806591034,-0.1908845305442810,-0.0321363806724548,0.1210243329405785,-0.3242762386798859,0.1127102002501488,-0.1185660436749458,-0.2866125702857971,-0.6145027279853821,0.0003589247935452,0.0906108617782593,-0.0004865337396041,-0.5453166365623474,0.0372123382985592, -0.0370235368609428,0.0540502741932869,-0.0353488288819790,-0.1221802681684494,-0.0265750214457512,-0.1684802323579788,0.1031102761626244,0.2426996976137161,-0.0870581045746803,-0.1963903456926346,-0.0668897032737732,-0.2930827438831329,0.0454141050577164,0.0442752577364445,-0.0570084005594254,0.2313817739486694, 0.1276399046182632,-0.0158068221062422,-0.2795658707618713,-0.0237058196216822,0.0999489128589630,0.2570882439613342,-0.1030312627553940,0.0229557286947966,-0.0323857069015503,-0.0865194723010063,0.1144327074289322,-0.0584419481456280,-0.0989939570426941,-0.1987584382295609,-0.1715500205755234,-0.0674024894833565, 
    0.1374212205410004,-0.0822162851691246,-0.0420055836439133,0.1280695945024490,-0.0987597778439522,-0.0239400789141655,0.2390300929546356,-0.0821958258748055,0.0713077858090401,-0.0122476210817695,0.0094840591773391,-0.0994262024760246,0.1440334022045135,-0.0203145127743483,-0.1039263159036636,0.1599805802106857, 0.0963949486613274,0.2100481688976288,0.0332135744392872,-0.2618230283260345,0.1042966321110725,0.0380980707705021,0.1976896971464157,0.0366113334894180,-0.1550090461969376,0.2097604423761368,-0.0535476729273796,0.2738344371318817,0.0170836858451366,-0.0293783824890852,0.1660483330488205,0.1886615455150604, 0.0616661868989468,0.1388808041810989,-0.0985699295997620,0.1164398714900017,0.0038162718992680,-0.0323170721530914,-0.1125839874148369,0.0133041674271226,-0.0566857382655144,-0.3841695189476013,0.1498349905014038,-0.2791328132152557,-0.0229427646845579,-0.0594379864633083,0.0926248505711555,0.0037332789506763, -0.1876719444990158,0.0255231522023678,-0.0912201330065727,0.0647134333848953,-0.0009695115732029,0.0154041443020105,0.0445458814501762,-0.0070528569631279,-0.0575372949242592,0.2358107864856720,-0.1436989307403564,0.0826476961374283,-0.0078965872526169,0.3191703855991364,0.0587158016860485,0.0533057264983654, 
    0.2052755802869797,0.0229591205716133,-0.5222740173339844,0.4225267469882965,-0.8965653181076050,-0.0872725546360016,-0.0565757229924202,0.1368257552385330,-0.5054152011871338,-0.0208717323839664,-0.8414170742034912,-0.1623933017253876,-0.7122320532798767,0.0116108432412148,-0.8001740574836731,-0.4538367390632629, 0.0865920111536980,0.0886663123965263,-0.5092601776123047,0.0233517307788134,-0.1179331019520760,-0.1673270016908646,-0.0917966961860657,0.0128884986042976,-0.0133283315226436,-0.4406776130199432,0.0539419390261173,0.4191957712173462,-0.2319383323192596,-0.2367101609706879,-0.4528687298297882,0.4493467509746552, 0.2803814113140106,-0.3237565755844116,0.1698534935712814,-0.1728963255882263,-0.1584767252206802,-0.1543580889701843,-0.0366986617445946,-0.0555511452257633,-0.0755282118916512,-0.3741887807846069,0.0029088209848851,-0.3040008544921875,-0.1230451390147209,0.2170423716306686,-0.4146698713302612,-0.0368084460496902, 0.3428043127059937,1.2608408927917480,0.0458870157599449,0.1428356021642685,0.0313201546669006,-0.1035676300525665,0.0597489736974239,0.0333812758326530,0.1677542179822922,-0.4534278213977814,-0.2619856894016266,0.2128478884696960,-0.0530870445072651,-0.3043242990970612,-0.2801902294158936,-0.3712642490863800, 
    -0.0639598295092583,0.0914206579327583,-0.2168114185333252,0.1620988100767136,-0.3706265985965729,0.4984785020351410,-0.3362281024456024,-0.1388171464204788,-0.1811968237161636,0.1019183620810509,0.3245441615581512,-0.2380710542201996,0.3747342228889465,0.0078734820708632,-0.4427923560142517,-0.1315731257200241, 0.0701142773032188,0.0297417994588614,0.0418663695454597,0.0406026244163513,-0.0906971022486687,0.2043809592723846,-0.0590211190283298,-0.3206090331077576,0.1326015442609787,-0.1090594083070755,0.2571160197257996,-0.1102213263511658,-0.0217595193535089,0.1423272490501404,0.5305104255676270,-0.1970243602991104, -0.0505704358220100,-0.3789827823638916,-0.0598487630486488,0.0703271105885506,-0.5237663388252258,0.2992722690105438,-0.0217478908598423,-0.0269152279943228,0.0998779684305191,0.0771240144968033,-0.1050531789660454,-0.2138979434967041,0.0138342324644327,-0.1664782464504242,-0.1850615888834000,0.0524065792560577, 0.1561348438262939,-0.7523377537727356,-0.0980918034911156,0.1153049916028976,-0.2065908014774323,-0.0470551066100597,0.3709053993225098,-0.1312741935253143,0.0557838231325150,0.7424772381782532,-0.1635388731956482,-0.2065701782703400,0.0420309789478779,-0.2435153275728226,-0.1622745543718338,0.0463096424937248, 
    -0.2795283496379852,0.1632621735334396,0.1321780383586884,-0.1439239680767059,-0.0234303046017885,0.1182895302772522,-0.1461785137653351,0.4955354332923889,0.6141260862350464,-0.3425514996051788,-0.2464068830013275,0.7562193274497986,-0.5902153849601746,0.0656962990760803,-0.0835722014307976,0.1128636822104454, 0.0099781099706888,-0.0259951893240213,0.4622322618961334,0.0830950662493706,0.1171366870403290,0.1565231829881668,-0.3981378972530365,-0.0234735812991858,0.6033732891082764,0.3109108507633209,-0.6389139294624329,-0.2832395434379578,-0.1571850180625916,-0.0008633409743197,0.1797399371862411,-0.0813748016953468, -0.1335619091987610,0.3499825596809387,0.2368475794792175,-0.0136741083115339,0.0390306152403355,-0.0431401357054710,0.4965488314628601,-0.1911635249853134,0.2842530012130737,-0.4229875802993774,-0.2703742980957031,-0.0500245839357376,0.1225566789507866,0.2543283104896545,-0.0572451166808605,0.0294612012803555, 0.1793562769889832,-0.5244626402854919,-0.5134773850440979,-0.3005568087100983,-0.1225568950176239,0.7749973535537720,0.0092574451118708,0.4596056938171387,-0.0412942618131638,-1.0014754533767700,0.3701903820037842,0.1311150789260864,0.0713377147912979,-0.5785761475563049,-0.1014558300375938,-0.0535983778536320, 
    0.0037797368131578,-0.0704209581017494,0.0688748136162758,-0.1683868318796158,0.8468244671821594,0.2775787413120270,-0.5412007570266724,-0.6200459599494934,-0.1223431527614594,-0.0202782936394215,0.1084808930754662,0.1344972848892212,0.6069923639297485,-0.0319143272936344,-0.0108833052217960,-0.2184513360261917, -0.4501240253448486,0.1204654425382614,0.5507507324218750,0.1474789530038834,-0.3537786900997162,-0.0753327235579491,0.7265697717666626,0.5714868307113647,0.1320507079362869,0.0898743048310280,-0.1468701064586639,-0.0660854876041412,-0.0866996347904205,0.0955786108970642,-0.1076117306947708,0.3014011085033417, 0.0587029606103897,0.4561899602413177,0.4847227036952972,0.0666152387857437,0.1772073507308960,0.0720724985003471,0.1306058764457703,-0.1952211558818817,-0.1552834063768387,-0.0885388478636742,-0.2613584399223328,-0.0549360625445843,-0.0825105831027031,-0.0642857328057289,0.2187635153532028,-0.0164341330528259, -0.2474576979875565,0.2827093303203583,-0.1674764454364777,-0.3014141023159027,0.0628889724612236,-0.3690288960933685,-0.4122611582279205,-0.2865623235702515,-0.0028161192312837,-0.2243962436914444,-0.1428141444921494,-0.3865496516227722,0.0031494321301579,-0.0795733779668808,-0.0106025459244847,-0.2454864531755447, 
    -0.0737439393997192,-0.3109891712665558,0.2931160628795624,-0.2388902753591537,-0.6920068860054016,-0.2337207794189453,-0.0778843909502029,-1.3669632673263550,-0.0778275355696678,0.8173515200614929,0.8369355797767639,-0.0759254172444344,-0.0669919848442078,0.0266965869814157,-0.3443908691406250,-1.5346660614013672, -0.2728955745697021,-0.2206376343965530,-0.2827261388301849,-0.2049636095762253,-0.2272653579711914,-0.4332495331764221,-0.8885706663131714,0.3386493623256683,0.0232108030468225,0.2641659975051880,-0.4486635923385620,-0.5328736901283264,-0.3743343651294708,-0.6976250410079956,-1.0481301546096802,0.0581404492259026, 0.0855032503604889,0.7112663388252258,-0.4469245970249176,-0.2023576200008392,0.0300824716687202,0.2406883835792542,-0.2106404304504395,-0.0546000190079212,-0.1642047464847565,0.1430776119232178,-0.6788778901100159,0.3246085345745087,-0.1985304653644562,0.0701237916946411,0.2270922511816025,-0.4912806451320648, -1.8693399429321289,-0.4289590418338776,0.0025240466929972,0.1401184350252151,-0.0084442235529423,-0.5235609412193298,-0.0003630223218352,-0.0770943835377693,-0.1100677028298378,-0.5142984986305237,0.2679826319217682,-0.4476639628410339,0.0396810360252857,0.1675689071416855,-0.6151102781295776,-0.1319058984518051, 
    -0.4456944167613983,0.0538275167346001,0.0419728122651577,-0.4086810946464539,0.4879207313060760,0.0207706019282341,-0.5014324188232422,-0.5260750651359558,-0.7723318338394165,0.2846494317054749,-0.0911555960774422,0.1312433481216431,-0.7539797425270081,0.0319606065750122,-0.0742352753877640,-0.3896130919456482, -0.0109518989920616,-0.6537515521049500,-1.0058040618896484,0.0800951495766640,-0.0540697500109673,0.6771873235702515,-0.4715980589389801,0.1217269450426102,0.1590133309364319,-0.1819656640291214,-0.5402863025665283,0.1807537078857422,-0.4345412254333496,-0.0349105894565582,-0.4019206762313843,-0.5469123125076294, -0.4167588055133820,0.4869034588336945,0.1468498408794403,0.2452533990144730,-0.6277099251747131,-0.0270075015723705,0.5778748393058777,0.0569698028266430,0.2643058896064758,-0.2150585055351257,-0.2322828769683838,0.0432245209813118,0.0273143909871578,0.3902735710144043,0.3285959362983704,-0.0385256446897984, -0.0472260415554047,-0.3139337301254272,-1.4150511026382446,-0.0428620614111423,0.0125814387574792,-0.0784699693322182,-0.0697364658117294,-0.1170866563916206,-0.7384230494499207,0.0742642134428024,-0.2849951982498169,0.2651614248752594,-0.0150278341025114,0.3498565852642059,-0.3396726846694946,1.1720430850982666, 
    1.1037365198135376,-0.0553967989981174,-0.2079382091760635,-0.2289181053638458,0.5170988440513611,0.0593259632587433,-0.2608362138271332,0.4159356653690338,-0.6319140791893005,-0.1099214032292366,0.2180596441030502,-0.8475048542022705,-0.0062437620945275,0.0992771759629250,0.5837638974189758,0.0876926332712173, 0.2829669117927551,-0.0400964282453060,-0.0666943192481995,-0.2013079524040222,0.3492983281612396,-0.1877500265836716,-0.2128612995147705,-0.3667533993721008,0.2012191712856293,0.2219377458095551,-1.6445713043212891,0.4940455555915833,-0.0848859548568726,-0.1653950959444046,-0.0850185304880142,-0.4658371210098267, -0.0477994717657566,-0.3513306081295013,0.7072854042053223,0.0951962843537331,0.1780042350292206,0.2589799165725708,0.2989792525768280,-1.2511620521545410,0.1309132874011993,-0.0698045343160629,-0.3608662784099579,0.0493915826082230,0.0522268936038017,-0.3400232791900635,-0.5269719362258911,-0.0807277336716652, -0.1763668358325958,-0.5011227130889893,0.8057248592376709,-0.2021527588367462,-0.2856900393962860,-2.1092364788055420,-0.2779211103916168,0.4894916117191315,0.2278621196746826,-0.2762549519538879,-0.6824817061424255,0.1783000230789185,0.0447062738239765,-0.0736936032772064,0.3150533735752106,-0.2293431758880615, 
    -0.3185726702213287,-1.0833246707916260,-0.9028454422950745,0.3615229129791260,0.3409815430641174,-0.3333247900009155,0.3387090861797333,0.0167263373732567,-0.6508426070213318,-0.4590110480785370,0.0012886004988104,0.2881356775760651,0.7483197450637817,-0.1039941087365150,-0.2685513496398926,0.1942497193813324, -0.5391532778739929,-0.2901570498943329,-0.1089793071150780,0.8931730389595032,1.3079125881195068,0.2700383961200714,-0.4290718138217926,-0.1717193424701691,0.5189445614814758,0.0683659240603447,-0.3105256855487823,-0.2241462916135788,-0.0512903667986393,0.0901630073785782,1.1381644010543823,-0.5700875520706177, 0.7760443687438965,-1.5230563879013062,-0.1124690547585487,0.1457204222679138,0.0972383767366409,0.1953329294919968,0.6329424381256104,0.5111821889877319,1.4164673089981079,0.8558720946311951,0.6744883060455322,0.6213721632957458,0.2309355735778809,-0.2738950550556183,-0.1094562113285065,-0.2385348528623581, 0.2145805656909943,0.8711349964141846,0.5165112614631653,0.2480077594518661,0.2524105608463287,-0.1898649483919144,0.2399361133575439,0.0488282702863216,0.2645658254623413,-0.4998321235179901,0.5021095275878906,0.7751531600952148,-0.6825369596481323,0.0876590088009834,0.8523104786872864,-0.1810032576322556, 
    -0.1321798563003540,-0.0798115432262421,-0.0943812504410744,-0.7571897506713867,-0.1084912344813347,-0.4581652283668518,0.0116513790562749,-0.4561299383640289,0.1707078218460083,0.0277635976672173,0.0696661621332169,-0.1924814134836197,0.3139448165893555,0.0785454735159874,-0.0678162500262260,-0.6300885081291199, -0.0061790267936885,0.1387871503829956,0.7726835608482361,-0.0812364295125008,0.0395152159035206,-0.9774440526962280,-0.8483003377914429,-0.0748915299773216,0.1116534098982811,0.3372994661331177,-0.1166615188121796,-0.4326665401458740,0.3301950395107269,0.0004452958528418,-0.4336949884891510,-0.1344771385192871, -0.1236097440123558,-0.0115838870406151,0.4400298297405243,-0.0699678435921669,0.0195413753390312,-0.1913096755743027,-0.2606296837329865,-0.1974133104085922,-0.2931810319423676,-0.0110867666080594,0.0549237169325352,-0.2208722084760666,0.0290513560175896,0.0211944896727800,0.0305865108966827,-0.1705688834190369, -0.1030578166246414,0.2860716283321381,0.1074932441115379,-0.0301942490041256,0.0146462647244334,0.1474409550428391,-0.1142225787043571,0.0600295327603817,-0.1326759904623032,0.2698549628257751,0.2444698661565781,0.2397748976945877,-0.0262420587241650,0.0220668781548738,-0.1327013671398163,-0.0242497064173222, 
    0.1296098828315735,-0.0596905834972858,0.0307112205773592,-0.3757223188877106,0.0929416567087173,0.0724109485745430,-0.1841803491115570,-0.6626418828964233,0.1029850021004677,-0.0361351184546947,-0.3732535839080811,0.2046424597501755,-0.6664268970489502,-0.3425442874431610,-0.3744963109493256,-0.1694507598876953, 0.4274355769157410,-1.3413858413696289,-0.5253357291221619,-0.0754357352852821,0.1187337189912796,0.4465793669223785,-0.3714161813259125,-0.0935231968760490,-0.0431549958884716,-0.2501747310161591,-0.1903435289859772,0.0114586204290390,0.2510268688201904,-0.2136874794960022,-0.5297586321830750,-0.4508509933948517, -0.1654358506202698,0.1006074100732803,0.1515043228864670,-0.0942336693406105,-0.1854838877916336,-0.1752262711524963,-0.0733385905623436,-0.0544060803949833,0.1036285236477852,-0.0947624072432518,0.1233189254999161,0.0266267806291580,0.0773480460047722,0.3103545904159546,-0.1348538696765900,0.0077707753516734, 0.0480019971728325,0.1093348562717438,-0.5952249169349670,0.0440515689551830,-0.1879562288522720,0.2863444387912750,-0.5504385828971863,0.0277813710272312,-0.3635884225368500,-0.4300356209278107,0.1363920867443085,-0.1347516775131226,0.2792937159538269,-0.0745149999856949,-0.5979793667793274,0.2975126802921295, 
    -0.3767522275447845,-0.0487547852098942,0.1916603446006775,0.2900432050228119,-0.0326555147767067,-0.1406836956739426,-0.0871046856045723,0.1973282694816589,-0.1817843765020370,-0.1497147232294083,0.1476762592792511,-0.0850659683346748,0.2005427479743958,0.1216007471084595,0.0070443176664412,-0.2391480803489685, -0.5002287626266479,0.0225055683404207,-0.2055432200431824,0.2448834776878357,-0.0943276658654213,0.0044074412435293,-0.2517111301422119,0.5069624185562134,-0.0256844479590654,-0.6528880000114441,-0.1279711127281189,-0.0410129353404045,-0.0172181036323309,0.3611207008361816,-1.0530991554260254,0.2125315964221954, 0.0772972851991653,-0.1391101330518723,-0.0742469131946564,0.0486061759293079,-0.1932974904775620,-0.0721048563718796,0.1397640705108643,-0.3727151453495026,-0.0025700926780701,0.2089452296495438,0.1709663569927216,-0.1348183602094650,-0.1610469073057175,-0.0037227682769299,0.0388914681971073,0.1674507558345795, -0.1057453751564026,-0.0680847689509392,0.2595558464527130,0.0093856779858470,0.2691031992435455,0.4020254313945770,-0.0273602884262800,-0.1409288197755814,-0.1239747703075409,0.0284720435738564,0.2007632255554199,0.0263663455843925,0.1371865868568420,0.0507273599505424,-0.7331169247627258,0.0231891497969627, 
    0.0369222201406956,-0.1940328478813171,-0.0158145036548376,0.2612612545490265,0.0880891382694244,-0.0865383446216583,-0.5165380835533142,-0.0745161995291710,0.2653121948242188,-0.0522647686302662,0.4046652019023895,0.0605285130441189,0.1763665974140167,0.0188059862703085,-0.3052198886871338,-0.6627004146575928, 0.4990797638893127,-0.9070806503295898,-0.1589935123920441,-0.2743946313858032,0.0565117262303829,-0.1714262813329697,-0.1061552613973618,0.1001965478062630,-0.1289115101099014,-0.7542929053306580,0.2929607629776001,-0.3293256461620331,-0.2093096375465393,0.5301054120063782,0.2690055668354034,0.3308139443397522, 0.1731012165546417,0.2485917061567307,-0.0247249379754066,-0.3763271868228912,0.1111950948834419,-0.0579902157187462,0.0380302853882313,0.0718220397830009,-0.3352944850921631,0.1919613033533096,0.0362302549183369,-0.7671872377395630,0.0536170080304146,0.1644066870212555,-0.0511279404163361,0.0064452374354005, 0.1490626484155655,-0.0733346790075302,0.2994135320186615,-0.0274000950157642,0.1423676908016205,-0.1785059124231339,0.1536118537187576,0.0019778923597187,0.1357396990060806,0.7505367398262024,-0.0408172085881233,0.0523323602974415,-0.1027664542198181,0.1204108446836472,-0.9567269682884216,0.0090233692899346, 
    -0.0973917916417122,0.1101255118846893,0.1293941438198090,0.0800710096955299,-0.2319954335689545,-0.1235449537634850,-0.1039414927363396,0.2931926846504211,0.3879639208316803,-0.3131062388420105,-0.4194791316986084,-0.2697713375091553,-0.0299168657511473,-0.0851473286747932,-0.2242904007434845,0.3171484768390656, -0.0150347445160151,0.1387330144643784,-0.0285941697657108,-0.0144485477358103,-0.0455429330468178,-0.0459336824715137,-0.1466068178415298,-0.0145481145009398,-0.6889482736587524,-0.6669271588325500,0.1611384898424149,-0.3238074183464050,0.1427173614501953,-0.3474199771881104,0.0318880006670952,0.0647225975990295, 0.0914241820573807,-0.0991700142621994,-0.0239882990717888,0.0352314375340939,-0.0031198461074382,-0.0707605555653572,-0.2617754638195038,-0.0240626744925976,-0.0736441686749458,-0.0924948826432228,-0.1636218726634979,-0.2434372454881668,-0.1730578839778900,-0.0601373575627804,0.1821953803300858,0.0909756124019623, -0.2161149680614471,-0.1209668442606926,0.0368162617087364,0.0901868194341660,-0.0942364558577538,0.0680777803063393,0.4640659093856812,-0.0086962450295687,-0.1243879795074463,0.2159468680620193,0.1538232564926147,0.1460214257240295,-0.4632501900196075,0.3974612951278687,-0.1591726988554001,-0.1386891454458237, 
    0.0695146545767784,-0.1120719537138939,0.1314628422260284,0.2667955458164215,0.2820124626159668,-0.2005380690097809,-0.3657318353652954,0.5389789938926697,0.1310300827026367,-0.0811914205551147,-0.2091600745916367,0.5295608043670654,0.1238456889986992,0.0383223891258240,-0.1007657051086426,0.2447230964899063, 0.2620806992053986,0.0138080092146993,0.4068186581134796,0.0891689956188202,-0.0428305715322495,0.0662712156772614,0.2717271745204926,0.1691749542951584,-0.1867033541202545,-0.0412853881716728,0.1537975668907166,-0.2342052012681961,-0.0346966274082661,0.0802944377064705,0.3845783770084381,-0.2054435759782791, -0.0458533316850662,-0.0548650398850441,0.2226579189300537,0.2180427014827728,-0.1904441714286804,0.0752659365534782,0.0371747314929962,-0.3183492422103882,-0.0139689268544316,0.1107035502791405,0.1070629209280014,0.2390183359384537,0.0220610219985247,-0.1144312098622322,0.0126346135511994,0.2817698717117310, -0.1872508525848389,-0.1103125363588333,-0.1746621429920197,0.0390127561986446,0.3299945294857025,0.1749455779790878,0.3280819654464722,0.0799525752663612,-0.0274266302585602,0.6084935665130615,-0.1907235980033875,-0.0229803994297981,0.1586658209562302,0.1794931888580322,-0.0710457265377045,0.1555631458759308, 
    0.3419064283370972,-0.0300490073859692,-0.0081037404015660,-0.1969829797744751,-0.1347676217556000,-0.0381884463131428,0.2190005481243134,0.1133881509304047,0.2305081188678741,0.1045660451054573,-0.3584016859531403,0.2532525062561035,-0.0380729883909225,-0.0667307600378990,0.0473643392324448,-0.0808701291680336, 0.0946696326136589,-0.0814602747559547,0.1651469022035599,-0.1188000440597534,-0.1000046804547310,-0.0022570926230401,-0.0312573276460171,0.0487042181193829,0.0419624000787735,0.4210436940193176,0.2674918472766876,0.1950875967741013,0.0731954127550125,0.1546809822320938,0.2731141448020935,0.1509479433298111, 0.0272754728794098,0.0653598085045815,-0.2080734968185425,-0.0619780085980892,0.0080051431432366,-0.2024215906858444,0.0007240024860948,0.1321387737989426,0.3277392685413361,-0.2493325173854828,-0.5631026625633240,0.0271310713142157,-0.0251320060342550,-0.1298149526119232,-0.1004217490553856,-0.0008060645777732, 0.0359508357942104,-0.3208425045013428,-0.1561961472034454,-0.3861004710197449,-0.0158452317118645,-0.4638815224170685,-0.0183661263436079,-0.0114824809134007,0.0975404530763626,-1.0198792219161987,-0.0474136658012867,-0.1182498186826706,-0.1550999283790588,-0.2316837310791016,0.2625800967216492,-0.1249877959489822, 
    0.1354074478149414,0.0596635900437832,0.4600668549537659,-0.4342837631702423,-0.2852777540683746,0.0135728716850281,0.1083281859755516,0.4885115027427673,0.1257574856281281,-0.0541824549436569,-0.1156340390443802,-0.1217990294098854,0.0185793582350016,0.0685600861907005,-0.1573877781629562,-0.1282962560653687, -0.2198858261108398,-0.1503757983446121,0.3507089912891388,-0.1762402653694153,-0.4234293699264526,-0.1378449052572250,-0.4462269842624664,0.1442322582006454,0.0748177319765091,0.0432406850159168,0.0762381330132484,-0.1798685789108276,-0.0721256807446480,0.0557512044906616,-0.0948426276445389,-0.0318503230810165, -0.2105991393327713,0.5354033112525940,0.0336990468204021,-0.1235166490077972,0.2331449538469315,-0.1115916445851326,0.3095374405384064,-0.0773856565356255,0.0285054706037045,0.1856539994478226,0.2064983248710632,0.1148670241236687,-0.0111630801111460,0.1695611625909805,0.0196725390851498,-0.0834549143910408, -0.1362819820642471,-0.9924147129058838,-0.1274479478597641,-0.0314581096172333,0.2976594269275665,-0.4468049705028534,-0.6944728493690491,0.1361064463853836,0.1606394797563553,-0.7716702818870544,-0.0814426764845848,0.2474693059921265,-0.1396680623292923,-0.1575624048709869,-0.1324603855609894,0.0276106465607882, 
    -0.1378738284111023,0.0243258401751518,-0.1573624908924103,0.2020579129457474,0.3598146140575409,0.1171017810702324,0.0040041171014309,-0.5474748015403748,0.5547170042991638,-0.1127278432250023,-0.1472121477127075,-0.0049234349280596,-0.2161440849304199,-0.0584689117968082,0.1211005672812462,-0.3088823854923248, -0.1810821145772934,0.3414419889450073,0.1409231722354889,0.1463475972414017,-0.1472803801298141,-0.1846974492073059,-0.5758488774299622,-0.0098140779882669,0.2872589528560638,-0.5059121847152710,0.6031392216682434,0.0002579378196970,-0.0021629217080772,-0.7116236686706543,-0.5424277782440186,0.2091102302074432, -0.0548718459904194,-0.2584206461906433,-0.1787338852882385,0.1536007225513458,0.3416924178600311,0.2066041380167007,0.3754701912403107,-0.1629433780908585,0.2491990625858307,0.1577140241861343,0.5473805665969849,-0.1153393089771271,0.0892217457294464,0.2946055531501770,-0.0458128787577152,-0.4850295484066010, 0.4238632023334503,-0.2572230100631714,-0.1275673955678940,0.0317881852388382,-0.3323933780193329,-0.8674967885017395,0.2077934890985489,0.0482353195548058,0.4558299183845520,0.2382564395666122,-0.6497221589088440,0.4878688156604767,-0.6146121621131897,0.1361560374498367,-0.2652462124824524,-0.1653256863355637, 
    -0.0035142735578120,-0.0251232665032148,0.0421135611832142,0.3368832767009735,0.3878791332244873,-0.2961527407169342,0.0698167979717255,-0.1270055323839188,-0.2646883130073547,-0.2006149291992188,0.2727258801460266,0.1753868311643600,-0.4927561879158020,0.0487434417009354,0.1266387104988098,0.5383435487747192, 0.0326860547065735,-0.3455353975296021,0.4342614710330963,-0.0202564802020788,0.1399973630905151,-0.3846144676208496,0.4550562500953674,-0.0540538914501667,0.1830037385225296,0.0226857401430607,0.7654239535331726,-0.0065854070708156,-0.3445389270782471,-0.1601835042238235,0.0293555613607168,0.0147275999188423, -0.0796812400221825,-0.0471939779818058,0.0104610463604331,0.0035069470759481,-0.1780110746622086,0.0020404099486768,0.4634454846382141,-0.5312201380729675,-0.0420992039144039,0.0085886949673295,0.0403330959379673,0.1197278723120689,-0.1084013134241104,-0.4095974266529083,0.2831490337848663,0.1874173730611801, -0.2639225721359253,-0.2751086950302124,-0.2553392350673676,0.0034525690134615,0.1383758187294006,0.8061637878417969,-0.7862019538879395,-0.1850620508193970,0.2728375196456909,0.3064056336879730,0.2371589094400406,0.1080384552478790,0.4521186053752899,0.7459648251533508,0.0549500621855259,0.1630914062261581, 
    -0.7004747390747070,-0.0309980567544699,0.0592123493552208,0.0053006927482784,-0.0359603390097618,0.0643378496170044,-0.1544014513492584,-0.1044222488999367,-0.2005800455808640,-0.0459905825555325,-0.3029262125492096,-0.8903101086616516,0.0396110787987709,0.0230273492634296,-0.0221923571079969,-0.0559437684714794, -0.1519878804683685,-0.2917877733707428,-0.7934108376502991,-0.0230126269161701,-0.2183447033166885,0.0064470488578081,-0.1438888907432556,-0.1286352127790451,-0.3592598140239716,0.5603390336036682,-0.0126412594690919,0.0132507160305977,-0.2089843004941940,-0.0646615475416183,-0.0395904406905174,0.0849453359842300, 0.0839443057775497,-0.0981142818927765,-0.2709755599498749,0.0456910543143749,-0.0058536776341498,0.1705428212881088,-0.3535172641277313,0.6662955880165100,0.0529075972735882,-0.1257373243570328,-0.1669054180383682,0.4430006146430969,-0.0646644905209541,0.2781132459640503,-0.0612984336912632,-0.1377887874841690, -0.0761573463678360,0.1937872320413589,0.2421777248382568,-0.2557358741760254,0.5140439867973328,0.0902469903230667,0.0145724648609757,-0.0428295955061913,-0.3548617959022522,-0.0473517253994942,-0.4784694910049438,-0.1871231645345688,-0.1467410027980804,-0.4784502983093262,-0.3128005862236023,-0.0317929349839687, 
    0.2425233572721481,0.1077275648713112,-0.3098148703575134,-0.6234155893325806,-0.3269563913345337,0.1774101555347443,0.0822374075651169,-0.0470746867358685,0.1626010686159134,-0.1306050419807434,-0.0569531582295895,0.3075546622276306,0.1311216056346893,0.0147447679191828,-0.0932059288024902,-0.2298701256513596, -0.3516398966312408,0.3881529569625854,0.3704731166362762,0.1282013356685638,-0.5096560716629028,-0.3630408942699432,0.0182130839675665,-0.0962175428867340,0.1284103095531464,-0.3354531526565552,-0.0985811874270439,0.1219181045889854,-0.0616797506809235,0.1417009532451630,-0.1822225451469421,0.0521725490689278, -0.2795995175838470,0.1329203248023987,0.4534041583538055,-0.1815255433320999,-0.0281518008559942,-0.1371300220489502,-0.5101488828659058,-0.1647045910358429,-0.1237834319472313,-0.2015420645475388,0.3236902356147766,-0.0737636834383011,-0.0794992372393608,0.0079988036304712,-0.0960106030106544,0.0101561015471816, 0.3622610867023468,-0.2351458668708801,-0.3550954461097717,0.0057007335126400,-0.4529235363006592,-0.7487482428550720,-0.2349681258201599,-0.1047958731651306,-0.3233649134635925,0.1933207064867020,0.1449835598468781,0.2695799469947815,-0.1624693274497986,0.3339944481849670,-0.2275595664978027,-0.0359480865299702, 
    0.2844077944755554,-0.0639055371284485,-0.0617832429707050,-0.1544505506753922,0.2517688274383545,0.0698509216308594,0.1415380686521530,0.3437902033329010,0.0037978570908308,-0.1411672085523605,-0.0756477192044258,0.4412641227245331,0.0370283201336861,0.0255848318338394,0.1033666580915451,0.1353311091661453, -0.0420487448573112,-0.2070124596357346,-0.1820328384637833,0.0912572667002678,0.1461271047592163,0.5270022749900818,1.0317028760910034,-0.4742130339145660,0.0963134393095970,0.1685793101787567,1.2931740283966064,-0.3096537590026855,0.1910012066364288,-0.1530522704124451,-0.3053404986858368,0.0843031853437424, -0.0387173481285572,0.1334114968776703,0.2021281272172928,-0.0030613034032285,0.4362169802188873,-0.6714773178100586,-0.4413211047649384,-0.3086006641387939,-0.1147823706269264,-0.0584160462021828,0.2610170841217041,0.0097223669290543,0.0429818332195282,0.0289346836507320,-0.1508915275335312,-0.3501624166965485, -0.4060552716255188,0.0971567854285240,0.1414428800344467,-0.0623819828033447,-0.6091974973678589,-0.7389603257179260,0.8538155555725098,-0.0945551693439484,0.3740638196468353,-0.1875862777233124,-0.8444793224334717,-0.0451201386749744,-0.2703990340232849,0.0746215954422951,-0.0223127417266369,-0.0685062035918236, 
    0.1754385381937027,-0.0808488726615906,0.1562812179327011,0.3059770464897156,0.2628765702247620,-0.2324182838201523,0.1501396149396896,0.3189718425273895,0.0891076326370239,-0.2318274825811386,0.0920282304286957,-0.2580761015415192,-0.1292870342731476,0.0407911799848080,0.5090317130088806,0.5341581702232361, 0.1095202043652534,-0.1910381466150284,0.2348394691944122,0.1839990764856339,-0.1352470517158508,-0.0539434254169464,0.5001476407051086,-0.2090923786163330,-0.0041687339544296,0.2383965998888016,0.5109320282936096,-0.0023943234700710,-0.2513844072818756,-0.1146243736147881,0.1881950199604034,-0.1545623689889908, -0.0363686122000217,0.0289932209998369,0.1194846630096436,-0.0178482849150896,0.1131358891725540,-0.0146924881264567,0.3102661669254303,-0.1374684125185013,0.1100541502237320,0.0712237060070038,0.0486491620540619,-0.1649733781814575,-0.3070695400238037,-0.2424493730068207,-0.0129247652366757,0.0387120954692364, -0.4104596376419067,0.0964427068829536,-0.3089782297611237,-0.0184990912675858,0.0712026357650757,-0.2545577883720398,-0.2274558693170547,-0.0582686699926853,0.2371372133493423,0.2196225523948669,-0.2394744604825974,0.0147738531231880,0.1898634582757950,0.0695231333374977,-0.1074340716004372,-0.1876546144485474, 
