//MIT License
//
//Copyright (c) 2016 Drake Levy
//
//Permission is hereby granted, free of charge, to any person obtaining a copy
//of this software and associated documentation files (the "Software"), to deal
//in the Software without restriction, including without limitation the rights
//to use, copy, modify, merge, publish, distribute, sublicense, and/or sell
//copies of the Software, and to permit persons to whom the Software is
//furnished to do so, subject to the following conditions:
//
//The above copyright notice and this permission notice shall be included in all
//copies or substantial portions of the Software.
//
//THE SOFTWARE IS PROVIDED "AS IS", WITHOUT WARRANTY OF ANY KIND, EXPRESS OR
//IMPLIED, INCLUDING BUT NOT LIMITED TO THE WARRANTIES OF MERCHANTABILITY,
//FITNESS FOR A PARTICULAR PURPOSE AND NONINFRINGEMENT. IN NO EVENT SHALL THE
//AUTHORS OR COPYRIGHT HOLDERS BE LIABLE FOR ANY CLAIM, DAMAGES OR OTHER
//LIABILITY, WHETHER IN AN ACTION OF CONTRACT, TORT OR OTHERWISE, ARISING FROM,
//OUT OF OR IN CONNECTION WITH THE SOFTWARE OR THE USE OR OTHER DEALINGS IN THE
//SOFTWARE.

#define CONST_SCALING   4    
    
static const float fx4_paramFeatureBias[16] = {
    0.0193589720000000,0.0286139980000000,0.0107106470000000,-0.1205886800000000, -0.2025078800000000,-0.0098947810000000,-0.0013710827000000,-0.0085039490000000, 0.0312820640000000,0.0011272879000000,0.0022986610000000,0.0208170490000000, 0.0068817100000000,0.0253471250000000,0.0029106622000000,0.0056831500000000
};

static const float fx4_paramFeatureWeights[25*4*4] = {
    -0.0052989153191447,-0.0016561099328101,0.0281636044383049,0.0040896511636674, 0.0042773066088557,0.0069711627438664,-0.0103609766811132,0.0083540892228484, 0.0058107906952500,0.0034825203474611,-0.0568181946873665,-0.0642933771014214, -0.0176553670316935,0.0038120597600937,-0.0772712975740433,0.0117651894688606, 
    -0.0106287291273475,-0.0557346828281879,-0.0127675607800484,-0.0106891086325049, -0.0060922475531697,-0.0134112965315580,0.0051331478171051,-0.0611843653023243, -0.0359340123832226,-0.0015298029175028,0.1200859025120735,0.0449849441647530, 0.0241345539689064,0.0733852386474609,0.1754053533077240,0.0479121468961239, 
    0.1257899999618530,-0.0371319688856602,0.0111334100365639,0.0216686371713877, 0.0037361904978752,0.0091273309662938,0.0415948256850243,0.1743685901165009, -0.1159091815352440,-0.0179643779993057,0.0356968231499195,0.1011296361684799, -0.0769067108631134,-0.0578785203397274,-0.2207617908716202,0.0729979723691940, 
    -0.0778476297855377,0.0245334375649691,-0.0226970892399549,-0.0004517968918663, 0.0030715209431946,0.0044558048248291,-0.0425268188118935,-0.0070583708584309, 0.0067763729020953,-0.0000163170698215,-0.0338927283883095,-0.1583323329687119, 0.0147888185456395,0.1174739897251129,-0.2014726996421814,-0.0690695047378540, 
    0.0415256023406982,-0.0086136898025870,-0.0043494398705661,-0.0000447428610642, -0.0004659967089538,0.0011544552398846,0.0151238013058901,0.0581271350383759, -0.0070846243761480,0.0033877100795507,-0.0254219267517328,0.0398820005357265, 0.0389240682125092,-0.0211771149188280,0.0115293748676777,0.0017953292699531, 
    0.0001212784263771,-0.0548622757196426,-0.0624884031713009,0.0228651687502861, -0.0340266861021519,-0.0285262968391180,0.0015768207376823,0.0134650003165007, 0.0241972152143717,-0.0043982914648950,0.0291951149702072,0.1119830235838890, 0.0484452433884144,-0.0666610673069954,0.0891674906015396,0.0419425107538700, 
    0.1053112447261810,0.2427017539739609,0.0370957665145397,-0.1251465529203415, 0.1282243281602859,0.0957645252346992,0.0408539995551109,0.0089885424822569, -0.0002027245209320,-0.0452665388584137,-0.1490555107593536,-0.2237130254507065, -0.1730832010507584,0.0646966993808746,-0.0161619316786528,-0.0278511159121990, 
    -0.4108618795871735,-0.0100126387551427,-0.2532930374145508,-0.3618560433387756, 0.3877468109130859,0.2962901294231415,-0.1811185777187347,-0.0049689747393131, 0.3276865780353546,-0.0053109126165509,-0.1549218744039536,-0.0126405525952578, 0.3227211236953735,-0.0981759428977966,0.0812360271811485,-0.0683649480342865, 
    0.1615656018257141,-0.0387143418192863,0.0724784806370735,-0.0566936247050762, -0.0191697608679533,-0.0446946211159229,-0.0208625998347998,0.0081263352185488, -0.0406307093799114,0.0084809642285109,0.0955609306693077,0.1924362778663635, -0.2243265360593796,-0.2581073641777039,0.0306911468505859,-0.0388927683234215, 
    -0.1760481595993042,-0.0248590130358934,0.0584684871137142,-0.0259349085390568, 0.0199554711580276,0.0014197484124452,-0.0077808527275920,-0.1074811071157455, 0.0088958740234375,-0.0350206196308136,0.0396797172725201,-0.0144043294712901, -0.0339958742260933,-0.0070732440799475,0.1847433447837830,-0.0016162092797458, 
    -0.0311679374426603,0.0001392668636981,0.1819532066583633,0.0559534206986427, -0.0077270842157304,0.0283404737710953,-0.0903854668140411,0.1916502714157104, 0.0069582653231919,-0.0379733480513096,0.0820834189653397,0.0130474278703332, -0.1067157313227654,-0.0105532919988036,0.0930877029895782,-0.0684306249022484, 
    -0.0023466572165489,-0.2643463909626007,-0.1104061007499695,-0.2549803853034973, 0.2258759588003159,0.0832569003105164,-0.0806326791644096,-0.5281262397766113, -0.1855941712856293,0.3922266066074371,0.1474713236093521,0.0354684814810753, 0.3843083679676056,-0.0841652899980545,-0.2020724117755890,0.0483427718281746, 
    0.0463617518544197,-0.0110036404803395,0.5336075425148010,1.3381576538085938, 0.5726225376129150,0.4070994257926941,0.3425079882144928,0.2895161211490631, 0.3057240247726440,0.0545681640505791,0.1824364215135574,0.0178675930947065, -0.1154283136129379,-0.0109517639502883,-0.0301724411547184,0.0387217961251736, 
    0.3631899356842041,-0.0687404274940491,-0.5073096156120300,-0.0613273754715919, 0.1890649497509003,-0.2267569899559021,-0.0688629671931267,-0.1344553679227829, 0.0624931156635284,-0.6177222132682800,-0.0932715758681297,0.0005995792453177, -0.0792887657880783,0.2217946350574493,0.1707814782857895,-0.2042310982942581, 
    0.1220834031701088,0.0782949849963188,0.0102845048531890,0.0547870472073555, -0.0259235575795174,-0.0094701219350100,0.1373163610696793,0.0133089153096080, 0.0531229823827744,0.0967278257012367,0.0537151210010052,-0.0627889186143875, -0.0268756821751595,-0.1122732535004616,-0.0695053189992905,0.2214200347661972, 
    0.0220755394548178,-0.0483090542256832,-0.1084762811660767,0.0028507134411484, -0.0013269576011226,0.0122915385290980,-0.0026428485289216,0.0886244773864746, -0.0488002970814705,0.0118094105273485,0.0321973673999310,0.1276429146528244, 0.0741082206368446,0.0273106712847948,0.0056086359545588,-0.0234846323728561, 
    0.0301201585680246,-0.2092504650354385,0.1081023514270782,-0.0110041378065944, -0.0360802412033081,-0.2266847342252731,0.0175559464842081,-0.0215813815593719, 0.1157395914196968,0.0474792905151844,-0.1448402851819992,-0.0918311253190041, -0.0550982318818569,0.0174454171210527,0.0611384585499763,0.0255978479981422, 
    -0.0719268471002579,0.4065117537975311,-0.3569325506687164,0.0524272434413433, 0.0113312061876059,-0.4109344184398651,-0.2483657300472260,0.0845462679862976, -0.5672338604927063,0.2826009690761566,-0.3138539195060730,0.0104300770908594, -0.2898957133293152,0.1806865334510803,0.0937393233180046,0.0488634668290615, 
    -0.1229072734713554,-0.0066310255788267,0.3425360620021820,-0.0751224085688591, 0.0533820018172264,-0.1180645078420639,0.1351636797189713,0.0143700307235122, -0.0636452063918114,-0.0888161361217499,-0.1678360402584076,0.1506830751895905, 0.2834358513355255,0.0157023388892412,-0.0469371154904366,0.0161939226090908, 
    -0.0658321604132652,-0.0194292925298214,-0.0474254973232746,0.0061145364306867, -0.0028787823393941,0.0276775117963552,-0.0238828435540199,-0.0248386245220900, -0.0276024769991636,-0.0134373558685184,0.0674563720822334,-0.0203245375305414, -0.0226971432566643,0.0730219557881355,0.0004390111134853,0.0040422305464745, 
    -0.0389700196683407,0.0087861847132444,0.0384221784770489,-0.0035471937153488, 0.0004160993848927,-0.0094195753335953,-0.0049430332146585,-0.0933886393904686, 0.0036644919309765,-0.0000940142635955,0.0200392734259367,-0.0605813227593899, -0.0244973320513964,-0.0238020364195108,-0.0248167458921671,-0.0233380850404501, 
    -0.0021891384385526,0.0348239243030548,-0.0361369736492634,0.0034114276058972, -0.0022790543735027,0.0611360296607018,0.0456565767526627,-0.0509071387350559, 0.0040032682009041,-0.0362969972193241,0.0167167261242867,0.1297930777072906, 0.0003841177385766,0.0413812249898911,-0.0104704881086946,0.0814705938100815, 
    -0.0550983846187592,0.0293178800493479,0.0870788469910622,0.0435315929353237, 0.0003517861186992,0.0136036891490221,0.0322779826819897,0.0172746405005455, 0.1011658534407616,-0.0130458828061819,0.2078550755977631,-0.1695628166198730, 0.0497579425573349,-0.1158376932144165,-0.0534206554293633,-0.1188333928585052, 
    0.0152840809896588,-0.0271765105426311,-0.0314474627375603,-0.0112152025103569, -0.0052813841030002,0.0216870419681072,-0.0684386938810349,0.0869774445891380, -0.0037644736003131,0.0198480095714331,-0.0471366383135319,-0.0863566473126411, -0.0435913093388081,0.0208995491266251,-0.0140059664845467,0.0023656669072807, 
    0.0116069838404655,-0.0111104790121317,-0.0148507812991738,0.0006280022789724, -0.0014490734320134,-0.0074140471406281,0.0029785009101033,-0.0140960067510605, 0.0063447244465351,0.0006654783501290,0.0428277291357517,-0.0399807766079903, 0.0028135990723968,-0.0576619170606136,-0.0675318837165833,-0.0204853042960167
};


static const float fx4_paramModel1Bias[16] = {
    -0.0572423260000000,0.0176965600000000,-0.1323897100000000,-0.1583935200000000, -0.0285468270000000,0.0787104200000000,-0.0330869100000000,0.0252537130000000, 0.0388414600000000,-0.0579210150000000,-0.2199282000000000,-0.0309433680000000, -0.0344629440000000,-0.0367313400000000,-0.0223464100000000,0.0102860540000000
};


static const float fx4_paramModel1Weights[36*16*4] = {
    -0.0338527187705040,-0.2345521152019501,0.1222262531518936,0.1244057789444923,-0.3216906487941742,-0.0106625603511930,-0.3616702854633331,0.0697987526655197,0.2869714796543121,0.4266083836555481,-0.0348503105342388,0.4098772108554840,0.2419508099555969,-0.0516485646367073,0.0228318236768246,-0.0967676192522049, 0.0942405387759209,0.3816533684730530,-0.0343728959560394,0.2360915839672089,-0.5622254610061646,0.1462813615798950,-0.2906928062438965,0.0241351835429668,-0.1512942463159561,-0.1477963626384735,-0.1379162222146988,-0.2863029837608337,0.2285248339176178,-0.0167012773454189,0.0024776842910796,0.0260967742651701, 0.0084404377266765,-0.1137574762105942,-0.1880484819412231,-0.4436513483524323,0.2474777698516846,0.0244653504341841,0.1919231861829758,-0.5242751836776733,0.2549513876438141,0.0970160812139511,0.3889663517475128,-0.1734302639961243,0.0122225675731897,-0.2499304711818695,0.1609255820512772,-0.2358583807945251, -0.1022558212280273,0.1038391888141632,0.1837762743234634,-0.1230651810765266,-0.2130595892667770,-0.4376068115234375,0.0494188778102398,0.1517682671546936,-0.3020679056644440,0.3012439608573914,0.3965780138969421,-0.0074140699580312,0.1158690899610519,-0.0919152200222015,0.3730681240558624,0.0471776276826859, 
    0.0718011856079102,0.0166275911033154,-0.0120269022881985,0.0598619729280472,-0.1160150170326233,-0.2280139625072479,0.3401153385639191,0.0332916490733624,-0.1366271525621414,-0.3387900292873383,0.3597999513149261,-0.1451755911111832,-0.1113705933094025,0.0477883145213127,-0.1063832044601440,-0.0852026864886284, -0.2501786053180695,0.0765301585197449,-0.0144930146634579,-0.1316592693328857,0.3995553851127625,0.0750340223312378,0.1257809251546860,-0.1853262484073639,0.1169714629650116,0.1887094229459763,-0.0334146469831467,0.0022899180185050,0.1894716769456863,-0.1051291152834892,-0.0171102546155453,0.0117901451885700, 0.1081887632608414,-0.0919676944613457,-0.0553618073463440,-0.3504371047019958,-0.1493186056613922,0.3343294858932495,-0.1184756979346275,0.5160594582557678,0.2685980498790741,0.0883146896958351,-0.2087876051664352,-0.4614942073822021,0.0238608811050653,-0.1655348688364029,-0.4292979538440704,0.1497471481561661, 0.0087842196226120,0.0008444557315670,-0.8406479954719543,-0.0155655229464173,-0.5516615509986877,0.0602156259119511,0.5852648019790649,-0.0609946958720684,0.0316334515810013,-0.2629912197589874,0.3779062628746033,-0.1735434532165527,-0.1725702583789825,0.6158597469329834,-0.0288907811045647,-0.0087911654263735, 
    -0.2679395079612732,-0.1568594574928284,0.1420858502388000,-0.3365175127983093,0.2046131491661072,-0.0680602043867111,-0.1160265281796455,0.1409666985273361,-0.4933353066444397,-0.0168089866638184,-0.1721467524766922,-0.0194525159895420,0.3279379606246948,-0.1207236275076866,-0.1748690605163574,0.1372442990541458, -0.3205696344375610,0.3322249948978424,0.0681949928402901,0.1794341057538986,-0.2770510613918304,-0.1164113059639931,-0.0313336327672005,-0.2577621042728424,-0.3350282311439514,-0.1239649951457977,-0.2134423851966858,-0.0818989425897598,-0.0817635804414749,-0.1057392582297325,0.1442434638738632,-0.2974866032600403, -0.0478501617908478,0.0012728383298963,0.1602249890565872,-1.0042004585266113,0.1818673312664032,-0.1041770800948143,0.0509524345397949,-1.1809953451156616,0.0287380479276180,0.0145657537505031,0.3317173719406128,-0.9931781888008118,-0.1014612540602684,-0.0121394079178572,0.1003248319029808,-0.1466186195611954, 0.0590311326086521,-0.0690544024109840,-1.8782615661621094,0.1526100188493729,0.2822062075138092,-0.1666049063205719,0.9493277072906494,0.0425066351890564,0.1113758608698845,0.1810011416673660,0.4124974012374878,0.1072604283690453,0.0365226678550243,0.0753849372267723,-0.2449482083320618,0.1229099109768867, 
    0.1076904088258743,-0.0731475651264191,-0.1906525939702988,-0.0642859563231468,0.1112947240471840,0.0105681018903852,0.3219892978668213,0.2552268207073212,-0.2825844585895538,0.0123620377853513,-0.3354317247867584,-0.0257716011255980,-0.0687672719359398,-0.1037105396389961,0.1864184439182281,0.2527596652507782, 0.4184234142303467,0.0774527490139008,-0.1838919222354889,0.0711911320686340,0.2260708212852478,0.0518870800733566,0.1398923099040985,-0.2531895935535431,0.2135093957185745,0.1764715760946274,-0.0118386587128043,-0.2848432362079620,-0.3890180885791779,0.4107272624969482,-0.3010100424289703,0.0397152751684189, 0.2391465157270432,-0.0608353316783905,-0.0591547526419163,0.0668194144964218,-0.2100151628255844,-0.0363177321851254,-0.2393896728754044,-0.6051495075225830,0.0521447956562042,0.1274179816246033,-0.0928804874420166,0.0283096972852945,-0.0359605476260185,0.4508308172225952,-0.0832279622554779,-0.0266517996788025, -0.3583648502826691,-0.0446684621274471,-0.7232782840728760,-0.0557427518069744,-0.1681380569934845,-0.1258690655231476,0.4338899552822113,0.2082122564315796,-0.2717144489288330,-0.0089075528085232,-0.1172863543033600,0.0119586270302534,-0.0991699844598770,0.0556310676038265,-0.2339657843112946,0.0427279621362686, 
    0.1581047326326370,-0.0499818027019501,0.0802638828754425,0.0994153469800949,0.4730532467365265,-0.0375829972326756,0.0632852688431740,0.2542087435722351,-0.1588892042636871,-0.2164443582296371,0.3907567858695984,-0.7077078223228455,-0.2850191295146942,-0.0150870289653540,-0.0326534882187843,0.2102557718753815, 0.1827646195888519,-0.2838387787342072,-0.2692299485206604,-0.3728745877742767,0.0183252897113562,0.0854790881276131,-0.4302838742733002,-0.4568432271480560,0.4707932174205780,0.1532512903213501,0.5473846197128296,1.0923085212707520,-0.0116053977981210,-0.1977036297321320,-0.1009388864040375,0.2224846631288528, 0.4465995132923126,0.2653494775295258,0.2466238290071487,-0.1156198829412460,-0.0744934231042862,-0.1006777435541153,0.0159638635814190,-1.0582077503204346,-0.5850768685340881,-0.1049936711788177,0.1378623396158218,-0.3279626667499542,0.3423173427581787,-0.7063419818878174,-0.1193646639585495,-0.6079552173614502, -0.0625358149409294,-0.6266366839408875,-0.5048609972000122,0.0249036978930235,0.3997215628623962,0.1016590222716331,1.1041971445083618,-0.0475426428020000,-0.1316329687833786,0.4327756762504578,-0.3901951909065247,-0.3213649392127991,-0.1021640971302986,-0.0939941480755806,0.0952709168195724,-0.0059371856041253, 
    0.0222597587853670,0.1071652472019196,0.0864979326725006,-0.1194056570529938,-0.2466352134943008,0.0947203263640404,0.2136803716421127,0.6841796040534973,0.2994089424610138,0.0445913411676884,-0.1822113692760468,0.1187376081943512,0.3476701676845551,-0.1316930204629898,0.2649378478527069,-0.0880958661437035, 0.0687966421246529,-0.1739441156387329,0.0994327515363693,-0.2216814160346985,0.1298249661922455,0.2583322823047638,-0.4847574830055237,-0.2717112302780151,0.1349489390850067,-0.0459062084555626,-0.0443946383893490,0.2122481167316437,0.4684744477272034,0.0307651404291391,-0.1132834181189537,0.1477968543767929, -0.1880075335502625,0.1727665066719055,0.1001164764165878,-0.1950947791337967,0.3074963390827179,0.1905145198106766,-0.2809293568134308,0.1373227834701538,-0.0362411253154278,-0.7041461467742920,0.1149374619126320,0.0049735051579773,0.1622197777032852,0.1194849535822868,0.3382378816604614,-0.5501959323883057, -0.2274962216615677,0.1159623116254807,-0.1654903888702393,-0.0153802987188101,-0.1763812750577927,-0.1558894068002701,0.0589036867022514,0.1417920440435410,-0.3212793171405792,-0.1305261105298996,-0.3891325592994690,0.0032238317653537,0.0504370070993900,-0.0600139833986759,0.3166388869285583,-0.0951226651668549, 
    0.1906010210514069,-0.2273249924182892,-0.0966801121830940,0.2705938518047333,-0.1353460550308228,-0.1048514246940613,-0.7167659997940063,0.7737179398536682,0.1138587668538094,0.0186328683048487,-0.2909769713878632,0.2965335845947266,-0.1559245437383652,0.3023378849029541,0.3823367059230804,-0.3145648539066315, 0.4092884957790375,0.0910787358880043,0.0757058113813400,-0.5223366618156433,-0.0556052438914776,0.1744286417961121,-0.6029785871505737,0.0963996499776840,0.5967646241188049,-0.2929221391677856,-0.0154069634154439,0.0558386035263538,-0.0293605122715235,0.4289675354957581,-0.1346768885850906,0.1331518590450287, 0.1903142333030701,-0.2776565849781036,-0.0407007597386837,-0.2213390469551086,0.4761380553245544,-0.1679208725690842,-0.0929600447416306,0.6684713363647461,-0.1539123654365540,-0.0848587974905968,-0.2545028030872345,0.4056379199028015,0.1452381014823914,0.3342587649822235,-0.1014489755034447,0.3094969391822815, -0.4314329326152802,-0.0408771038055420,-0.9779326915740967,-0.0730608701705933,-0.0443254038691521,0.0392140075564384,-0.5501806735992432,0.0073098507709801,0.0577140562236309,-0.0964846611022949,0.5835401415824890,-0.3079110383987427,-0.2387033849954605,0.0528939366340637,0.0264057647436857,0.3101270496845245, 
    -0.1212297603487968,0.0895470753312111,-0.0412099137902260,-0.5689179301261902,0.0149896144866943,0.0993280932307243,0.2571882903575897,0.0826618075370789,0.0929638221859932,-0.1695287525653839,-0.3362698853015900,0.2586580514907837,0.3353689610958099,0.1504020690917969,0.4928424954414368,-0.3848389089107513, 0.2591935992240906,-0.1022249385714531,0.4822811782360077,0.2144553512334824,-0.0275448299944401,0.1022586524486542,-0.2335212975740433,0.4414689540863037,0.3959531188011169,0.1318690478801727,-0.1726243495941162,-0.0007537650526501,0.0643107816576958,0.0426071844995022,0.4157204329967499,-0.2496439665555954, -0.3331640362739563,0.2196111828088760,0.0532605983316898,0.7696507573127747,0.1635310202836990,-0.1572212278842926,0.2416592687368393,-0.1698193103075027,0.1973211914300919,-0.8982758522033691,-0.2967725098133087,0.2862284183502197,-0.2262566685676575,-0.2928058207035065,0.1123643070459366,0.2481006979942322, -0.0024272515438497,0.7231634855270386,-0.2096199989318848,-0.2357636243104935,-0.3527344763278961,-0.3470416069030762,-0.1022451221942902,0.0189386680722237,0.1983963102102280,0.6471614241600037,-0.1210046485066414,-0.0300157181918621,-0.2157236039638519,0.6926071047782898,-0.0281049553304911,0.0683691799640656, 
    -0.0121940914541483,0.0708247050642967,0.2074788063764572,0.1507034301757812,-0.2415511608123779,-0.1340640634298325,0.1069269180297852,-0.4348495304584503,-0.1410838663578033,0.1625589877367020,-0.1425474286079407,0.4523219466209412,0.0421660952270031,-0.0504258871078491,-0.0512311644852161,0.0973986536264420, 0.0531697943806648,-0.1083820983767509,-0.1029462441802025,-0.1400291323661804,0.3094159662723541,-0.2328194081783295,0.2624371647834778,-0.0443184077739716,0.0658151209354401,-0.0946296975016594,-0.0210466422140598,-0.5571776628494263,0.1983510255813599,0.2201880216598511,0.1885512620210648,0.0254478771239519, 0.1360937207937241,-0.3101070225238800,0.1061369329690933,-0.0625333487987518,0.3925543725490570,-0.1468458622694016,-0.5347956418991089,0.3512011468410492,-0.0520448051393032,0.0395174250006676,0.0246854312717915,-0.0093109272420406,-0.2814755141735077,-0.1273985356092453,0.0046884785406291,0.3490794301033020, -0.1813006997108459,0.1538580656051636,0.1039824932813644,0.0855588987469673,0.1588746458292007,-0.0895529985427856,-0.1918629854917526,0.1246326565742493,0.0694322884082794,-0.1564786434173584,0.0263603460043669,0.0353167951107025,-0.0889004766941071,0.3261208236217499,0.2169654369354248,-0.0098452400416136, 
    -0.0606052912771702,-0.0017320378683507,-0.0279433671385050,-0.1027233153581619,0.2735320925712585,-0.0334513671696186,0.3234432935714722,0.0633556172251701,0.1187547147274017,0.1684296727180481,-0.1336167007684708,0.7680510282516479,0.0469853021204472,0.0960328429937363,0.0950602144002914,0.4723784625530243, -0.0951522067189217,0.0433746650815010,-0.0992814227938652,-0.1716696470975876,0.5055122971534729,-0.0217750836163759,0.1994906365871429,-0.5348080992698669,0.3347510695457458,0.1868118792772293,0.0327548459172249,-0.3760750591754913,-0.4302476942539215,0.1599632203578949,-0.0896032303571701,-0.3548836410045624, 0.0305829048156738,0.1614203304052353,-0.0678511187434196,0.1714985668659210,-0.3745761811733246,0.7746178507804871,-0.3074558377265930,0.6024348139762878,0.0019110537832603,0.2924657166004181,0.2831749618053436,-0.1253929436206818,0.1171588897705078,0.2329502999782562,0.0663857981562614,0.6334490180015564, 0.0082055050879717,-0.1604045331478119,0.0271118432283401,-0.0139667773619294,-0.4352445602416992,0.5477426052093506,-0.1797154098749161,-0.1416355371475220,-0.0311100482940674,-0.0047309543006122,0.0764458104968071,-0.1844912022352219,0.0404452234506607,-0.3155883550643921,-0.1385145634412766,0.0693801268935204, 
    0.0165466163307428,0.1491280943155289,-0.0819421857595444,0.0096198432147503,0.4246087968349457,0.1792308241128922,-0.2053722739219666,-0.3400950431823730,-0.0572397634387016,0.0057796076871455,-0.0630850419402122,-0.2831068634986877,0.0764586925506592,-0.1657133847475052,-0.3422676026821136,0.1118700578808784, -0.4307122826576233,0.3317160606384277,0.1869800686836243,-0.4213329851627350,-0.1248672381043434,-0.4360114336013794,-0.2207663208246231,-0.1122432500123978,0.1165183037519455,0.0076338159851730,0.0072522317059338,0.3480048775672913,0.1167793348431587,-0.0708355456590652,0.0222854409366846,0.2888461947441101, 0.1208901554346085,0.2597811818122864,0.0199908278882504,-0.0751763433218002,-0.1004090756177902,-0.8341436386108398,0.2556323409080505,0.0454422198235989,0.0089560728520155,-0.0153699954971671,0.1513432860374451,0.0173950195312500,0.0433876700699329,-0.1843401044607162,-0.0205166842788458,-0.1627320349216461, 0.0956186354160309,0.2498041540384293,0.2009779512882233,-0.0532752908766270,-0.1320962309837341,-0.0894920751452446,0.1437901258468628,-0.0658408254384995,0.1377038210630417,-0.1056442633271217,-0.7176967859268188,-0.0210090558975935,0.0320013388991356,0.1181478053331375,-0.2968021631240845,-0.1627176403999329, 
    -0.1468044221401215,-0.0049841282889247,0.1177374646067619,-0.0691724494099617,-0.1218018159270287,0.0011920602992177,-0.1135570928454399,0.0799240693449974,0.1607283651828766,0.1678851246833801,0.1865988224744797,-0.2209990322589874,-0.1082550063729286,-0.0208934899419546,0.0176939368247986,-0.3445110023021698, -0.1469464898109436,0.1464399248361588,0.1010235249996185,-0.2043836563825607,0.0315199010074139,-0.0855157673358917,0.1435600519180298,-0.2825350165367126,-0.2892279028892517,-0.2688421905040741,-0.0251464378088713,-0.1846946477890015,0.2074299752712250,-0.2038106322288513,0.1141080185770988,-0.0537706092000008, -0.1665452420711517,-0.1028450056910515,0.0450712367892265,-0.4254375994205475,-0.2070510238409042,0.1883514672517776,0.2418221086263657,0.0085928421467543,-0.0593199767172337,0.5259513854980469,0.2144929617643356,-0.0563804358243942,0.1619689166545868,0.0465983860194683,-0.2810904681682587,-0.0631804019212723, -0.1600186228752136,0.2750281691551208,0.1160751879215240,0.1343320459127426,-0.2164766788482666,-0.0681957304477692,-0.2506148815155029,-0.1643137335777283,0.1775224655866623,-0.7000406384468079,-0.0215328261256218,0.0203801207244396,0.1207250282168388,-1.0902311801910400,0.2853811085224152,-0.0977664962410927, 
    -0.1922516524791718,0.0034342254512012,-0.4625485241413116,0.1965123862028122,-0.4096240401268005,0.3273696899414062,0.4221040904521942,-0.0769325047731400,0.9343955516815186,-0.1247828304767609,0.0443775244057178,-0.1465844362974167,-0.1046764031052589,-0.1134813129901886,0.1833138465881348,-0.0220665857195854, -0.0211139898747206,0.1012218371033669,-0.1089579835534096,0.1278072595596313,0.9193480610847473,0.2452104389667511,0.2633928060531616,0.4435670375823975,0.6815210580825806,-0.6455034017562866,0.0600422881543636,0.1239408925175667,0.0774006694555283,0.6264308094978333,-0.0113923233002424,-0.0748006701469421, -0.0121851507574320,0.0642275661230087,-0.4005684256553650,-0.2023515552282333,-0.2991368770599365,0.2904862463474274,0.1351634263992310,-0.2742718160152435,0.0502170547842979,-0.1798796653747559,0.0873605608940125,-0.2326685190200806,-0.0311788059771061,0.4641705453395844,0.4100898802280426,-0.0277358088642359, -0.0060055721551180,-1.0362974405288696,-1.2143150568008423,0.1459089964628220,-0.2139663994312286,0.4545892775058746,0.6133404374122620,0.0359932109713554,0.4250819981098175,-0.3632094562053680,-0.3447980880737305,-0.4688482582569122,-0.6165244579315186,-0.1118521317839622,-0.1276040375232697,0.2154319733381271, 
    -0.1584860980510712,-0.0381897129118443,-0.0366111062467098,0.0856826379895210,0.1619968414306641,0.1092563867568970,-0.2537204325199127,-0.0822985619306564,-0.0086757931858301,0.0537346638739109,0.2467655539512634,-0.5559894442558289,0.1939938068389893,-0.1881315708160400,-0.1499295383691788,0.0852579027414322, 0.0447003617882729,-0.3201429843902588,0.0232675373554230,0.0896643251180649,0.3664151430130005,0.0279047600924969,-0.2396597117185593,-0.1301601827144623,0.2276667356491089,-0.0284516178071499,0.2475492358207703,0.2446190416812897,-0.0849417075514793,-0.2040836960077286,0.0094011863693595,-0.3832491040229797, -0.0948822051286697,0.1850720494985580,-0.0244804080575705,-0.1597557514905930,0.3599673509597778,-0.1806575208902359,-0.1686138808727264,-1.1190246343612671,-0.3641153275966644,0.3626546561717987,-0.2245167046785355,-0.5143292546272278,-0.1549423485994339,-0.1171891465783119,0.4024739861488342,-0.0437044687569141, -0.3040281236171722,0.0182645302265882,0.0049493671394885,-0.1058628708124161,0.4343093633651733,0.6794118881225586,1.5760493278503418,0.2354987710714340,0.1141187548637390,0.1248914673924446,-0.0168665703386068,-0.0166041739284992,-0.1594215184450150,-0.2312893569469452,0.5755689144134521,-0.0618336573243141, 
    0.0309217106550932,0.1202614605426788,0.2660194039344788,0.0286179073154926,-0.4197449386119843,0.0692473351955414,0.1257556974887848,0.2915482521057129,0.9391537904739380,0.0311357304453850,0.2898460924625397,-0.1897734254598618,0.3061328530311584,-0.0107213687151670,-0.0312297120690346,0.0620364360511303, -0.5122447013854980,0.2037465125322342,0.0165475346148014,0.4451798498630524,-0.1979297846555710,0.3372573554515839,0.0782325491309166,0.2602442204952240,0.0609027780592442,-0.2587044239044189,0.2711373865604401,0.5136916041374207,0.5041845440864563,-0.2551557421684265,-0.0542905777692795,0.2228276282548904, -0.2534409463405609,0.1017080470919609,-0.1841020733118057,0.6428439617156982,-0.1305502802133560,0.0680503472685814,-0.2768636345863342,-0.7044501900672913,-0.0491392798721790,-0.2983734309673309,0.0201099216938019,0.4510890841484070,0.1161170750856400,0.0454389937222004,-0.2610521018505096,-0.0342691987752914, 0.1146226003766060,0.6887153387069702,0.5225820541381836,0.0531489551067352,-0.0251223929226398,0.0698956102132797,0.1369970142841339,0.0618170648813248,0.1942677646875381,-0.2238752394914627,-0.4438068866729736,-0.1743366569280624,0.3234763741493225,-0.1619741469621658,-0.1445865482091904,-0.0155648328363895, 
    0.4409939944744110,-0.4337705671787262,-0.3365299403667450,0.0417594127357006,-0.1779084205627441,-0.3199822008609772,-0.5083916187286377,-0.1194387227296829,-0.5022796392440796,0.0679692775011063,-0.0494005344808102,-0.0438538007438183,-0.4984298944473267,0.4431791305541992,0.4655467569828033,-0.0929252579808235, -0.1971548497676849,0.4320129752159119,0.2517566680908203,-0.2926255166530609,0.1316029280424118,0.0558974146842957,-0.2084274739027023,-0.2683118879795074,-0.1981752514839172,-0.2698325514793396,0.0155565356835723,0.1572097390890121,0.5345926880836487,-0.3049002587795258,0.2834241092205048,0.6878322362899780, -0.0428717099130154,-0.0077661639079452,-0.3785480558872223,0.8415573239326477,0.3235922455787659,-0.0991168245673180,-0.4835323393344879,0.0028435774147511,-0.0861245766282082,0.2407975792884827,-0.0285946186631918,0.8124639987945557,-0.2786665558815002,0.0635639578104019,-0.0729288458824158,-0.2056293487548828, 0.1653254628181458,0.1400399953126907,-0.1109365299344063,-0.2271215617656708,-0.0891904979944229,-0.1085383296012878,-0.8440783023834229,0.0459121279418468,0.0236371699720621,-1.2402433156967163,0.1424219012260437,0.1299882531166077,-0.0257426965981722,0.2956461012363434,0.6010590195655823,-0.1522863954305649, 
    0.1023191809654236,0.0172133296728134,0.3485174477100372,-0.9259139895439148,0.5006027221679688,-0.6738607883453369,-0.0551767051219940,0.4470082819461823,-0.7362573146820068,-0.4208922088146210,-0.5314082503318787,0.9930296540260315,-1.1274791955947876,-0.2690517306327820,-0.0824680030345917,-0.1490079909563065, -0.0664526373147964,0.4000540077686310,0.6314735412597656,-0.3902869820594788,0.0662899985909462,-0.7970959544181824,-0.5388160347938538,-0.1751234233379364,-0.7701067924499512,0.7823066711425781,-0.9294317960739136,-0.3467904627323151,-0.1658150404691696,1.2074196338653564,-0.4731960296630859,-0.0541324988007545, -0.4048814475536346,-0.2331947833299637,-0.1703591793775558,-0.1357507854700089,0.0721490010619164,0.2484103143215179,0.2107495665550232,0.0717802420258522,1.1724705696105957,-0.3507736027240753,-0.7336984872817993,0.0664240643382072,0.8129439353942871,0.6479915976524353,0.0381783619523048,-0.2971628606319427, -0.1797145307064056,0.6216705441474915,-0.2896565198898315,0.8031072616577148,0.5616639256477356,0.5209296941757202,0.8533177971839905,-0.8986917734146118,-0.5634023547172546,-0.4979972243309021,-0.1684414446353912,0.7990452051162720,0.5279279351234436,0.0212569199502468,-0.1491681635379791,0.3697661757469177, 
    0.2853072285652161,0.2759516537189484,-0.1350028961896896,-0.2378286421298981,-1.0276362895965576,1.2797216176986694,0.0602649450302124,0.3324938118457794,-0.2895944714546204,0.0707585662603378,-0.2431039810180664,-0.0163483098149300,-0.6190969347953796,0.5459575653076172,-0.3349999189376831,0.3580287992954254, 0.4697656929492950,-0.0739085525274277,0.0779527798295021,-0.0833061710000038,-0.9007275104522705,0.1605658829212189,-1.3444806337356567,-0.1235347613692284,-0.5388014912605286,0.4948709309101105,-0.3588168025016785,-1.1132751703262329,-0.2394826710224152,0.2027187943458557,-0.4526229500770569,-0.2290047109127045, 0.1090651974081993,0.0217111799865961,0.5568123459815979,0.4525255560874939,1.4184708595275879,0.6956962347030640,-0.4564154744148254,-0.2130807936191559,0.5662106275558472,-0.4842013418674469,0.1002082824707031,0.1981827467679977,0.1146799698472023,0.0923711955547333,-0.5489901900291443,-1.2992805242538452, 0.5100528001785278,-0.0760636329650879,0.1129613369703293,0.0257163606584072,0.9837757349014282,-0.7775367498397827,0.5638374686241150,1.5470464229583740,0.1402724534273148,0.2838716804981232,0.1737150549888611,0.4230080246925354,0.1442836523056030,-0.0863845422863960,1.3111777305603027,0.1078425720334053, 
    0.6326351761817932,1.3579171895980835,1.3203737735748291,-0.2123581916093826,-0.2123251706361771,-0.8594835996627808,-0.9915496706962585,1.9496526718139648,0.1988387852907181,-0.1536881029605865,0.6223529577255249,0.0961818844079971,-0.7803558707237244,0.0578837879002094,0.0389318391680717,-0.1773155033588409, -0.6946082115173340,0.2082395702600479,-0.2712546586990356,0.4369064867496490,0.2378690987825394,-1.2017505168914795,-2.3614065647125244,0.4127697348594666,-0.6963729858398438,0.1763156950473785,-0.1936233639717102,-1.1780440807342529,0.7246376276016235,0.0733112469315529,0.0000030477378914,0.0497942566871643, -0.0558597184717655,1.3078801631927490,0.2274245768785477,0.6219791173934937,1.7653081417083740,-0.3137587308883667,-0.0212207995355129,1.3782598972320557,0.8104785680770874,-0.3072378933429718,-0.5598732233047485,-0.3747695088386536,-0.0465969145298004,-0.2379271835088730,0.5725242495536804,-0.2136178165674210, -0.2731913328170776,-1.0329785346984863,0.9993201494216919,1.4739177227020264,-0.6810007095336914,-0.6816560626029968,-1.1799638271331787,-0.8578922748565674,-0.4451752901077271,-0.5330381393432617,-0.8245747089385986,0.3527855873107910,0.4183467030525208,0.1306838244199753,-0.2506775259971619,-0.0481388755142689, 
    0.0684141144156456,0.3563334345817566,-0.1024545952677727,0.2694585919380188,-0.1937361210584641,-0.3745425641536713,-0.0885391086339951,-0.2835701704025269,-0.6281991004943848,-0.1939719468355179,0.1888859570026398,-0.3828024268150330,0.2926386892795563,-0.1255678981542587,-0.0204550996422768,0.5286836028099060, -0.4604170024394989,-0.1749842464923859,-0.0441839508712292,0.8163583874702454,0.3585658073425293,0.0766847878694534,0.1332248151302338,-0.1556054055690765,0.3053419888019562,0.2349187433719635,0.1968049108982086,0.6261121034622192,-0.1380473226308823,0.0709659680724144,-0.2303295135498047,-0.7682037949562073, 0.2813090980052948,0.5709403753280640,1.0144516229629517,0.8443894386291504,-0.6633211970329285,0.2064345329999924,0.1486708521842957,-0.2812490165233612,-0.1385972201824188,0.1254608482122421,0.0594087690114975,0.0805940851569176,0.3680419623851776,-0.5938438177108765,0.3236310780048370,0.0430467389523983, -0.5070382952690125,-0.9107413291931152,-0.6659112572669983,0.4442736208438873,0.4892908334732056,0.8674557805061340,-0.0885213688015938,-0.2126281559467316,0.0196175593882799,0.7316290140151978,0.2421641945838928,-0.0263303928077221,0.0942775011062622,0.1486584991216660,-0.0400767661631107,0.1195860579609871, 
    -0.4570477604866028,0.0091065913438797,0.1524928063154221,-0.1314895749092102,0.0621193535625935,0.5105506181716919,0.7376383543014526,-0.1217763647437096,-0.0365739539265633,-0.0100780185312033,0.0548063218593597,-0.6983579993247986,0.0179091561585665,-0.2217130661010742,0.1568163186311722,-1.1916835308074951, 0.1473482549190521,0.5378354191780090,0.1847343891859055,0.0311031136661768,-0.2434908598661423,0.5336988568305969,0.4150646626949310,0.3812154531478882,-0.1113149672746658,-0.3013219535350800,0.0008750505512580,0.2435956150293350,-0.0280194804072380,0.5356231331825256,0.2045786231756210,-0.3303332328796387, -0.3142721354961395,-0.3344899713993073,0.1456197649240494,0.1997077167034149,-0.4860245585441589,0.9634386897087097,-0.0764599591493607,0.4309538602828979,-0.0342556945979595,0.0785417631268501,-0.3168134391307831,0.6621585488319397,-0.3617922365665436,-0.0859661325812340,0.2620627880096436,0.1930653452873230, -0.0050168624147773,0.8468174934387207,0.4157065153121948,-0.1504991352558136,-0.1301341652870178,0.3664304018020630,-0.5288319587707520,0.3702784776687622,0.0723664686083794,0.3201481401920319,-0.0890749916434288,0.1235592514276505,-0.3181104660034180,0.2752127051353455,-0.4021701216697693,-0.0982892587780952, 
    0.0216850433498621,0.0813562422990799,0.0533606931567192,-0.5122898817062378,-0.2250199317932129,0.3387924730777740,0.3061498403549194,-0.9487591385841370,-0.1754691302776337,0.1399489641189575,0.2854868471622467,-0.1325970590114594,0.0319724678993225,-0.1961406022310257,-0.0099633811041713,-0.2201461493968964, -0.2238070815801620,-0.3152312040328979,-0.0322294905781746,-0.0610306374728680,-0.6245438456535339,0.0278288740664721,-0.1200920566916466,-0.2943162322044373,0.2282313257455826,0.3513983488082886,0.3484548628330231,0.1441677659749985,0.5186231136322021,-0.1324002146720886,0.5291729569435120,0.4948563277721405, -0.0091433310881257,-0.4099597632884979,0.0624988600611687,-0.0536219365894794,0.1651775240898132,-0.2482969164848328,0.1263254135847092,-0.6200902462005615,-0.5869569182395935,0.3283419013023376,0.0687487199902534,-0.4109298586845398,-0.5814203619956970,-0.0388020277023315,-0.1296612620353699,0.2773006558418274, 0.1239710152149200,-0.0018368375021964,0.0184803456068039,0.0199956893920898,0.0958022326231003,-0.1385197788476944,0.0053096264600754,0.3596958220005035,0.0995262339711189,0.1613148599863052,-0.0591170750558376,-0.1010959967970848,-0.0001743709726725,-0.1570895910263062,-0.8995808362960815,-0.1004292964935303, 
    -0.3874960541725159,-0.0594144575297832,0.6242351531982422,-0.5727983713150024,0.6465072035789490,-0.1049918755888939,-0.5049516558647156,0.3561773896217346,0.1086641252040863,-0.0602305270731449,-0.0024288722779602,-0.2317353934049606,-0.0159137621521950,-0.1926202178001404,-0.3801164627075195,-0.1104433983564377, 0.2499297112226486,-0.0994401946663857,0.2764903306961060,0.6525327563285828,-0.5779981017112732,-0.1621834784746170,-0.5229777097702026,-0.3420160114765167,-0.0230037365108728,0.1102223545312881,0.0667120814323425,0.0040775896050036,-0.6285606026649475,0.3536700010299683,-0.0700415521860123,-0.3907741904258728, -0.3612029254436493,0.0564386323094368,0.1644521057605743,0.8036595582962036,0.2162071019411087,0.0488393865525723,-0.0844593271613121,-0.0887579694390297,0.0733491703867912,-0.0113277118653059,-0.1162367165088654,0.1133309975266457,-0.0134755168110132,0.1352630704641342,-0.0371554419398308,0.3066612482070923, -0.1005893945693970,0.0858500450849533,-0.0174075961112976,-0.3745149970054626,-0.0402535162866116,0.1651149243116379,0.2679271399974823,-0.1547553241252899,-0.3962005376815796,0.7446870207786560,0.0543211773037910,0.2368505448102951,-0.0958213061094284,0.1579487174749374,-0.0041064340621233,0.2678950428962708, 
    -0.2145985364913940,0.1504023522138596,0.3349885046482086,0.2298238426446915,0.0316776968538761,0.3376814126968384,0.2840190827846527,-0.1876900941133499,0.0287549626082182,-0.1948810368776321,-0.1063545718789101,-0.1257750093936920,-0.1613727658987045,0.2294895648956299,0.3758379817008972,-0.0127426460385323, -0.1941834092140198,-0.1973999291658401,-0.3027842342853546,-0.3896951377391815,0.0325535237789154,-0.0339893735945225,-0.0051368968561292,-0.3462423384189606,-0.6726064085960388,-0.2207341045141220,-0.1013365015387535,0.0958446413278580,0.1211764514446259,0.3919520378112793,-0.0348184704780579,0.1248967200517654, 0.2122244685888290,-0.5856624245643616,0.0687409192323685,-0.3353392779827118,0.1194842085242271,0.1415054053068161,-0.0781541168689728,0.2831288576126099,-0.1526340097188950,0.4039424955844879,-0.0851088687777519,0.1275668591260910,-0.5331209897994995,0.0564921423792839,0.1442653089761734,-0.1692595779895782, -0.2284579873085022,-0.3014218509197235,0.1818137019872665,-0.0465060509741306,0.2806448638439178,0.0846638604998589,0.3287934958934784,0.1761403083801270,0.2162852883338928,0.1388090401887894,-0.4983840882778168,0.0082620605826378,0.1710343062877655,0.5379069447517395,0.4295262992382050,0.1693879663944244, 
    -0.0923880711197853,0.0762344598770142,-0.2865812480449677,-0.1462287157773972,-0.5700473785400391,-0.0160629414021969,0.1410133838653564,0.0144227538257837,-0.4552941024303436,-0.0502859614789486,-0.0561813116073608,-0.1731831580400467,0.2357141673564911,-0.0465414263308048,0.1923796385526657,0.0131702627986670, -0.3130628466606140,0.0056950915604830,-0.1845268160104752,-0.2614821791648865,-0.3586433231830597,-0.0356920473277569,-0.1147709339857101,0.0192628819495440,-0.6075326800346375,0.1609410643577576,0.1410170793533325,0.0086012156680226,-0.0919995605945587,-0.0579395964741707,-0.0742492526769638,-0.0524903573095798, 0.1369870305061340,0.1389306783676147,0.0296424105763435,0.2928794622421265,0.0019126345869154,0.1400274932384491,-0.0238857902586460,-0.1808399558067322,-0.1550989151000977,0.0020176393445581,0.0543639436364174,-0.1412921994924545,0.0951165407896042,-0.0833868533372879,0.0677761435508728,0.0748459920287132, -0.2605841159820557,0.5312568545341492,0.5212394595146179,-0.0840608179569244,0.0854474529623985,-0.5139877200126648,-0.3347833454608917,-0.1151396632194519,0.2120070308446884,-0.0912722945213318,0.0782069414854050,0.1493825018405914,0.0965301170945168,0.1591662466526031,0.4527359008789062,-0.2786627411842346, 
    -0.0724574699997902,0.1259575337171555,-0.1806336492300034,-0.1108440235257149,0.5339561104774475,0.0672114565968513,0.1511082053184509,-0.1370020955801010,-0.3218110501766205,0.1053500026464462,0.2531241476535797,-0.2186060845851898,0.3996744751930237,0.0084646148607135,-0.2238483875989914,-0.0561482049524784, -0.2631812393665314,0.0811037570238113,0.0429525449872017,0.0566839538514614,-0.0572244413197041,-0.1174932941794395,0.1305477768182755,-0.3186931908130646,-0.4522815346717834,0.2296126931905746,0.0803712978959084,-0.0322749912738800,-0.3929545879364014,-0.0989126563072205,0.1337999403476715,0.3609822988510132, 0.0061105834320188,-0.1394221782684326,-0.0459491685032845,0.0052234493196011,0.0181765537708998,-0.0809688121080399,0.0647383257746696,0.1126721054315567,-0.0212877448648214,0.1698329895734787,-0.2481607943773270,-0.1488793641328812,-0.0918555185198784,-0.1929056793451309,0.0465090498328209,-0.2140715569257736, 0.2486868500709534,-0.0077900532633066,-0.0541504211723804,0.1103610768914223,0.2129726558923721,-0.0196674279868603,0.8310235738754272,-0.0642197206616402,-0.1575772464275360,0.0580760277807713,0.2225518822669983,-0.0020183932501823,0.0771486759185791,0.2322926670312881,-0.1351689994335175,-0.0056567722931504, 
    0.2573014199733734,-0.1952334046363831,0.0028308660257608,0.0971817821264267,-0.0317756272852421,-0.0570594780147076,-0.3139855265617371,0.1664252430200577,-0.5207597613334656,-0.0305582620203495,-0.1105134189128876,0.2546961307525635,-0.1786857247352600,-0.0210372637957335,0.0793703719973564,0.0043042688630521, 0.0421185269951820,-0.1603856682777405,-0.0449029617011547,-0.0400124900043011,-0.2776438891887665,-0.1356322020292282,-0.0911568775773048,-0.5467351078987122,0.1875033229589462,0.1079932153224945,-0.0423033237457275,0.2817985713481903,-0.8865588903427124,0.2007611691951752,0.0092182820662856,-0.0190253984183073, 0.0921272635459900,-0.0628494694828987,-0.1881576776504517,-0.7125151157379150,0.2276082485914230,-0.2730594575405121,-0.3673058748245239,-0.6294274926185608,-0.0240116640925407,-0.2088872194290161,0.0651509389281273,0.2625490725040436,-0.0889274105429649,-0.0817647427320480,-0.0992793813347816,-0.0687193274497986, 0.1276823282241821,0.2983808517456055,-0.4292536675930023,-0.2523236870765686,0.3717651069164276,0.2471078634262085,0.4562833309173584,-0.0796984061598778,-0.2436736524105072,-0.1994845271110535,-0.1256096512079239,0.1919843405485153,-0.2790076732635498,-0.1615159809589386,-0.0455175563693047,0.0460182204842567, 
    -0.4254177808761597,0.3059118986129761,0.5670320391654968,0.0014000484952703,-0.3356050848960876,0.1337196677923203,-0.0750986933708191,-0.0424290075898170,0.7774174809455872,-0.2416525185108185,0.4085507988929749,-0.0249667000025511,-0.4313398599624634,-0.3504208922386169,-0.3557952940464020,-0.1894665956497192, 0.3178666234016418,-0.0499265193939209,-0.1594972163438797,-0.2713243663311005,-0.6740922331809998,0.1039134711027145,0.0459713153541088,-0.3390683531761169,0.4696031510829926,0.1138838380575180,0.0481778234243393,0.3378112018108368,-0.2772854566574097,-0.2574499249458313,0.0051110768690705,-0.1364420950412750, 0.1367664933204651,0.0678494796156883,0.0221384707838297,-0.5362844467163086,0.1459920108318329,0.1165656968951225,-0.0691261366009712,-0.2889074385166168,-0.2610915601253510,0.1318174451589584,0.2453815490007401,-0.5545471310615540,0.0464415401220322,-0.0038634024094790,-0.0578294433653355,0.2401312291622162, 0.2052611559629440,0.0724929273128510,0.2105507105588913,-0.0794637873768806,0.0656936317682266,-0.2084988951683044,0.9883128404617310,-0.0838319808244705,-0.1794544756412506,-0.5885244011878967,-0.8323681354522705,0.0003966152144130,0.0108907157555223,0.2924975454807281,-0.4162855744361877,0.0139141557738185, 
    0.2352917194366455,0.1457261741161346,0.0619838312268257,0.0059238225221634,0.1704277843236923,-0.2983523011207581,-0.2777763903141022,0.2427587062120438,-0.1721558272838593,0.0418155379593372,0.1614813208580017,0.2772607505321503,-0.1908630728721619,-0.4111340343952179,-0.0991910994052887,0.4013195931911469, 0.8292232751846313,-0.2694988250732422,0.1256270408630371,0.3586660623550415,-0.7119149565696716,0.0475509241223335,0.0787564590573311,0.0183369368314743,1.0974088907241821,-0.4229117333889008,0.2659497857093811,-0.0612825341522694,-0.2095903158187866,-0.0999441817402840,-0.1141965761780739,-0.0386248491704464, -0.3422681391239166,0.1205851063132286,0.4747274219989777,0.2019681930541992,-0.1043850854039192,-0.2973612248897552,-0.0443460531532764,-0.0336952768266201,-0.1161965578794479,0.1974861025810242,0.0143133364617825,0.3011379837989807,0.2402424365282059,0.1379143446683884,-0.0969590321183205,-0.3807262182235718, 0.0225416868925095,-0.1671299785375595,0.1583666652441025,-0.4541091024875641,0.0789320543408394,0.0695785582065582,-0.5117232203483582,-0.1507892459630966,-0.1305847615003586,0.2477818727493286,0.3497619330883026,-0.3516398966312408,0.3875921964645386,-0.2582583725452423,0.2916852533817291,-0.4209930002689362, 
    0.3172029852867126,-0.0889117121696472,-0.0782036930322647,-0.0159440059214830,0.2075866460800171,-0.0937090516090393,-0.3414099812507629,-0.0380564071238041,0.9591673612594604,-0.0334172882139683,-0.0432490929961205,-0.1146261990070343,-0.5356295108795166,-0.1687996983528137,-0.1059023886919022,0.1385590732097626, -0.7994552254676819,-0.0409571006894112,0.0090929847210646,0.0807140693068504,-0.2912057042121887,-0.2451637983322144,-0.2531819641590118,0.3058308362960815,-0.8766069412231445,-0.1853282600641251,-0.3148838877677917,-0.1082051321864128,0.1284891217947006,-0.0921378880739212,-0.1829606145620346,0.2263319194316864, -0.1901442557573318,0.0441462062299252,0.2307676225900650,0.1046482250094414,0.2466727495193481,0.4549086689949036,0.5297753214836121,0.3263697922229767,0.1449798196554184,-0.4434662163257599,-0.3568056225776672,0.7180374264717102,-0.0206114016473293,0.0196903217583895,0.3762082159519196,0.4448378980159760, -0.3432910144329071,0.0530387796461582,-0.1397072672843933,0.1034483313560486,-0.3845403790473938,-0.3657706975936890,-0.5024275779724121,0.6871979832649231,-0.1605887413024902,-0.6614921689033508,-0.4269644320011139,0.1020664349198341,-0.3623672723770142,0.2004913389682770,-0.0101919220760465,-0.1257798522710800, 
    -0.0131593002006412,0.1776064336299896,0.0692196935415268,0.3861521184444427,-0.2236224114894867,-0.0728487521409988,-0.4587915241718292,0.5359659790992737,0.2190978527069092,-0.2053190171718597,0.1380310654640198,0.0138119934126735,-0.0777634531259537,0.3953244984149933,0.6405575871467590,0.1716674566268921, -0.5153734087944031,0.3885882794857025,-0.3271261155605316,-0.1867609620094299,-0.9568806290626526,0.1883636116981506,-0.5245580077171326,0.2971549332141876,0.5805569291114807,-0.2527609169483185,0.2192579060792923,0.0660905241966248,0.4356494247913361,-0.0687442943453789,-0.0914672538638115,-0.0155660361051559, 0.3752595782279968,0.1463802754878998,-0.0300728064030409,-0.6479550004005432,0.3796122670173645,0.7372895479202271,-0.2580035030841827,0.5572322010993958,-0.3965664207935333,-0.2577376067638397,-0.1480207890272141,0.1885904669761658,0.1002539694309235,0.4491225183010101,-0.0576175339519978,-0.1001888811588287, 0.1561604887247086,0.3053156733512878,-0.2609131038188934,0.3601553738117218,-0.0341291055083275,-0.1740452796220779,-0.7672557830810547,-0.0215742178261280,0.3314544558525085,0.2418283522129059,0.4114922881126404,-0.5698691010475159,-0.5064896345138550,-0.2189377695322037,0.4077512621879578,0.0483343861997128, 
    0.1005797982215881,-0.3481573760509491,-0.2197339385747910,0.4009453952312469,-0.0494951903820038,-0.0455795489251614,-0.1960906386375427,0.5631553530693054,-0.5546402335166931,0.1778361052274704,-0.0862748324871063,-0.0418203137814999,0.5053402185440063,0.1906245052814484,-0.0172827951610088,-0.2277502417564392, -1.1251733303070068,0.3155239224433899,-0.2421449124813080,-0.0479468740522861,-0.0147184729576111,0.1540643423795700,-0.2663646638393402,0.2681945264339447,-0.4512938261032104,0.3794715404510498,0.2595946490764618,-0.8588492274284363,-0.4401159286499023,0.3821455240249634,0.0128577137365937,0.0613869987428188, 0.0782997906208038,-0.1915289610624313,-0.2296105325222015,-0.8677858114242554,0.2702070474624634,0.2075443714857101,0.4344778358936310,0.2056684494018555,0.3139652907848358,-0.2250499427318573,-0.1171675324440002,0.2656962275505066,-0.0719424337148666,-0.3822785913944244,-0.3098446428775787,-0.1901165992021561, 0.0528513081371784,0.0900898426771164,0.1368025243282318,0.0180964693427086,-0.2999478578567505,-0.2904762625694275,0.1877177953720093,-0.0120656695216894,-0.4294321537017822,0.8189746737480164,-0.2048327773809433,0.2068616598844528,-0.5840098857879639,-0.5800216794013977,-0.2784127295017242,0.1661092489957809, 
    -0.2322909235954285,-0.0046105170622468,0.1664582788944244,0.2529016733169556,0.0204068887978792,0.0622567199170589,-0.2771498858928680,0.0491722039878368,0.7238048315048218,0.0669453665614128,0.0156749766319990,-0.0488507337868214,0.2103359848260880,-0.2428048104047775,0.0909809023141861,0.3206029534339905, -1.1801391839981079,-0.0195387471467257,-0.1178383827209473,0.1067367196083069,-0.8328894376754761,-0.1784493923187256,0.0424334220588207,-0.2803160846233368,-0.7317661643028259,0.3658191561698914,-0.1577220261096954,0.1455431282520294,0.0297934263944626,0.0790719464421272,0.0434574820101261,0.1288705319166183, 0.4099851846694946,-0.0546195320785046,0.0803632587194443,-0.0707390829920769,0.3634249866008759,0.1039877459406853,0.0531769767403603,0.0490915812551975,-0.0206681415438652,0.1406441777944565,0.4782749414443970,-0.4574072062969208,0.0207480285316706,0.1870945990085602,-0.1446356028318405,0.0868907868862152, -0.0607856288552284,-0.3258947432041168,0.2705544829368591,-0.0338107831776142,0.1188260167837143,-0.2151825875043869,0.0005641603493132,0.0612667836248875,-0.0712889879941940,-0.2181593179702759,0.1535211205482483,-0.1142265871167183,0.0280665885657072,0.0279804151505232,-0.0850837826728821,-0.1852373629808426, 
    -0.0832029283046722,0.2093704491853714,0.0818782597780228,-0.0221772659569979,0.7108836174011230,0.1208573952317238,0.2640911340713501,-0.1361014395952225,-0.4932364523410797,0.1814284622669220,0.1108013391494751,0.3522809743881226,0.1308567672967911,-0.0601662322878838,0.0579679422080517,-0.0306380037218332, -0.6428861021995544,-0.0451471135020256,-0.0038978713564575,0.0565101169049740,-0.4354854822158813,-0.5033209323883057,-0.0415945053100586,-0.1516168713569641,0.5060107111930847,0.1062617301940918,-0.0194958895444870,0.1642846018075943,-0.0909079536795616,-0.1357200443744659,-0.0871490091085434,-0.2076475620269775, 0.0397259518504143,0.0852709859609604,-0.1587186604738235,-0.0724803656339645,-0.0035391107667238,-0.3395250737667084,-0.1823898553848267,0.1703653484582901,0.1156121119856834,0.3960537016391754,0.0847186520695686,0.2999444603919983,0.2859359085559845,-0.0822016373276711,-0.3067923486232758,0.2521347105503082, -0.0746654495596886,-0.0456511564552784,0.1357190012931824,0.1261345446109772,-0.4663301706314087,-0.1674141287803650,-0.2008583992719650,0.1811099648475647,-0.0947036072611809,-0.0042164833284914,-0.2165224850177765,-0.0184054430574179,0.0025558767374605,-0.3144840896129608,-0.3178789615631104,0.0618245564401150, 
    -0.4485488235950470,-0.2591939866542816,0.0535141676664352,-0.1944899111986160,-0.3422463536262512,0.0320912078022957,-0.1034450083971024,0.1441639363765717,-0.2090626955032349,0.1071649268269539,-0.5964818000793457,0.0998918488621712,0.2598617672920227,-0.2103128135204315,-0.1600336432456970,-0.1808290183544159, -0.6990473270416260,-0.1299807131290436,0.1932704299688339,-0.3221375942230225,0.0786883234977722,-0.0736603513360023,-0.0182013269513845,-0.0154156871140003,-0.1620707958936691,0.0588439144194126,-0.0933513864874840,0.5265343189239502,-0.0839146673679352,-0.3051476180553436,0.1020774692296982,0.3869279623031616, 0.3342636823654175,0.0008359380881302,-0.2813016474246979,0.0043426784686744,-0.0075979526154697,0.0715558975934982,-0.3114593327045441,-0.0349962227046490,0.0147699285298586,0.4918793439865112,0.1941972225904465,-0.1453595012426376,0.0154735818505287,-0.4148846268653870,0.1632267534732819,-0.0740079656243324, 0.3402200341224670,0.1293374896049500,0.1515763103961945,-0.4215106666088104,0.0676607564091682,-0.1192010045051575,-0.0051471940241754,-0.1142742410302162,0.1670133918523788,-0.3201368153095245,-0.0032702584285289,0.1625058799982071,0.0715431571006775,-0.1407863646745682,-0.0435066595673561,-0.2174164652824402, 
    0.1344071924686432,-0.0553548894822598,-0.0227693431079388,0.0410342067480087,0.4068956673145294,-0.0381960198283195,0.2227522432804108,0.0553700998425484,0.2401834875345230,0.2530279457569122,0.3685086071491241,-0.4414307177066803,-0.7688255310058594,-0.1377259045839310,-0.2136285305023193,-0.2484567612409592, 0.9447748064994812,-0.0358342714607716,0.0019739584531635,0.0878942087292671,-0.7761964797973633,-0.5170760154724121,-0.0515323504805565,0.0387236811220646,0.3310525417327881,-0.1908379346132278,-0.1542703062295914,0.4186090230941772,0.6806859374046326,-0.1094140335917473,0.0387461744248867,0.2887097895145416, -0.0975331664085388,0.0361920818686485,-0.2376086711883545,0.1353760361671448,0.1254835128784180,-0.1580686420202255,-0.3339067101478577,0.0548298209905624,-0.4712897241115570,-0.0787497609853745,0.5119201540946960,-0.2458686083555222,-0.2037755697965622,0.0445936620235443,0.1971761733293533,0.3373967409133911, -0.0211663581430912,0.2938817739486694,0.4308149218559265,0.0571979656815529,-0.0702427551150322,-0.0393258966505527,0.0223401915282011,-0.0292993299663067,-0.3604494035243988,-0.1555225849151611,0.1569841802120209,-0.0154252871870995,-0.1196961626410484,0.0322226360440254,-0.1827695518732071,-0.1219944953918457
};


static const float fx4_paramModel1Alpha[16] = {
    0.0725317600000000,0.5728644000000001,-0.1146249200000000,0.0119850775000000, 0.0426238100000000,0.7456049300000001,-0.6570294500000000,0.1148438200000000, 0.8494223000000000,0.4189753000000000,0.5344187000000000,0.0244812760000000, 0.7205255000000000,-0.3172032000000000,0.0127445020000000,-0.6833010300000000
};


static const float fx4_paramModel2Bias[16] = {
    0.1119380900000000,-0.0419944750000000,-0.0971162900000000,0.0640455500000000, 0.0895623640000000,-0.0909099800000000,-0.2278007100000000,0.3422414400000000, 0.2154668000000000,0.0181717870000000,0.0934257200000000,-0.0698924900000000, 0.0628216640000000,-0.0434824080000000,-0.6072192000000000,-0.0740159000000000
};


static const float fx4_paramModel2Weights[36*16*4] = {
    0.1557724624872208,-0.2400174289941788,0.1075652167201042,0.3158354461193085,-0.1256956756114960,-0.2704981565475464,0.0267736259847879,-0.0069563756696880,0.2263485193252563,-0.1046029329299927,0.0962925925850868,0.2714971005916595,-0.2171336561441422,0.0900081843137741,0.2690149545669556,-0.1554511785507202, 0.2185661643743515,-0.1149539053440094,0.2747552692890167,0.0632982850074768,-0.0269863437861204,-0.2048762291669846,0.1692189425230026,0.0416216254234314,0.1651881635189056,0.1539311856031418,-0.0415031984448433,0.3643647134304047,0.0576630234718323,0.1317558139562607,-0.3130538463592529,-0.1034912914037704, 0.2611819505691528,-0.3033215403556824,-0.0709879472851753,-0.0232439115643501,0.2518992722034454,0.2819439172744751,-0.0385285280644894,0.0731226578354836,0.0885752588510513,-0.1959596723318100,-0.2126718163490295,-0.3753244578838348,-0.0731449574232101,-0.2392147183418274,-0.5070778727531433,0.3614037334918976, 0.4808311760425568,0.1867952942848206,0.1577730774879456,0.1528421193361282,-0.0833949893712997,-0.0389246307313442,-0.0124373575672507,-0.0643670558929443,-0.0277142599225044,0.3674226999282837,0.0937161818146706,0.2933056056499481,0.0818958729505539,-0.3038397431373596,0.4151653349399567,-0.1930191665887833, 
    0.0277995243668556,0.0535295009613037,-0.0915829762816429,-0.4990092515945435,0.1475641131401062,0.0237676836550236,0.0803649574518204,-0.1443395167589188,0.1284732222557068,-0.1577426940202713,-0.1223298758268356,0.0596879236400127,-0.0302374772727489,0.0567366741597652,0.1133620738983154,-0.1152036190032959, -0.0684121996164322,0.2176168859004974,0.2283898144960403,-0.1032348647713661,-0.0692440792918205,-0.0777988731861115,-0.1097133681178093,0.0923547297716141,-0.0385571345686913,-0.0865933299064636,-0.0341489017009735,-0.1056890636682510,-0.0056230006739497,-0.0266535393893719,0.1178985461592674,0.0284535288810730, -0.1831743717193604,-0.0238162912428379,-0.2269251346588135,-0.1376541703939438,0.1500053405761719,0.0353616438806057,-0.0380341149866581,0.1035944521427155,-0.1546299904584885,0.1719943732023239,-0.0720792934298515,-0.2368788272142410,0.0945917963981628,-0.1539122909307480,-0.0542933493852615,0.1807944625616074, -0.1763042509555817,0.0449082627892494,-0.1374075710773468,0.1289271563291550,0.2041868120431900,0.0395726822316647,0.0885089188814163,-0.1208636984229088,0.1791612505912781,-0.2459364235401154,-0.1848176717758179,-0.2019577622413635,-0.1403960138559341,0.1111683845520020,-0.1961036473512650,-0.2809442877769470, 
    0.2730224728584290,-0.3717545270919800,0.0027989873196930,0.1238654330372810,-0.1396546363830566,0.0556976459920406,-0.0804813206195831,-0.1839977949857712,0.3023236691951752,0.0530108846724033,-0.1179375424981117,-0.1209875419735909,0.1612339615821838,-0.0588472336530685,-0.0037601785734296,0.1618857234716415, -0.0498988814651966,-0.2285472303628922,0.1170902326703072,-0.0677682682871819,-0.0134390816092491,-0.1032017245888710,0.0313176326453686,-0.0883818045258522,0.0379603840410709,-0.0176458097994328,0.0272234119474888,-0.1232688650488853,0.0564389303326607,-0.0325731337070465,0.0512077957391739,0.0258631519973278, -0.0066903010010719,0.0124409049749374,-0.0298782922327518,0.0147648872807622,-0.0937392413616180,0.1975816190242767,0.0805434361100197,0.2186266630887985,-0.0437883026897907,0.5568397045135498,-0.0594574436545372,-0.1724147349596024,-0.0101101147010922,0.2068521678447723,0.0255774222314358,-0.1077212542295456, 0.0288234800100327,0.1354756802320480,-0.3140657246112823,-0.1150073111057281,-0.0459510311484337,0.0122420117259026,0.0292440913617611,0.1869618594646454,0.1915424913167953,0.1451260298490524,0.0483653582632542,0.1997981220483780,-0.0755392909049988,-0.0657463818788528,0.0784843116998672,0.0355360768735409, 
    -0.0576645545661449,0.2245120555162430,-0.1064479947090149,-0.2053172141313553,0.3166742622852325,0.1067138612270355,-0.0397796183824539,0.1840581744909286,-0.0283683817833662,-0.1298481673002243,-0.0831977576017380,0.0204879380762577,0.1823587864637375,-0.0658387318253517,-0.0882164314389229,-0.0939328670501709, -0.0780906006693840,-0.1234152093529701,0.1448440253734589,0.1210843920707703,0.0682165995240211,-0.2442452162504196,0.3734024465084076,0.3754690885543823,-0.0384142436087132,-0.0135309137403965,0.0308066736906767,0.0672115236520767,0.0677610188722610,-0.3766599297523499,0.0176224168390036,0.0962356105446815, 0.0464192070066929,0.1348269879817963,0.1665604412555695,0.0642549991607666,0.2574318945407867,-0.0172906368970871,-0.2194101959466934,-0.1559569090604782,0.0254496186971664,0.0600848421454430,0.1650240868330002,-0.1482350230216980,0.0590442009270191,-0.1718487292528152,-0.2193249166011810,-0.1571123003959656, -0.3161498308181763,0.1172904297709465,-0.1161370873451233,-0.0047416030429304,-0.3679354190826416,-0.1112838834524155,0.1173128932714462,-0.1198267638683319,0.0988239347934723,-0.0227404106408358,0.1416529566049576,-0.1221469119191170,-0.1228824108839035,0.0767139717936516,0.0450338609516621,0.1295698881149292, 
    0.0742039233446121,0.3315860927104950,0.2488145381212234,-0.2046786993741989,0.5656769275665283,0.0987788215279579,-0.3961012065410614,-0.1947134137153625,0.5741389393806458,-0.4738912880420685,-0.0384079702198505,0.0691329687833786,-0.5511507391929626,-0.0200498308986425,0.0804072469472885,0.0610963255167007, 0.3408707976341248,0.0727424696087837,-0.0554296746850014,0.2832005321979523,-0.1937214881181717,-0.7885233759880066,0.1001073718070984,-0.0742780342698097,0.2029094994068146,-0.0866898223757744,0.0899339318275452,0.7116856575012207,-0.1342548131942749,0.1464137285947800,-0.3867658078670502,0.3767963945865631, -0.2876994907855988,0.0109828328713775,0.2412611395120621,0.2324007600545883,0.0014162072911859,0.0866717621684074,0.3858259320259094,-0.4576751589775085,0.0055501721799374,-0.0470923110842705,0.0780115649104118,-0.2654560208320618,-0.0877111330628395,-0.0040104500949383,-0.2744771540164948,0.0664428249001503, 0.4056053459644318,0.0372300259768963,0.5368378758430481,0.3913902938365936,0.3551152646541595,-0.7367913126945496,-1.3734236955642700,-0.4791629016399384,-0.5736237168312073,0.5567522644996643,-0.0826761499047279,0.0005838430370204,-0.4591358304023743,-0.2153569608926773,0.0562951043248177,0.0932913944125175, 
    0.3434450328350067,0.0311218965798616,-0.0423320382833481,0.2277141660451889,-0.0008187465136871,0.1672943383455276,-0.1669047623872757,-0.0096740433946252,-0.4814473986625671,0.0740605071187019,-0.0167296342551708,-0.1117992401123047,-0.0492502301931381,0.0140825025737286,-0.1214023530483246,0.0880760699510574, -0.2443996518850327,-0.7021349668502808,0.4275442361831665,-0.6687074303627014,-0.3427978456020355,-0.4823738634586334,0.3183255493640900,0.1534130424261093,-0.0450461357831955,0.1644492894411087,-0.1059325709939003,-0.4826168119907379,0.0186603330075741,0.2058908641338348,0.1256958842277527,0.1248455420136452, -0.3274991214275360,0.4329336583614349,-0.7400608062744141,0.5107627511024475,-0.0138595253229141,0.0748055875301361,0.1891988813877106,-0.1568360477685928,0.1494901031255722,0.1432642191648483,-0.0005146258044988,-0.4042183458805084,0.0396802797913551,-0.1960279047489166,-0.0137675032019615,-0.2313694208860397, -0.1355822831392288,0.1039975062012672,-0.3106591105461121,-0.1985112428665161,-0.2340072393417358,-0.3170280456542969,-0.5717990398406982,-0.1619745492935181,-0.1168045029044151,-0.2017762362957001,-0.1776240766048431,0.0490907132625580,0.0877033993601799,0.1551895290613174,-0.0371524430811405,-0.0933935567736626, 
    0.2473057955503464,0.0061971978284419,-0.0725047886371613,0.1108756512403488,0.1003665626049042,-0.0993893146514893,-0.0631797760725021,0.0565534643828869,0.2478523403406143,-0.3422386646270752,0.2293438911437988,0.0429929792881012,0.0350777991116047,-0.1271335184574127,0.1146187931299210,-0.1202149018645287, -0.0074631059542298,-0.1705715507268906,-0.0398574769496918,-0.0694813802838326,0.0420053675770760,0.2454130649566650,0.2390331476926804,0.0733008384704590,0.0417609028518200,0.0638583377003670,0.0060370974242687,-0.0901938825845718,0.1108592376112938,-0.2953117191791534,-0.1472757458686829,-0.2123473286628723, 0.2037246674299240,-0.2040018737316132,-0.4692327380180359,-0.1930367201566696,0.1381580978631973,0.1743297576904297,-0.0114440508186817,-0.0329774245619774,0.0700798407196999,0.2926262319087982,-0.1634317338466644,-0.3093769550323486,-0.1337631195783615,0.2102489471435547,-0.1468720287084579,0.0592909045517445, -0.8578475117683411,0.1572205722332001,-0.0710876733064651,-0.2872193157672882,0.5289652943611145,-0.1538420915603638,-0.1136188209056854,0.0488345734775066,0.2140291184186935,-0.0691125839948654,0.2038893848657608,-0.1163443922996521,-0.1442786902189255,0.1510178893804550,0.0576374568045139,-0.2130711078643799, 
    -0.4665386974811554,0.0596907064318657,-0.1517993807792664,-0.0081981774419546,0.3336559832096100,0.1117948442697525,-0.0863680690526962,0.0164084248244762,0.1767481118440628,-0.0645435824990273,0.1164057627320290,0.4594475030899048,-0.6861908435821533,-0.0647393539547920,-0.1883081197738647,-0.1436609625816345, 0.1471408158540726,0.3841315805912018,-0.3391537070274353,-0.1399247199296951,0.0408526100218296,-0.1876358985900879,0.1498802751302719,0.5211815834045410,0.1674347519874573,-0.1673604547977448,-0.1592180281877518,-0.5121361017227173,0.1020880192518234,-0.3682474493980408,-0.0654133334755898,-0.3633686006069183, 0.1670187562704086,-0.3362899124622345,-0.1619813591241837,-0.4652316868305206,-0.0243055764585733,0.1109028831124306,-0.0972725749015808,-0.1953175216913223,0.1300919950008392,0.0187255553901196,-0.1835245937108994,-0.1138473227620125,-0.0762241035699844,0.3822688758373260,-1.0299422740936279,-0.3777282536029816, 0.1520885378122330,-0.2018249481916428,0.5663068294525146,0.3355145752429962,-0.4185040891170502,-0.2064085304737091,0.3081220388412476,-0.1565806567668915,0.2195634841918945,-0.2391806095838547,0.1437259018421173,0.2538051605224609,0.5837651491165161,0.0497853532433510,-1.3040018081665039,0.2775783538818359, 
    0.1737889051437378,-0.2534498572349548,0.0047775674611330,-0.3591187596321106,0.2714791297912598,-0.0151994572952390,-0.0388769246637821,-0.1676727980375290,0.6769266724586487,-0.3725066483020782,-0.1184518933296204,0.1372455060482025,-0.2842362821102142,-0.1206852048635483,0.0767165571451187,0.0655230209231377, 0.0034583681263030,-0.4424140155315399,0.3222266435623169,0.3228506147861481,-0.1297348737716675,-0.1218702346086502,-0.2221238464117050,-0.1179153919219971,0.0276849046349525,-0.4034049510955811,0.2529613673686981,0.2288037687540054,-0.0248319804668427,0.1455291956663132,-0.2980452179908752,0.1809034198522568, -0.0938036367297173,0.0439193509519100,0.0435544550418854,0.0219854097813368,-0.0764328241348267,-0.1033276095986366,-0.0316490717232227,-0.2362206876277924,0.0255596488714218,-0.0147816203534603,0.1013251170516014,0.3347798287868500,-0.0341220758855343,-0.0273007676005363,0.0346206985414028,-0.0563512034714222, 0.1795641779899597,-0.5129924416542053,0.2566113471984863,0.0513543337583542,0.4057932794094086,0.4044339358806610,0.1218485832214355,0.0433903560042381,-0.1697469949722290,-0.1078078076243401,-0.0833826363086700,-0.0803157612681389,0.1707542091608047,0.0910674482584000,0.0367062799632549,0.1207120269536972, 
    0.2808897793292999,0.0518516004085541,-0.0082687288522720,-0.1061773151159286,0.0855162665247917,-0.1232843920588493,-0.0875735729932785,-0.2894701063632965,-0.4192033112049103,0.0888716578483582,-0.0299983918666840,-0.2621044516563416,-0.0927660912275314,-0.2017336040735245,-0.1080171242356300,0.0502130612730980, -0.1803148388862610,-0.0580947995185852,0.2638223767280579,0.0053606857545674,0.0884210765361786,0.1165693178772926,-0.1212168112397194,-0.1499889194965363,-0.0273174457252026,0.0916838049888611,0.1013363748788834,-0.0459469035267830,0.0714396685361862,-0.0309831220656633,0.1332694292068481,0.0182686354964972, -0.1938775926828384,-0.2080749422311783,0.5952659845352173,0.1470026522874832,0.0185587424784899,-0.2127871364355087,-0.0658850669860840,-0.0212989374995232,-0.0083063775673509,0.0504665300250053,0.0411713086068630,-0.0199139993637800,0.0290983524173498,0.1034691110253334,-0.1237340718507767,-0.0278329644352198, 0.2005886733531952,0.0340865813195705,0.0006370996707119,0.0640534907579422,0.1827953308820724,0.1067010015249252,-0.0615948811173439,0.2811773121356964,-0.0476165264844894,0.0150882070884109,0.0324550494551659,-0.0222639888525009,-0.0781979188323021,-0.0155747309327126,-0.1095648184418678,-0.1512835770845413, 
    0.2440753132104874,-0.0193493198603392,-0.1379234492778778,0.0066654193215072,0.0706113800406456,0.0882216095924377,-0.0249630268663168,0.1057123541831970,-0.0089720506221056,0.2202066481113434,-0.0385117195546627,-0.0522317700088024,0.1718820631504059,-0.2827343344688416,0.2465575486421585,-0.0923865959048271, 0.0013840252067894,0.0537036843597889,0.0028669994790107,-0.0692071542143822,-0.0210248120129108,-0.0376860797405243,0.1403350085020065,-0.0486344471573830,-0.0166175812482834,0.1040102392435074,-0.2621273100376129,0.2629109919071198,-0.0230532605201006,0.0200298298150301,-0.1025109440088272,0.3755714893341064, 0.0872322395443916,0.2086859047412872,-0.0335298851132393,-0.1064435765147209,-0.0622684955596924,0.1297835111618042,0.0046522994525731,0.1049256995320320,0.0120560042560101,0.0697732046246529,-0.0790681764483452,0.5068437457084656,0.0401123538613319,0.1563821434974670,0.4135105609893799,-0.3401287496089935, -0.0666021928191185,-0.1855155825614929,0.0277987308800220,0.0668748989701271,-0.2149738967418671,0.1252639740705490,-0.1519647091627121,-0.2164093405008316,-0.1060521230101585,-0.0706132873892784,0.1101526394486427,0.0475163832306862,0.3853501975536346,-0.1266742795705795,0.2519564032554626,0.0531384982168674, 
    0.6375291943550110,0.0683716237545013,-0.1682415306568146,0.0804582759737968,0.3102907538414001,0.1921266615390778,-0.1583388298749924,0.0400869622826576,0.0067690950818360,-0.1695413142442703,0.0103560276329517,-0.4732841253280640,-0.4712240099906921,0.2192515879869461,-0.0486423559486866,-0.3536128103733063, 0.0099555933848023,-0.1000493541359901,0.3461923003196716,-0.1771626472473145,-0.0559437237679958,-0.4261650741100311,0.0179430320858955,0.2067538201808929,-0.0056685088202357,-0.5638228058815002,0.0402572788298130,0.5573902130126953,-0.0071354303508997,0.1003789752721786,-0.0420617125928402,-0.2085671573877335, -0.0597217679023743,-0.1835482716560364,0.0516187138855457,0.3287580311298370,0.1692433655261993,0.0792800560593605,-0.3069395422935486,-0.1062743812799454,0.0172394979745150,0.3493451476097107,0.1039052009582520,0.2749043107032776,0.0954911336302757,0.3105877935886383,-0.5166572332382202,0.0202863141894341, 0.1159701496362686,-0.0084944348782301,-0.7656102180480957,-0.3829541802406311,-0.3608425557613373,-0.1558573096990585,0.0900689736008644,0.0662941560149193,-0.2883275449275970,0.1222957372665405,0.2507971227169037,0.0794426351785660,-0.2752228379249573,-0.1641055792570114,-0.0919880121946335,-0.1408314406871796, 
    0.0742615386843681,0.2296936661005020,0.1327810585498810,0.1570393890142441,0.0655835345387459,0.2232458889484406,0.3365372419357300,0.0764336362481117,-0.4469092786312103,-0.0352480411529541,-0.1121128052473068,0.1943095624446869,0.6306086778640747,-0.3382454812526703,0.2059033364057541,-0.4793399572372437, -0.0408543087542057,-0.3059429228305817,0.0448975823819637,0.0956228449940681,0.0455617494881153,0.2583211362361908,0.1299225091934204,0.2364512681961060,-0.0844693332910538,0.2308758050203323,-0.3554176390171051,-0.0168492440134287,0.3633264303207397,-1.0608971118927002,0.7281654477119446,-0.1758343130350113, 0.0888591632246971,-0.7172644138336182,0.2455265522003174,-0.0214118305593729,-0.3389017581939697,0.0847940444946289,0.1533551663160324,0.0743909776210785,-0.3516659736633301,-0.3500036895275116,0.5517675280570984,-0.1308436840772629,0.0453133285045624,0.1097877323627472,1.2130768299102783,0.0393265597522259, -0.0647677034139633,0.2653796374797821,0.2511106133460999,-0.0075323008932173,-0.4320040047168732,0.3906033337116241,0.2866861522197723,-0.3765340149402618,0.8478649258613586,-0.3619889914989471,-0.3775984346866608,-0.0531409084796906,-0.2338276207447052,-0.3176276087760925,-1.1023315191268921,-0.1350858360528946, 
    -0.0335386954247952,0.0773263573646545,-0.0498312935233116,-0.2662060856819153,-0.1024783626198769,-0.1438374519348145,0.3337449729442596,0.1600693613290787,-0.3911653757095337,0.0013881913619116,-0.1686626374721527,-0.0768471285700798,0.2652637660503387,-0.1388708055019379,-0.1930581480264664,-0.0159711483865976, -0.1948831826448441,0.2991825044155121,0.0705287754535675,-0.1609321385622025,0.0275199469178915,-0.0901011079549789,-0.1507030278444290,0.1126018986105919,-0.0039240801706910,-0.3423258960247040,-1.3338861465454102,-1.3548041582107544,-0.0929834321141243,-0.4495736360549927,0.2237313091754913,0.3628199100494385, -0.4795973002910614,-0.3086068928241730,0.2483846545219421,0.0503809824585915,0.4810820817947388,-0.1691531389951706,-0.7949432134628296,0.1165738329291344,-0.4615993797779083,-0.6113069057464600,0.1089671030640602,0.0854042172431946,0.0939490944147110,0.2493979632854462,-0.3229713737964630,-0.1819818019866943, -0.3482733070850372,-0.0634625703096390,-0.2183379828929901,-0.4494414627552032,0.5298135876655579,0.4208492636680603,0.4652777612209320,0.4333564043045044,-0.4436154365539551,0.4254021346569061,-0.6444851160049438,-0.0401117540895939,0.0826826617121696,0.0880065858364105,0.0292233172804117,-0.2038773149251938, 
    0.2119981050491333,0.2276200503110886,-0.1128921210765839,0.3458834588527679,0.0342236682772636,0.0518992058932781,0.1991955637931824,-0.2089986950159073,0.1023278459906578,-0.5055825710296631,-0.0748173668980598,-0.0053507550619543,0.0098064057528973,-0.0931528955698013,-0.1289813369512558,0.0003900448500644, -0.3964990079402924,-0.4160127341747284,0.4694137275218964,-0.0001566693681525,-0.0254465974867344,-0.4940521717071533,-0.1652233302593231,-0.3907073736190796,-0.0474121570587158,-0.1229673847556114,-0.0713803172111511,-0.0438468232750893,-0.0449005775153637,-0.2801599204540253,0.1456699967384338,-0.0302407648414373, -0.4989235401153564,-0.0381740555167198,-0.3371911644935608,-0.0673413947224617,-0.3063918352127075,0.1843633949756622,-0.0075650126673281,-0.1234393566846848,0.1270051598548889,-0.4116500318050385,-0.1240705326199532,0.0022410023957491,0.0402996987104416,-0.3782086372375488,0.0151979923248291,-0.0856169834733009, 0.3403131365776062,-0.0294559244066477,-0.9536711573600769,0.0280027613043785,0.1667526662349701,0.4750601053237915,0.0066320635378361,0.0017220084555447,-0.3025410473346710,-0.0759771019220352,-0.0788392424583435,-0.1678519845008850,0.0594407357275486,-0.2157873660326004,0.2267338484525681,-0.0249488968402147, 
    0.1063034236431122,-0.3939115405082703,-0.0891183987259865,-0.0488866046071053,0.1910812705755234,0.4140738844871521,-0.0838070586323738,0.0627380385994911,0.1748353242874146,-0.1629001051187515,-0.0863419845700264,0.1364584267139435,-0.0742121860384941,0.0146617619320750,0.1830251365900040,-0.1503036171197891, -0.1175337284803391,0.0546511523425579,-0.3588262200355530,0.0670928806066513,0.0776920318603516,-0.2195267081260681,0.1987758278846741,0.3885099589824677,0.0970680043101311,-0.0147503968328238,0.1856458336114883,-0.2915318906307220,-0.0261315498501062,-0.3290179967880249,-0.1293071061372757,-0.5869649052619934, 0.2636722624301910,-0.0812360271811485,-0.4508590698242188,-0.1086956933140755,0.0232687555253506,-0.0746035873889923,-0.3189932405948639,-0.0940357074141502,0.0246243719011545,0.3099347054958344,0.0254487898200750,-0.0404605418443680,-0.3926200568675995,-0.6416141390800476,0.0889352336525917,0.0338356755673885, -0.0329809114336967,0.1175639107823372,-0.0526301302015781,-0.0501589141786098,0.0889413803815842,0.0668117702007294,0.1290792375802994,0.1606862992048264,-0.0104354945942760,-0.0014903416158631,-0.0025547144468874,0.0659395158290863,-0.0591790042817593,-0.3327721953392029,-0.0010825804201886,0.0390872806310654, 
    -0.0334464013576508,0.0126029150560498,-0.3460363149642944,0.2127321809530258,-0.5762004852294922,0.2441948950290680,0.6209524869918823,0.2249058634042740,-0.4062195122241974,0.1352157294750214,-0.0628572702407837,-0.3480704724788666,0.3150946199893951,0.0418604724109173,0.0320125892758369,-0.9255505204200745, -0.1933218538761139,-0.2824518680572510,0.5475972890853882,0.1082252264022827,0.2888258099555969,-0.4159036576747894,0.5864621996879578,0.1658034175634384,0.1190019622445107,0.1474427878856659,0.0682121440768242,-0.5335625410079956,0.1535993218421936,-0.3322310447692871,-0.5619221925735474,-0.5622816085815430, -0.3107474148273468,0.8177157640457153,0.4594884216785431,0.1740209460258484,-0.8147509098052979,0.2812227904796600,0.1763809323310852,-1.1340618133544922,0.0846086516976357,0.1756450682878494,0.3046755492687225,-0.1132171973586082,-0.0168643891811371,0.1479826569557190,-0.7104389071464539,0.1595527529716492, -0.1045798212289810,-0.5253725051879883,0.3501930832862854,-0.1075964197516441,-1.3888847827911377,-1.0279138088226318,0.3701907694339752,-0.2649837434291840,0.1804828494787216,0.2642315328121185,-0.2268741130828857,0.1137696355581284,0.1595581620931625,-0.3595071434974670,0.0282042324542999,0.0305255632847548, 
    0.5917715430259705,0.1216757819056511,-1.0253587961196899,0.1961725503206253,-0.5425761342048645,-0.5120945572853088,0.6570162177085876,0.9406892061233521,-1.6795727014541626,0.2109282612800598,-0.3537916541099548,0.1451812237501144,0.3117737174034119,-0.1988202333450317,-0.2759831547737122,-0.0833040550351143, -0.2001760751008987,0.0889735668897629,0.9162263870239258,0.2227656543254852,0.8623094558715820,0.2408041059970856,-0.2337934225797653,0.0111208120360970,-0.2979416549205780,0.1590038537979126,-0.5061300992965698,-1.5909984111785889,0.0838851258158684,0.6441264152526855,-0.0748148709535599,-0.0009425345924683, 0.1123441159725189,-0.1320133805274963,0.6237255334854126,0.0511267520487309,-0.1499764323234558,-0.4379855692386627,0.3640559911727905,0.4167482852935791,-0.1243883594870567,0.0605818182229996,-0.4743705391883850,0.2507618069648743,0.0863527208566666,0.2645215392112732,0.3356822431087494,-0.2705144882202148, -0.0097092576324940,-0.0999733209609985,0.3674243688583374,-0.4710738360881805,-0.5019659399986267,-0.2729211151599884,0.6514106392860413,0.7217952609062195,0.2505131363868713,-0.0544521510601044,-1.2735111713409424,-0.3009568452835083,-0.4117174744606018,-0.6445766687393188,0.4885997176170349,-0.1296649128198624, 
    -0.4471911489963531,0.6120698451995850,0.5271095633506775,-0.7499679923057556,-0.2463825196027756,-0.0956111475825310,-0.0080066472291946,-0.0011735516600311,-0.3717868626117706,0.3984565436840057,-0.1674728393554688,0.2805303931236267,0.7999514341354370,0.6586376428604126,-0.2271668761968613,0.3138606250286102, 1.1379190683364868,1.0400469303131104,-0.6611604690551758,-0.4248370528221130,0.1347997337579727,0.8090565204620361,0.1492464095354080,0.5971003174781799,-0.1729169189929962,-0.2717353403568268,-0.7687209248542786,0.2536264657974243,-0.0881110206246376,-0.6162296533584595,0.1872125715017319,-0.4031238257884979, -0.1237077042460442,0.1962699741125107,0.0809006094932556,-0.0928401723504066,0.1903762817382812,-0.2911386489868164,-0.3462768495082855,-0.5045979022979736,-0.0901889577507973,0.0266122650355101,0.1529221087694168,0.0591199100017548,-0.2868256866931915,-0.3039460480213165,0.4314754903316498,-0.0808280780911446, 0.5303117036819458,0.4290560185909271,1.1118541955947876,0.3574773073196411,-0.9428174495697021,-0.2958954572677612,0.1869140565395355,-0.1340246647596359,-0.2195816040039062,-0.0242294296622276,0.5772704482078552,-0.0174161698669195,-0.3401756584644318,0.4132499694824219,-0.0187710784375668,-0.1937654912471771, 
    -0.9234251379966736,-0.3308297693729401,0.1867633908987045,0.2534616589546204,0.4068037867546082,0.3668144047260284,-0.1668215692043304,-0.3082031309604645,-0.1723986119031906,-0.1839044392108917,-0.1405727416276932,0.3200530111789703,-0.9028826951980591,0.4867585599422455,0.2521122694015503,0.1191288828849792, 0.2630765140056610,-0.0467675887048244,-0.5289093852043152,0.2239540219306946,-0.0096199410036206,-0.0529733970761299,0.2901508212089539,0.2710374295711517,0.4588896036148071,-0.6601779460906982,0.0789409801363945,-1.3495811223983765,-0.2257501333951950,-0.7253293991088867,-1.2303432226181030,-0.5625920295715332, 0.6454930305480957,0.2962385416030884,0.9188934564590454,-0.2835581302642822,0.1172076314687729,-0.0804823562502861,-0.4168299436569214,0.3442699313163757,0.1442712247371674,-0.3242548704147339,-0.7519730925559998,0.1826895922422409,-0.3727062642574310,-1.4685931205749512,-0.2084881514310837,-0.0007259215926751, -0.2734689116477966,0.0046663996763527,0.2246507108211517,-0.3193747103214264,-0.1261122524738312,0.1354630440473557,0.2043162733316422,0.4434671700000763,-0.1358170360326767,0.1128254979848862,-0.0425291135907173,-0.2963769435882568,-0.2263623923063278,0.4822137951850891,-0.5559572577476501,-0.2401371896266937, 
    0.4953932464122772,-0.0910384356975555,0.1642654389142990,0.3905782699584961,-0.1926383823156357,-0.1521166414022446,0.1797483861446381,0.0586997717618942,0.4645351171493530,-0.1550887376070023,0.0461332015693188,-0.0259084142744541,-0.2246636599302292,-0.1767116189002991,-0.0225192438811064,0.2838369905948639, -0.1206258088350296,-0.0778268799185753,0.6562313437461853,0.6917239427566528,0.0431315265595913,0.3462398350238800,0.0036601081956178,0.0033190096728504,0.0351527258753777,-0.4026745557785034,0.3950760662555695,0.5096300840377808,0.0734286606311798,0.1154833436012268,-0.3360273540019989,-0.1217596754431725, -0.1116780638694763,0.0497035831212997,-0.2075288593769073,0.2437759637832642,0.0701292306184769,0.2069978863000870,0.2194592803716660,-0.3920353949069977,-0.0526758246123791,-0.2332554310560226,0.0978571996092796,0.1548211276531219,-0.0302871409803629,-0.2595648467540741,0.3020327985286713,-0.0574148222804070, -0.1504356265068054,0.0684006065130234,-0.0158325228840113,0.0489934347569942,0.4618770480155945,-0.2608482241630554,-0.1069863662123680,0.0981275215744972,0.0111148674041033,0.4237806200981140,-0.4057734906673431,-0.1010265201330185,0.1145104989409447,-0.1294914931058884,0.1364081799983978,-0.0759073495864868, 
    0.2553018033504486,-0.1069065183401108,0.0721376165747643,-0.0309357885271311,0.0410716012120247,-0.2322970181703568,-0.0855796635150909,-0.2266767472028732,-0.3581749796867371,0.0882283002138138,-0.0160076580941677,-0.2270247936248779,0.1506020277738571,0.0474426969885826,0.1792131364345551,-0.5470691919326782, -0.1532499641180038,-0.0860679745674133,0.1100338622927666,0.1216355636715889,0.0106702875345945,0.0471469387412071,0.1063393205404282,0.0228132437914610,-0.1402348875999451,0.4400140047073364,-0.1058604642748833,0.1617963165044785,0.1108667254447937,-0.4592894315719604,0.1600087434053421,0.1401618421077728, -0.0436358824372292,-0.4221659004688263,0.2284815162420273,0.1567115485668182,-0.1210350841283798,0.3131075501441956,-0.1080574169754982,0.3406592309474945,0.0822082683444023,0.2443565130233765,0.0554996393620968,0.1060948818922043,0.0077295787632465,0.1465543210506439,-0.4369400441646576,-0.0505948923528194, 0.0143056446686387,0.0549502037465572,-0.0006746322615072,-0.0409760177135468,-0.0039918101392686,-0.1673456430435181,-0.1256421357393265,-0.0440369285643101,-0.0011832318268716,-0.0933073759078979,-0.1960354000329971,0.0094725349918008,-0.1012543290853500,0.2317935526371002,-0.0404638946056366,-0.0458477400243282, 
    -0.3303380906581879,-0.1166710183024406,0.0548437461256981,-0.1656740903854370,-0.1305480897426605,0.0487894862890244,0.0693943724036217,-0.2600308060646057,-0.2879959642887115,-0.1950369179248810,0.0020583763252944,-0.2384041547775269,-0.0980204492807388,0.0755724683403969,-0.6701030731201172,-0.9427760839462280, -0.0290936045348644,0.0964563935995102,0.0843473896384239,0.1509125530719757,0.0487104877829552,0.0735792592167854,-0.1007288023829460,0.1018621549010277,0.2307807654142380,0.2693694233894348,-0.4483836889266968,-0.0566562153398991,-0.2424797266721725,-0.0083412099629641,0.4011763930320740,0.2668607234954834, 0.0996470302343369,-0.2066887468099594,0.0527956113219261,0.2037562280893326,0.2213017642498016,0.1733819842338562,-0.1850738674402237,-0.3966625332832336,0.2356692105531693,-0.1035793498158455,0.1174990683794022,-0.2505366504192352,-0.3229177594184875,0.1260489225387573,-0.0384576469659805,-0.8836253285408020, -0.1032573655247688,0.0834253355860710,0.2595101296901703,0.0400645211338997,0.3523486554622650,-0.1591516137123108,0.0832872316241264,0.1597363054752350,0.1574477255344391,-0.0692681223154068,0.4271520674228668,0.0869165956974030,0.0792472064495087,-0.7002683281898499,-0.0131982099264860,0.3693089485168457, 
    0.5710322856903076,0.4299512803554535,0.2253937274217606,-0.2540931999683380,0.2771733701229095,0.3460732996463776,-0.1731640994548798,-0.0711413472890854,0.6834899187088013,0.1575846523046494,-0.9812388420104980,-1.4288260936737061,-0.7234669923782349,-0.1732824295759201,-0.0902162343263626,-0.1391126662492752, -0.3253516852855682,-0.3359203934669495,0.6640309095382690,0.0416375249624252,-0.0490363165736198,-0.3969734609127045,0.1997065693140030,-0.1613853275775909,-0.0694374367594719,-0.7037144303321838,0.3061023652553558,-0.4496015012264252,-0.1201527565717697,0.5774800777435303,0.0028569768182933,-0.5165764689445496, -0.4941682219505310,0.6560091972351074,-0.3068787753582001,0.0347772501409054,0.2064507901668549,-0.2471724599599838,-0.2137716114521027,-0.0601277351379395,-0.0310596451163292,0.7327942252159119,-0.8031327724456787,0.9899498224258423,-0.2445762306451797,-0.4548124969005585,-0.1792428791522980,0.2788921296596527, 0.2780112326145172,0.0149510120972991,-0.3033063709735870,-0.0987219884991646,-0.5995952486991882,0.0660394281148911,0.1308936178684235,0.0659356266260147,1.1832191944122314,-1.0542620420455933,-0.5035651922225952,-0.3006044626235962,0.1685246527194977,-0.0196328517049551,-0.0236695576459169,-0.0992954149842262, 
    -0.0882020294666290,0.0504108704626560,-0.1110488846898079,0.0938459113240242,0.0756534412503242,-0.1343014538288116,-0.4636706411838531,0.0364223681390285,0.0538867600262165,-0.2015435695648193,0.2651903033256531,0.0119675472378731,0.0233388803899288,-0.0433471910655499,-0.3299552202224731,-0.0018245878163725, -0.0316358394920826,0.0024445410817862,0.2960197329521179,0.2808344364166260,0.3148672580718994,0.3953526616096497,0.0502627864480019,-0.2503043711185455,-0.1057824492454529,0.0567217096686363,-0.8853321075439453,0.8564010858535767,0.0889170691370964,0.2622359693050385,0.3534671366214752,0.3022046685218811, -0.1992206424474716,-0.5545768141746521,-0.0442798323929310,-0.0354213193058968,0.6146102547645569,0.2926045954227448,-0.3534204363822937,-0.0256369262933731,-0.2230044752359390,0.1226584017276764,-0.0046781776472926,-0.1036726683378220,0.5821782350540161,-0.1132861971855164,-0.1123216599225998,0.0094302184879780, -0.1395714879035950,0.0022515049204230,0.0761538743972778,-0.1340691447257996,0.0735769644379616,0.6341655254364014,0.0038471324369311,0.1772256940603256,0.1785580515861511,-0.5261485576629639,0.0714343190193176,0.0908851325511932,0.0542417168617249,0.2449104636907578,-0.0075324284844100,0.0556270629167557, 
    0.2232858091592789,0.0163885671645403,0.0975349321961403,-0.0897034704685211,-0.2983839809894562,0.2607845962047577,-0.2847315669059753,0.1545104086399078,0.0117515595629811,-0.0082509117200971,0.1177954524755478,-0.0762179493904114,0.2505760192871094,-0.2296077460050583,-0.1367186307907104,0.0403339304029942, -0.0614288151264191,0.1377528756856918,0.0229512844234705,0.3273688852787018,-0.0971467718482018,-0.4266188740730286,0.1310009509325027,0.0132477451115847,0.0231813266873360,-0.1280322372913361,-0.2252705544233322,-1.1691455841064453,-0.0689697265625000,-0.1760633885860443,0.3212803602218628,-0.0935713350772858, -0.2145101428031921,-0.5529041290283203,0.1470768302679062,-0.0305036250501871,0.0000444113538833,-0.0470536164939404,-0.0463633872568607,0.0357986912131310,-0.1811603158712387,-0.1227328702807426,0.1401389092206955,-0.0045307455584407,0.2166213989257812,0.5093715786933899,-0.1675151586532593,-0.1117270961403847, -0.0390802882611752,0.0179525613784790,0.0167357828468084,0.1116629838943481,-0.2811864316463470,-0.0873063206672668,-0.1036288663744926,-0.1699419021606445,-0.1032285615801811,-0.2512091696262360,0.0354395583271980,-0.0961704254150391,0.0505461022257805,-0.1197709962725639,-0.3056876361370087,0.1618712544441223, 
    0.2138935625553131,0.1979465037584305,0.0637117251753807,0.0859380513429642,0.0141963046044111,-0.0676483213901520,0.0098639773204923,0.0149130225181580,0.2098134607076645,0.2235675007104874,0.2475582957267761,0.0289977453649044,0.0651808232069016,-0.0691988915205002,-0.0419899187982082,0.0408976152539253, -0.1983482986688614,-0.0157578326761723,0.1024620607495308,0.0743592903017998,-0.1779299676418304,-0.1237793043255806,0.0415562503039837,-0.1777907609939575,-0.0327208898961544,-0.0951221510767937,0.1301837563514709,0.0249838083982468,0.0768038108944893,0.0139818768948317,0.1010548323392868,-0.4486377835273743, -0.3663335144519806,0.0515845604240894,0.1245518475770950,0.0015974612906575,-0.3333446085453033,0.5230053067207336,0.0859218016266823,-0.0483436957001686,0.0587828271090984,-0.2230891585350037,0.2153456062078476,0.2071840465068817,-0.0368425995111465,0.2123623043298721,0.1725733727216721,0.0952913314104080, -0.0060596340335906,-0.4038154482841492,-0.0459923930466175,-0.0732134953141212,-0.0338743180036545,-0.2106592357158661,0.0342205092310905,-0.3111465573310852,-0.0008023190312088,-0.1614825874567032,-0.2185123860836029,-0.0381174385547638,-0.0042359936051071,-0.0097044073045254,0.0535573996603489,0.0028462114278227, 
    0.0576778203248978,0.0086622275412083,0.4085775911808014,-0.0491287969052792,0.1254583895206451,0.2597125768661499,-0.1115791127085686,0.1994706541299820,0.0705892890691757,0.0938670709729195,0.1412455588579178,0.1337519735097885,0.0716694146394730,0.0052591483108699,0.0084141520783305,0.0144257238134742, 0.0232827849686146,-0.1583583056926727,0.1993732154369354,-0.0068550608120859,-0.0326405428349972,0.0079676620662212,0.3894319236278534,-0.0787444636225700,0.0691017359495163,-0.1014940887689590,0.0110564446076751,0.0561729967594147,-0.0486661121249199,-0.1548883169889450,-0.1156133562326431,0.0240682065486908, 0.0391788482666016,0.1643474549055099,0.0447449758648872,-0.0174345429986715,0.1813429594039917,-0.2338147610425949,-0.1169681921601295,0.0137481391429901,-0.1049854308366776,-0.0686149522662163,0.1351389139890671,-0.0419842116534710,-0.2686291635036469,-0.3707744181156158,0.1352089941501617,-0.0465179458260536, 0.2751574814319611,-0.2245997935533524,-0.2629395723342896,0.0352282337844372,-0.3350871205329895,-0.0459413640201092,0.2782379686832428,0.0289907082915306,-0.0614316426217556,0.1189803630113602,0.1105714961886406,0.0322843678295612,0.0169841777533293,-0.1502764075994492,-0.0129753546789289,-0.1011515036225319, 
    0.0066740424372256,-0.1032351031899452,0.3395225703716278,-0.0926415547728539,-0.2744058072566986,0.0658977627754211,-0.0924410596489906,-0.0709773674607277,0.1831850707530975,-0.3320693969726562,-0.1005667299032211,-0.0182007700204849,0.0386961363255978,-0.0194073338061571,-0.0317092202603817,-0.1209892630577087, -0.0443140342831612,-0.3025154769420624,0.1235034614801407,0.3245607316493988,0.3998385071754456,0.1696210056543350,-0.7278667092323303,0.0843509063124657,-0.0355579517781734,0.1660760343074799,-0.1184076368808746,-0.4801776111125946,0.0954857915639877,-0.1065406128764153,-0.1317515820264816,-0.1029295176267624, 0.0535161904990673,-0.3800140321254730,0.0412692092359066,-0.0021780650131404,-0.2475646585226059,-0.3035752177238464,-0.1437774598598480,0.1615057736635208,0.1169504448771477,0.2357821315526962,-0.0439537465572357,-0.1145492568612099,-0.0340938642621040,-0.0638393759727478,-0.2630559802055359,-0.1062858551740646, 0.1934517920017242,0.0817612558603287,0.3377064764499664,-0.1337254494428635,0.1927747726440430,0.3715067803859711,0.4364674985408783,0.3343930244445801,0.2947932481765747,-0.1822365522384644,0.0465682558715343,-0.0573229789733887,-0.0403199754655361,0.1557122170925140,0.1832908391952515,-0.0403999313712120, 
    0.1855310052633286,-0.0481480807065964,-0.1117631942033768,0.0072811762802303,0.4877910614013672,0.0283964816480875,-0.2214603573083878,-0.2638957500457764,-0.2206003218889236,-0.1563047021627426,0.2443288415670395,0.0054596504196525,0.1773701757192612,0.1124109625816345,-0.1013734042644501,0.1295738369226456, -0.1560313105583191,-0.1475519835948944,0.1657002419233322,-0.0064602605998516,-0.3478105366230011,-0.0985294952988625,0.3130960464477539,-0.0045888805761933,-0.0489074327051640,-0.0702767148613930,-0.2480080723762512,-1.2219898700714111,0.0595082677900791,-0.0612232312560081,-0.6486447453498840,-0.2739772796630859, -0.2360938787460327,-0.1308781951665878,-0.0620733574032784,0.2025053650140762,0.1359077990055084,-0.0228719394654036,0.3116666972637177,0.0753548219799995,0.1217006295919418,-0.1744462400674820,-0.0167994908988476,-0.0088454559445381,0.1221641749143600,-1.1640815734863281,-0.5364398956298828,-0.0732668489217758, 0.0786298736929893,-0.0768335536122322,0.0399194024503231,-0.1100109145045280,0.1475082933902740,0.0782478228211403,-0.4692487418651581,-0.4909388422966003,-0.2501146197319031,0.1354315131902695,-0.0948708951473236,-0.0142944809049368,0.2035723477602005,0.2135658264160156,-0.4548861980438232,0.1440548598766327, 
    -0.1546146720647812,-0.4389073252677917,-0.3378155529499054,0.2019171118736267,-0.0184763185679913,-0.0395306870341301,0.1952382326126099,0.0077260285615921,-0.0302911046892405,0.0182728432118893,-0.2635645568370819,0.1390313506126404,0.7045420408248901,0.2201543897390366,-0.0258675627410412,0.4259059131145477, -0.0375844724476337,0.2558880150318146,-0.3833409845829010,0.0815784111618996,-0.2633729279041290,0.0825878381729126,-0.1961292773485184,0.0381024293601513,0.2257082164287567,0.1185626387596130,-0.1407108604907990,-0.0902539342641830,-0.1566305905580521,-0.8122619986534119,-0.4176746308803558,-0.9697731137275696, -0.2012303173542023,0.0555680207908154,-0.0565203055739403,-0.0546148233115673,-0.0778032615780830,0.4631687402725220,0.3277723193168640,0.6419113874435425,-0.1254007518291473,-0.4474115073680878,0.2431946247816086,-0.1917138993740082,-1.0821366310119629,0.1593492627143860,-0.1997789442539215,-0.1457497030496597, -0.1660990864038467,-0.2675374448299408,0.0980655699968338,0.0483288690447807,0.3522442281246185,0.3359673321247101,0.0224859211593866,-0.1705922037363052,-0.0512270927429199,0.0479669943451881,0.2198039740324020,-0.0543238669633865,0.2622513175010681,0.0188846737146378,-0.1596357077360153,0.0959388539195061, 
    0.5134333372116089,0.1025429591536522,0.1139963492751122,-0.0608502849936485,-0.1091725975275040,0.1768854856491089,-0.1683297902345657,0.0237400550395250,0.2917974293231964,0.0061808978207409,0.2942738533020020,0.3360378146171570,-0.0726602375507355,-0.0277315117418766,0.1189278140664101,-0.0208379961550236, 0.1097277924418449,-0.2808522582054138,-0.3259260058403015,0.0519745275378227,-0.0683932378888130,0.2151842713356018,0.2889814376831055,0.3113240897655487,0.1572418659925461,-0.3092910945415497,-0.1073991805315018,-1.6880552768707275,-0.1387956142425537,-0.2588760852813721,0.1585752218961716,-0.0343906730413437, -0.4490534067153931,0.0813990160822868,0.1669423282146454,-0.0969803780317307,-0.0036424712743610,-0.5948125720024109,0.0087462123483419,0.0149033283814788,-0.0273432303220034,-1.6767070293426514,0.0041209557093680,-0.0647953748703003,-0.0437091961503029,-0.8994506597518921,0.1312983781099319,0.0494104772806168, -0.1154623255133629,0.0819279998540878,0.1160031259059906,0.2022488266229630,-0.3758299052715302,-0.0820483788847923,0.4077636897563934,0.1435983479022980,-0.2027904242277145,0.1182554960250854,0.2179311513900757,-0.0863570868968964,-0.0722089260816574,-0.1755335330963135,-0.0260780695825815,-0.1149226725101471, 
    -0.0184271484613419,-0.1117725074291229,0.2473684400320053,-0.1078818663954735,-0.0608523190021515,-0.1248082295060158,-0.0229559689760208,-0.2218125462532043,0.0408707074820995,-0.1350711584091187,0.0920857340097427,0.0079213203862309,-0.1099051013588905,0.0355877168476582,0.0462982840836048,-0.0653639957308769, -0.0627637580037117,0.1429356783628464,0.1795830428600311,0.3536285161972046,0.0696256682276726,-0.1278443932533264,-0.0686539188027382,0.2397785782814026,-0.0557182580232620,0.1167273372411728,-0.0907563641667366,-0.5832210183143616,0.0472988449037075,0.0096931122243404,-0.1701302081346512,-0.0326446630060673, 0.1958767771720886,-0.1780264377593994,0.3514695465564728,0.1427824646234512,0.0861114934086800,0.7485664486885071,-0.1030330881476402,-0.0365678444504738,-0.1033735349774361,-0.1282366663217545,0.1280184239149094,-0.1054077893495560,-0.0957259535789490,-0.0800759494304657,0.0527401529252529,-0.0314140282571316, -0.0726405531167984,0.0314556807279587,0.1301456540822983,-0.0782424658536911,-0.0787674337625504,-0.0839698761701584,-0.0138375209644437,-0.0244622100144625,-0.0315946117043495,0.1473743021488190,0.0440478138625622,-0.0334325544536114,-0.0203306768089533,-0.0138662140816450,0.1551091074943542,-0.0225127357989550, 
    -0.1052467897534370,-0.0728734433650970,0.2546498477458954,0.0429968982934952,0.1503424644470215,0.0787641331553459,0.2414790838956833,-0.2553859651088715,-0.1815277338027954,0.0518875680863857,-0.0590343363583088,-0.1348885744810104,0.3317489326000214,-0.2267394959926605,0.1122399121522903,0.1299397349357605, -0.0408720150589943,-0.0263790450990200,0.0817954167723656,-0.0327999927103519,-0.1374889463186264,-0.0335444062948227,0.1995668113231659,-0.0949976146221161,0.0142814572900534,0.1389993131160736,0.0196641795337200,0.1962826848030090,-0.0126255359500647,-0.1055965200066566,0.1479858011007309,0.4604114592075348, -0.0329084582626820,0.0405284501612186,0.0862318947911263,-0.0272091627120972,-0.0910772532224655,-0.1615891456604004,0.1900758296251297,0.1313184350728989,0.1181735694408417,-0.0910814628005028,-0.1045469641685486,0.0602825433015823,-0.0469697713851929,0.4542205929756165,-0.0683873444795609,-0.0273669697344303, -0.1109947711229324,0.0395804680883884,0.1507948935031891,0.1204909458756447,0.0119099393486977,0.1086386591196060,-0.1468033790588379,-0.0894156023859978,0.2031540870666504,0.0523576326668262,0.0401500016450882,0.0374188236892223,0.0851632505655289,-0.1829939782619476,-0.3990681469440460,0.1642879843711853, 
